function [Y,Xf,Af] = mmiTrainedNet(X,~,~)
%MYNEURALNETWORKFUNCTION neural network simulation function.
%
% Generated by Neural Network Toolbox function genFunction, 12-Oct-2017 00:48:09.
%
% [Y] = myNeuralNetworkFunction(X,~,~) takes these arguments:
%
%   X = 1xTS cell, 1 inputs over TS timesteps
%   Each X{1,ts} = Qx256 matrix, input #1 at timestep ts.
%
% and returns:
%   Y = 1xTS cell of 1 outputs over TS timesteps.
%   Each Y{1,ts} = Qx100 matrix, output #1 at timestep ts.
%
% where Q is number of samples (or series) and TS is the number of timesteps.

%#ok<*RPMT0>

% ===== NEURAL NETWORK CONSTANTS =====

% Layer 1
IW1_1 = [269.83009056477124 216.67782094965969 157.98261950843164 244.45495620418399 157.9813399977391 236.96488498017021 157.95552827851083 225.42214297892014 157.98663565835801 159.8383767801557 160.07650097385587 160.41447369293385 161.12235942514161 160.84646319513365 160.52826722194902 160.42966340658387 160.15054666579118 589.1353383114548 162.93272142068946 667.87116122186467 257.99718710047028 618.46582546856439 183.40500243360785 602.77399265699137 252.01552255503827 996.03705748470895 807.54352358888173 1357.063888678794 938.25034928392233 904.64419620262038 838.70882891934798 812.39015707895192 893.94946965089423 892.17900703049395 480.35995530503834 1165.7863123514603 506.83068379818747 1015.558539674137 473.67810532165498 828.56688136498337 480.67491605105863 210.16014910679795 221.38518883119963 192.47273072763753 244.75008733543388 260.3374453878393 274.52317971473531 251.86517047590712 226.38932674212427 159.80910846778528 162.72929973201326 160.34029035025753 161.40892047979483 160.44428405424759 163.83331104145674 160.82068296777135 163.54452792691086 865.37205204842917 773.59111639632874 248.57531146605345 204.37968703998786 157.97221544600328 239.23641505887747 157.98360457651029 259.41221244596085 157.99208735514753 225.07143126373836 157.95598588690041 159.4926934821919 159.74071385094646 160.26384359671604 159.96037838469374 160.91961898812841 161.94365804697213 160.16228736603597 159.79929707808759 526.10959911926216 160.22742282409169 573.02036586661279 255.94832362188296 731.33677595373206 258.54067484354459 647.78147772909051 247.39681635198488 822.42283546723024 661.41693541782831 613.92465190229018 918.00782806525353 929.14606794182441 1149.0443487950106 1057.9403548099258 1056.6838561666086 898.90970095936098 373.96663782256576 737.30977167180458 418.64804351140157 1038.1183089721219 510.4924077856362 1363.9139879450881 498.99252112516979 262.06252877481222 171.02263078071275 172.22718591214002 233.00648192407897 263.18103108191309 260.10809766285382 290.22903821615341 266.26497621357726 161.50877118700311 162.05710956948445 159.68822183834575 162.87837285077748 160.86457566450835 163.98077366144167 162.05571742349477 165.88902543767944 1055.0495918874431 787.61723922304395 241.17336594107095 195.92039542406164 157.95547655664501 247.46801322691877 157.95259428426698 216.69131884401861 157.95020798519985 264.07495202537359 157.9376905057546 159.68001440486751 160.01408316749388 160.71397354284903 160.58371955919262 160.2451953393039 160.18569602179824 160.49302676440294 160.23989725257911 605.49002537992783 195.85164821526126 708.16227853919656 183.60365919873476 657.77235565969988 261.72790470251209 639.72825112521025 166.51925678200809 674.43045491708733 1004.1770436993173 1109.3239861307902 949.97524468321296 907.51116637467931 1105.3343416133469 1282.2351298540584 750.06049044199631 785.31351108986462 476.27235160022872 1089.3004534708602 575.12236565355772 1053.4205320243168 562.68958393155071 1362.9655480057427 453.11472522448611 266.98807066216972 242.25638840180568 253.80642841892228 286.40790288484743 301.28002168277067 292.73850768154284 278.72319583602575 266.06327334897583 163.68068545132917 163.3480321407873 162.89181441876809 161.63653012321851 164.49128753657939 166.00673808369373 164.50266897300207 162.24953141784175 1042.5133513712858 798.35070485364076 251.22143518698539 243.17942347250508 157.9518990208912 229.77961206462484 157.94290519186234 258.22523547173483 157.9539691940476 233.88113450395213 157.94886179700939 159.89914339955692 159.97535291445769 160.04318622799849 160.12086147389775 160.68653907538931 160.22575430508277 160.12210391244295 159.8892516435514 710.88588369995568 160.46120955291644 669.7112638035245 262.50516288573408 778.75433894804394 164.51897689119687 728.45729779311966 254.95468246080395 869.24342623199118 684.2286905179717 838.81937726083595 818.02495849718218 1083.8967109181133 993.13153213724047 937.92256496346977 970.84455667015663 1020.0538795837083 451.77239659312346 1096.9705122978442 450.92651215190415 1204.8321124000925 538.10489337562547 1223.9386539862676 473.34671764655172 294.18105290934261 290.08299377850301 278.69015885689555 252.8442562831089 311.40740327025748 303.97787035788758 294.37136386745294 301.89279165332727 187.36774350300198 161.12654530449313 203.98818619300306 163.63699022693612 167.35960698541061 162.15244395292495 171.02526259239494 171.69941506056625 1363.7659840986153 869.322093664813 395.30394084742676 406.21228785635719 384.92594578892226 385.70157889538211 426.74104865224052 403.38941056642011 462.66325656929854 404.50971731837302 482.97290565801046 385.70109802180684 509.06427424980734 406.31751038297841 407.77642839498515 533.12426717280289 442.85750008699148 463.95641802095832 478.55652327908024 534.8514450223804 447.86429307309186 547.51877795911037;170.3846667724624 132.28168792847953 89.158304081397119 152.78981939912782 89.157653283166596 147.50307112607618 89.142988068491888 138.9807636884448 89.160747562140926 90.267252961109747 90.416339077071967 90.628911161543613 91.081277443858738 90.903508477531972 90.700747399158843 90.638510852742598 90.46203661157945 433.56030911910727 92.265393759787102 491.16746091480422 162.20047235599029 456.74176418243923 106.83197502630324 444.97239962531876 158.05481023524339 676.2684388581747 575.63961025575713 859.39399908446126 645.35837867050464 627.63383866680886 592.61840510405045 578.75213820187741 622.02092293168471 621.09343933796663 339.72461849343176 766.34093627354525 361.06761366822673 686.78926416963839 333.28345948998435 587.48938306845162 340.07351263115686 127.23572929344905 135.89780534580879 113.64479022024622 152.99820498756097 163.8092852948443 173.63527782519355 157.94927785933453 139.71607808737573 90.24394797570659 92.13128355116126 90.577015149576951 91.266745308979651 90.642442773541461 92.866597744130246 90.883152539414198 92.674332524818738 607.02903919582934 557.15126721450088 155.66707124951537 122.77364967983245 89.152474563333982 149.11611909284858 89.158922488649267 163.18178697278546 89.163794966977633 138.71278083646359 89.1433229675213 90.053738431530263 90.207200127622258 90.533937872490611 90.343273452432229 90.951180460928398 91.614723476710878 90.470124711705481 90.24270237514736 380.62958000743964 90.511148580964161 421.00566539314411 160.7814331533171 532.15744651096384 162.57466361684959 477.71022892193417 154.84589770631476 584.20420483308885 484.09961792023319 437.84897191355958 634.6618795584784 640.53903915016053 757.71840795068113 709.59895293509339 708.92864478064223 624.62349743115203 247.84336781663563 518.54476488551836 285.90113977653544 698.9475705378303 365.05188018117281 862.70669761064232 355.63737854346959 165.0032473472678 97.831360421099149 98.687652064072807 144.63758337781718 165.78150872874701 163.64562142742773 184.539860911067 167.91656199763628 91.325836757183183 91.688614177466604 90.170551985931127 92.231674011952478 90.911698923499031 92.965256776732147 91.679069498910806 94.260931147446698 708.0514517205645 565.08630325222657 150.48684328023754 116.27367352119605 89.143051173632387 154.89162803379949 89.141438985906689 132.29103198243823 89.140056965714777 166.40561595957863 89.132944996163374 90.168956038779044 90.377222523442043 90.819423059981915 90.736487163262964 90.52232457481378 90.484171238386807 90.679193668111765 90.518393782647678 446.97083665284021 116.2222875585684 517.76186007636875 106.97872486755776 484.65420416766403 164.77701526863507 472.09824755725464 94.691030014815851 495.96401183244978 680.64766281260938 736.95416523344875 651.58508165373087 629.13958521962468 734.85120677907685 824.21668249270249 543.45667177014957 563.79003163874711 336.61237820630868 726.354511171745 417.25504966155313 707.17675918064731 411.29228529097037 862.27172268576408 315.5270159612333 168.41121596095442 151.2475795150832 159.2967005329935 181.89033796122851 192.30295100887753 186.31034847379217 176.54823901588964 167.7744628937252 92.759343384324922 92.542736092897457 92.233915742159795 91.414416457484691 93.304064911123433 94.339898869693656 93.312501365987686 91.815010552637403 701.31324056065318 571.06234811975719 157.50075563168426 151.89956570587671 89.140947045084815 142.25209820598963 89.135900379480958 162.35702545777752 89.142174439775161 145.27230722396507 89.139199147345295 90.30537129163406 90.352311960072868 90.394543338000119 90.443095715948317 90.801676358953756 90.509214149601206 90.444236850329247 90.298847215414028 519.26310058336071 90.656915092054689 492.3773218419185 165.30648155408903 560.00002077945726 93.325977208113045 530.41810078648291 160.08027459410513 609.06351609524108 413.52855560061658 554.7742378177976 581.82742930084567 723.47974837893344 669.03641277831161 641.81466678419179 662.73334978456637 689.21306543795811 313.81571639444593 730.41357694915871 313.57721371684477 786.18105652941267 380.40925765437606 795.72832826695924 332.77184695307477 187.33016883187821 184.44483436603281 176.52267274817723 158.6261103855712 199.55535135905859 194.22433659958622 187.46978370851588 192.77484035808047 109.77802341860667 91.083779115737684 122.45683435088451 92.735694165855833 95.257726135250977 91.750804562425188 97.820737095704217 98.313917254799861 862.64021118577739 609.10496648107721 252.82128055803577 389.82392529261409 247.08325313391771 359.50687324824008 288.41880627824554 381.52126193863683 328.71327223759386 383.24426422083076 362.04808831613383 359.50559961280203 390.80888489829084 389.73979339121149 267.26355628996771 510.37678546323139 305.55629688998107 463.45711840059329 354.81991265442076 511.51208962996907 311.07612152842881 520.27789226649372;90.20020539222881 67.206367563768708 48.025640323348213 77.908032095889268 48.025607743193525 74.730364205480384 48.019025405808826 70.30857218983752 48.027799872120312 48.476021623610137 48.537252707071119 48.625244718712899 48.817636469229399 48.740665535455022 48.654369131565353 48.628742088035864 48.55527476276432 216.64077787417699 49.334381235743578 238.09886678997492 84.278349394533791 226.71176576522714 55.848282965358365 222.47647735997998 81.390133140559101 320.71126938271618 274.62847583753296 406.08912308938449 309.37372108463455 301.50035483933073 283.5723438656388 276.55241746875691 298.8056668337577 298.35301306240854 175.14797552140953 347.45983303144021 181.36921417844314 324.02199774353181 171.67900491608049 281.06611591725476 175.39869056336639 64.922805244547902 68.851172376555809 58.876136892266224 78.032136376802995 85.357685842728841 92.591094609309692 81.298201524288999 70.658359123921798 48.449734898280923 49.275112242699656 48.589379575085225 48.897975430188019 48.617006622862021 49.60045683868578 48.721558642907581 49.515774722375042 291.26139794153522 265.86232844995254 79.796253613275383 62.941862323564237 48.023586344096159 75.653873303910956 48.026129615792556 84.978943327209976 48.028727813910727 70.177770626924101 48.019780462657465 48.389770503924666 48.451822191973143 48.586003307807758 48.506885635418875 48.762381905174138 49.049172558870524 48.559833656025283 48.465277885292714 193.70132233640612 48.577532510348291 212.21046756981536 83.278315698820649 254.50932058984563 84.535686800977302 233.89304095050451 79.249981224178242 279.37274836651579 231.74342285616007 202.82967733253594 304.74393125413491 307.33515471475334 344.98899544647321 330.6701623205845 330.50424708506222 300.0659485456913 138.37872815546697 238.97292131279039 154.03848081914586 327.6370279665116 184.11843088581392 412.2108498163243 181.07544801531256 86.222896638191088 51.821070743270639 52.206592078347782 73.147465787547759 86.807196923229242 85.22638684368556 100.64207452545143 88.360848691470096 48.912003274599002 49.081241068522182 48.42535864842327 49.321302518297308 48.735263667452365 49.644090267852107 49.061704811321711 50.223855451901635 330.25425266856342 269.69808226396378 76.482339056402154 60.048781421832501 48.019732119289372 79.263433963373103 48.01916564381996 67.209467256640977 48.018262575559334 87.297785873061741 48.015034855371624 48.435393272173997 48.521251808107806 48.706562855138223 48.671577348840515 48.581500193956053 48.564330385185876 48.647525818460018 48.579377761926864 223.08572149109912 60.027788343612336 248.56285579055412 55.913014380683904 236.3677944794423 86.096881839147983 232.03798168055425 50.414882524798998 240.4618651935391 322.09853863870325 338.50172398087545 311.88986158905766 302.20780875013594 337.92629605418887 375.99288361958969 259.51576485200059 269.06047299378037 174.61132904020857 335.46182643820322 202.76449004020503 330.00478813643355 206.14881247367711 412.0352609523419 164.99390332640039 88.710981750756545 76.939039353198538 82.22740514139204 98.745277057115317 106.33951090417634 102.02626299222254 94.775495629680037 88.245897410880403 49.542284439627828 49.457902442004048 49.309514501950609 48.961582615118687 49.784560241640648 50.258144472542924 49.789592529786034 49.135982035765217 328.32236520860414 272.66368150227549 81.002405580879696 77.355868164835812 48.01830281526172 71.9051962669906 48.016344330411194 84.371795340528024 48.019079332877482 73.483022597753916 48.017373715389304 48.49130166586162 48.510065257330474 48.527038371267253 48.547060479509696 48.697976449107344 48.574616026485856 48.548343119481778 48.48875200690501 248.8714090187492 48.636382022295187 238.48916712548527 86.438902144775696 267.14319156217977 49.803137393247724 253.79524940570826 82.730926652843436 292.30797114664142 202.40412974221431 255.17656323318869 278.1442131949039 334.64025572213001 304.84068841926268 304.6485953211523 316.08937165061928 324.75781298793021 163.5083762508562 336.4846932053747 164.17124701816712 355.5505766303221 181.39932439882151 359.76357759253563 171.15053771190622 102.79545154844189 100.60621960505745 94.723886976145948 81.747288044809522 111.56410715651072 107.72911578482436 102.89328371593307 106.77869596245299 57.123172712339169 48.819064773844183 62.742201797193275 49.542803025769942 50.645575877471956 49.108010410220089 51.789804177595293 52.039971947158236 412.21764669188553 292.32930714531926 550.77267224563764 444.93318670338391 552.10746108735293 442.86767877450188 551.3754550833961 442.94312404940456 551.50796658800948 443.09703445375987 553.46737763459612 442.86743408641678 553.26092303256451 444.8489038351056 551.16296068254326 565.46643732676944 551.26911339225137 557.53110249837778 553.07100444412731 565.64413017678771 551.26802021478863 566.87108930084025;79.556681930361933 60.063604607168813 44.117462310618812 69.031985843710032 44.117455350900507 66.342339393684199 44.11190392673408 62.639043765980524 44.119369696961954 44.492650061171908 44.543628004853005 44.616940155362549 44.777609533285194 44.713227250449961 44.641143981205673 44.619807917830755 44.558573796633304 188.61361454248035 45.209914004570102 207.9175622045174 74.470035359129085 197.66778189200454 50.645422364644261 193.89400172500854 71.998987469486721 289.66237744636908 243.11937745359751 369.23588061882685 278.44277969634908 270.4379164082049 252.14432506306355 245.01031273745195 267.68143494324602 267.21790424430372 152.21709364551154 314.02614107213878 157.41209931198253 292.82778430541657 149.18945907708095 249.56975544268724 152.43932156278447 58.170770951217023 61.427197183028717 53.15988945042605 69.136964784263782 75.392369752480207 81.61606928284084 71.919520823892867 62.92995971226506 44.469259738254138 45.160280502874755 44.585789973866639 44.844799028977484 44.608860341899955 45.43262289973886 44.696371579535302 45.361770716505774 259.95580975171208 234.35470485758623 70.639703493526738 56.530633388749678 44.115775547333818 67.121433076666762 44.117891635805165 75.070646581066825 44.120116405480857 62.530025290082222 44.112589822429541 44.420934259528572 44.472528372292544 44.584255797718804 44.518317701539601 44.731480674596909 44.971260805567304 44.562474525136466 44.483643783221794 168.3598424547848 44.57728804528854 184.72371845592221 73.613585544420843 223.31474331251479 74.690213873718463 204.11148218289293 70.174116719262585 247.85386312401232 201.99384613636568 175.92466610185843 273.7474399010643 276.38057792950701 311.90891112009081 299.00910793380393 298.86174491175797 268.97115140655461 121.0788404660962 209.629745623974 134.29636132827309 296.21808571850789 159.85183543872066 375.34682642312384 157.27589203970626 76.135101927963149 47.289643661823312 47.611657208956892 65.010617196142547 76.637729122164671 75.27918081553689 88.570456893601161 77.972792293743666 44.855574457988958 44.998079054046727 44.449474570271967 45.1990863434632 44.707952941904459 45.469137240443359 44.980494897841425 45.954524568468173 298.63265288056544 238.15186234253309 67.822821755766867 54.13282477179304 44.112554810303052 70.184813402503764 44.11208985729656 60.066105206317474 44.111305078908622 77.060823687593555 44.108579952832173 44.458786776685635 44.530312966410143 44.684891589934828 44.655696465479977 44.58053080398782 44.56610779685532 44.635628624822857 44.578726420374103 194.42802258209929 54.11554866809135 217.65842204131488 50.699204183831831 206.36014572372878 76.028598522164515 202.44150634605347 46.114271234150223 210.11105385849959 290.99420683895011 306.08271368581597 280.97356884752338 271.1607555351581 305.57630200821336 340.72986643081072 228.14471797844794 237.51877676173524 151.80620101805707 303.36064671687109 175.96368192440983 298.40380958171664 179.24510228807691 375.29029236977561 143.51828368002404 78.273444070991076 68.209390075521782 72.713712037465143 86.932145755697718 93.507334710592446 89.772490431442577 83.501717884350924 77.873479851038695 45.383070442818983 45.313372241921591 45.188189918592599 44.897956893130512 45.585898967245051 45.983154745792177 45.590211096147847 45.043827378667018 296.8533879841213 241.10801743974821 71.667436646803679 68.563529133480699 44.111310149171274 63.970011444378152 44.109683041263899 74.549294537738859 44.111983120385723 65.292087950656068 44.110514939438332 44.505333564033997 44.520920026878898 44.53502001981979 44.551699447924044 44.677627855493149 44.574672546202372 44.552838752955829 44.503229564999025 217.94891440453091 44.626202936412476 208.27398272993059 76.320458003262516 235.6254210897014 45.602176999839365 222.63031316611676 73.142636861769319 261.02687513695366 182.34836929033349 227.92255661491845 246.61306721835493 302.62001377591008 273.36235244494048 273.88719020974742 285.15101585334099 293.52339222387388 142.19937092721497 304.2494760331611 142.8156454523114 321.50219734405601 157.09413883832636 325.38570017015866 148.71634569533748 90.439477466300119 88.540994631845138 83.45563437231722 72.302522031998109 98.041551377384366 94.712361573273313 90.523832235597098 93.8924068007546 51.702095425355353 44.778839714527031 56.36079699303933 45.384388813981772 46.305452589169782 45.020443627551195 47.261459536314398 47.472606899995967 375.37756749153067 261.04870107722144 587.65128485287767 453.51204484411062 589.24707787404179 452.64610094910938 587.14093033612687 451.53303149796426 586.13971576382255 451.62733307883985 587.44155430017349 452.64587421854424 586.52583784357955 453.41372422417294 587.57675671891229 597.80278614341285 586.52314073522689 589.2504086533005 587.18134214677355 597.99362472487599 586.36486506791607 599.29375263338693;73.480117369035526 55.708463950142352 41.347937211523679 63.82956810583029 41.347938733058243 61.3777073078966 41.342838583539347 58.024792915866946 41.349723333755627 41.688839044465283 41.7350261965572 41.801441171030334 41.947071565846308 41.888685823456711 41.823343374230646 41.804024403517005 41.748537751966907 176.09086993347768 42.338879362919727 195.0480242956217 68.808589956675362 184.9120164001165 47.247268168866668 181.22546453921507 66.54367197631332 279.91880552601424 231.0178015609697 363.46838217655647 268.115413337061 259.66444143738147 240.434006376121 232.94555843822263 256.75487046819444 256.26563086671445 141.19802691519294 305.18278708522848 146.11387923131974 283.22886994107864 138.32104459972885 237.70955844654861 141.40981875144547 54.00868960037721 56.933667669625713 49.50907574438061 63.925298783743855 69.653361813629473 75.374331353957189 66.470474615003639 58.286985334226927 41.667087046774796 42.293904193583458 41.772762132561454 42.007987387195186 41.793678347092232 42.540663979779538 41.873089242673615 42.476498332925274 248.61077044263445 221.88294073542852 65.299740346085827 52.53673165582348 41.346405906076654 62.086594273400308 41.348338267499749 69.359669432977242 41.350394927348091 57.926480238408203 41.343488534195167 41.623881241723879 41.670621319244511 41.771837315245492 41.712084413068901 41.905273626022407 42.122612815561681 41.752111996741981 41.680655902717589 156.58266359472091 41.765554458005163 172.32456413662933 68.023198752691044 210.55929109467934 69.010378564276436 191.25601791720968 64.873775739944762 235.91309421057193 189.26700893080613 164.11757063172234 263.15891367896523 265.93895701339039 303.0034891656104 289.65893698884042 289.50639201076569 258.11603102273182 111.94083048635005 197.90083441535091 124.30189126441067 286.76108446043406 148.44217353240754 369.86733704910682 145.99585081846953 70.335254968627538 44.220720221157521 44.511673408245507 60.168160159687531 70.797240889454059 69.549160296116696 81.782083742180674 72.023626042650406 42.017410559125523 42.146912140481717 41.649343428398907 42.329129290711521 41.883634520501055 42.573734982705332 42.130521643273973 43.013341827284322 289.26877266232128 225.81206716639167 62.726055645691957 50.383466962370804 41.343458837878174 64.883181259046921 41.343036495693113 55.710676329222977 41.342306178330333 71.186630877171496 41.339800759896121 41.658141232686937 41.722966280450848 41.863052722441601 41.836596170814602 41.768472516981198 41.755360788961397 41.818413803364493 41.766820054584372 181.74622533456619 50.367993639403807 204.81650454141788 47.295669518495075 193.48470129264666 70.238281392947016 189.60450531873579 43.157887563687197 197.22084506678806 281.31324769271237 296.97732933782902 270.78479677716859 260.42765084048739 296.45507623122955 333.11956613668701 215.49324145441477 225.1562261918593 140.81660499791042 294.16450314438578 163.88444466612935 289.0313621431946 167.03041240752214 369.79420740554633 132.96640067159112 72.299616635656918 63.078485978626432 67.198067980439674 80.272306857608982 86.342239573564967 82.893359158682671 77.110811742120134 71.932123074343252 42.495482573597513 42.432654515091727 42.318891798274933 42.056160502546987 42.679220513322264 43.039222213379162 42.683161840327998 42.188362409111384 287.42149362291161 228.88090919676927 66.23982104335569 63.401993535282955 41.342299482965885 59.225865599448156 41.340813910775722 68.880922668932186 41.342924814900329 60.423320227938191 41.341564031312018 41.700321042661074 41.714424104504872 41.727185462130038 41.742296376064886 41.856438067176938 41.763117218879174 41.743354971262477 41.698417310800735 205.1240652122541 41.809808785438278 195.40472025850283 70.505347801043968 223.20393749751992 42.694192622146701 209.86060189831943 67.590212940282868 249.73850912274537 175.17446108078593 218.59397418531478 234.61678324045951 293.39852615107804 263.34474749277956 263.65048301724465 275.18342293174453 283.95470584899476 131.71186923748979 295.07997630397114 132.30296386065035 312.9655418151267 145.8594430516265 317.01612019291997 137.86995559834358 83.509686308853617 81.755698978630775 77.06766186740137 66.8209568879671 90.539382180220642 87.456721011178132 83.587527685649817 86.700747637324696 48.197393335273333 41.948194824711024 52.382890142056709 42.496981838109853 43.330273456445241 42.16716922421346 44.194575097109265 44.38610297630369 369.89627344255592 249.76148258990361 586.50303538708226 426.078591394814 587.92229018097851 427.1086388676373 584.92546519088819 424.94752993633392 582.95259239492839 424.92704300142975 583.09765276125142 427.10853701043118 581.63156050784278 426.00399046528332 585.94599742029777 587.7143392748967 583.92249465399561 576.66435495862834 583.07556126381337 587.95960016085542 583.63555972083304 589.60127232260231;73.082320120596819 55.70531491072073 41.962849329695608 63.601214825579767 41.962858562221811 61.210411467044494 41.958134046180618 57.951070224390534 41.964529030059829 42.279712612734372 42.322908488059831 42.385049654328775 42.521598086206531 42.466793542669251 42.405551144840402 42.387468904552883 42.335507873279028 175.91456692799517 42.889966419624429 193.91439983698379 68.481708606767768 184.69689459403901 47.553985402841825 181.17201035622756 66.258059405024838 268.12757429414103 225.89870488132038 340.74062215068028 258.21607608960812 251.0046731235397 234.20764617949359 227.8116184222205 248.50422008616351 248.08366272006026 140.53052364664597 289.04589560964229 145.17625667556689 270.86905512878633 137.53774572707286 231.97592570569103 140.75622568651212 54.059756508986673 56.892245980007445 49.722029899131257 63.694669811431076 69.309943380439691 74.952317794158191 66.185718310008909 58.205688640072211 42.259090171583111 42.84765494467208 42.357943608227473 42.578805378403047 42.377513645733018 43.080132538251604 42.451991119352435 43.019695344719025 241.47119168638878 218.09010755229974 65.039785551065947 52.638059273193861 41.961444124807393 61.900352662230716 41.963227167389263 69.023717468001465 41.965141471533769 57.855506532467139 41.958749868180227 42.219087578275321 42.26272768363269 42.357341793825434 42.301435461791897 42.482388641238458 42.686511702122367 42.338888083421097 42.272053882226864 156.24604084185248 42.35146802991639 172.27873049803171 67.71002332156371 208.00390648589845 68.679725111091699 190.58863349847545 64.622718405005017 230.41613034504135 187.5861218762299 160.89512687585625 253.99622402266314 256.3667935256849 287.32165034755576 276.15698745387027 276.04184358490903 249.67509411746846 111.28102730572915 191.40397939256189 123.60728869593547 273.7815099709257 147.65758022750518 346.83793443191541 145.29679154199493 69.981117579197203 44.669772840701633 44.946099322989284 60.033243091077203 70.436800574225884 69.206749761167487 81.291506541667729 71.645121934188779 42.587411033770358 42.709341797517425 42.242616739240752 42.880893650172304 42.461901655799437 43.11130232316021 42.693563246001858 43.52640362962326 275.84610894589287 221.55406219920019 62.524097186324909 50.562830073560107 41.958724509311295 64.631265178596038 41.958336970905656 55.707386609171699 41.957654461064955 70.821657409689522 41.955332755392327 42.251039319007823 42.311629017320875 42.442784259937639 42.417989431101986 42.354199291388092 42.341894007166736 42.400970520500529 42.352622219493249 181.65146571916864 50.548006702907905 202.8592679764518 47.600235144719825 192.64519282647007 69.886976210938258 189.08550912908044 43.66295259721025 196.06243844300101 269.27608715412475 282.21630153773805 260.47413521418088 251.65894436122895 281.79606791252371 314.15716429809197 212.42331174065413 220.97504563859124 140.22752905984731 279.88942119551723 162.66113834200883 275.65061448528559 166.70165376275708 346.92206682574806 132.20626858952949 71.916478371119439 62.867651995404017 66.8995324846302 79.798606819619408 85.816309989414933 82.396733355712485 76.669411554493649 71.554467208963842 43.037350774520156 42.978352603406385 42.87098672966377 42.62405607192526 43.21062167266372 43.550789376312196 43.214370677345094 42.748338307028476 274.32524916694746 224.25292968761292 65.959729962063918 63.183997617035132 41.957638989941863 59.116978259938008 41.956270743088268 68.552278228804255 41.958224389731818 60.28110094987067 41.956954136974254 42.290456273313886 42.303606057965389 42.315527805099016 42.329653606551176 42.43657409067935 42.349143816826768 42.330662197617109 42.288658389558087 203.03664730051764 42.392803605741804 194.2258286190941 70.148266874876882 219.21292400632618 43.224852802468746 207.38909914364044 67.282584560502031 242.44802601019128 159.93834714217942 203.91124328098704 229.28232110362734 279.2549232921674 248.5324698254899 252.18761540947327 264.17704748370437 271.46841904919825 130.86051484714017 280.59411789803562 131.53550746924776 295.98517340484091 143.69808635623443 299.57243715294624 137.04762441876676 83.009324168076091 81.266880097831589 76.625663649567485 66.528899324725359 89.992656108279405 86.924341973030721 83.086920214097105 86.178479590725757 48.46287801762189 42.522640507579922 52.488438403253738 43.038979297851625 43.82552253564856 42.728379029797054 44.644476004428952 44.826908860692257 346.8970859463987 242.46798560404659 596.15071102436355 421.46592105454039 597.58033550245898 423.6460098068701 593.93117591995872 420.63826998419853 591.31549942544757 420.55326322479493 590.87359037047577 423.64595786890993 588.99993693005899 421.39402138445888 595.31697711019626 592.91926880038022 592.65889620696225 581.44910572234539 590.97407615952284 593.17308884556462 592.28481331095361 594.85702814981892;75.250781937520216 57.46524763184167 43.06000381155571 65.603442836142932 43.060008592358066 63.152795938132712 43.054986808520226 59.793330508541793 43.061774039953605 43.397316519343228 43.443192860514188 43.509194561198861 43.654085422619865 43.595963441214316 43.530960089883799 43.511757331942817 43.456603428273247 176.68778011739047 44.044511000578794 194.87002953252357 70.580287481900712 185.30441380245324 48.958253168598226 181.76041341622806 68.316133198065984 274.10177818125038 228.62246499168955 350.92165777765922 263.25283627087708 255.4219930752933 237.45000922503863 230.50504609950937 252.71783421370702 252.26304282919389 142.32091131108146 296.96451531711097 147.03230508764631 277.11867901362564 139.4524452812237 234.95675565004038 142.53420250596702 55.754964386308089 58.697007033056323 51.229594728434385 65.699064889781042 71.424100873878373 77.144527652040082 68.242774575162372 60.056537412919958 43.375519639134289 43.999662259501541 43.480511808126032 43.714743326513961 43.50130322428133 44.245810599676311 43.580316636919704 44.181797909895458 245.13485742570808 220.15475184894876 67.072968746282029 54.274169989323589 43.058501845360702 63.861379081246199 43.060401349726895 71.131281824070939 43.062430996862837 59.694556856022523 43.055632893088237 43.3328545800128 43.379237356050197 43.479771471371095 43.420397642603966 43.612489331680372 43.828927426869285 43.460172440022234 43.389182416726015 157.52867393875545 43.473538966844544 173.05365477627834 69.795120635108304 209.52078890193459 70.7819216359823 191.33725600408576 66.647191155706594 233.28165963018782 189.00365515457796 163.79420521556565 258.66468565995189 261.23997416939829 295.04101193245003 282.94477823988507 282.81108366211117 253.98336205655835 113.54625652605058 195.68020015552906 125.71931063732779 280.32557527978889 149.37530303385773 357.07236706817025 147.01194347419386 72.105915632239572 45.924956253978245 46.216189151512289 61.942442394915766 72.568072518597788 71.319724670233782 83.548805121362307 73.79426752798669 43.723976636700044 43.853137622320467 43.357972665112385 44.034817790862157 43.590826473865917 44.278809647731023 43.836596795346246 44.717776404371456 282.59611013893669 223.83389794417945 64.500644558991183 52.108540294479795 43.055604502612596 66.656387880279595 43.05519040832317 57.467449159346671 43.054468615960211 72.957814866556845 43.052001828899812 43.366836093443339 43.431213306700684 43.570481343078825 43.54416619046922 43.476431586846509 43.463382484967859 43.526086478281634 43.474780332982483 182.25376037925014 52.09301619674762 204.12111797559126 49.006812537483306 193.45227304150006 72.00936796716222 189.77828523536922 44.862162356078301 196.98720871150488 275.37105414474172 289.56106200165408 265.71652056780556 256.13063949477157 289.09513771196134 322.97510756220566 214.161973297081 223.21940655014791 141.97852042883451 287.0225135913393 164.32934427790349 282.38131642834321 167.76027261201628 357.08110130731563 134.2068425194802 74.070019936817673 64.852772117029588 68.970117410809237 82.040908478584157 88.104501458120012 84.660253099253566 78.880758050663957 73.70264164607245 44.200588917177249 44.138060823958803 44.024439295343754 43.762718242043668 44.383958257062602 44.743611770422625 44.387909920969243 43.894442802909538 280.92394099872928 226.70587765228879 68.012283134994661 65.176253602904396 43.054457967697026 60.998252787989557 43.052998971099882 70.652427398736563 43.055076285090848 62.19779283292538 43.053732390700169 43.408716706338915 43.422713840980435 43.435384410394697 43.450395891879147 43.56388815008242 43.471088434837966 43.451458625775864 43.406824931202429 204.37361644622754 43.517498492323774 195.20192379932331 72.275903859785672 221.37645306880009 44.399017059309998 208.86779572360425 69.361586372779371 246.18599333632568 170.23322028770914 212.96341843770165 232.07008927667226 286.33011983117535 256.70639525627837 258.3165097605509 269.76510859017196 277.77866397710756 132.93816109219225 287.82668428920556 133.5524912792601 304.18396944394743 146.3027414615735 307.92911263421263 138.99418356918693 85.2763952754039 83.522898488259202 78.837275852520776 68.592947600810277 92.295891129411928 89.217650831347584 85.354232043583622 88.464270084757274 49.911479518247354 43.6552065169952 54.118539790523485 44.202231039130218 45.034118677290799 43.873319389481225 45.898434615560944 46.090513816131235 357.11643657481011 246.20742753387978 603.85437868364329 440.94706460758761 605.4612223513418 441.75243571882891 602.29422471931025 439.48996130050386 600.27359833088497 439.4886081433919 600.65218037948591 441.75229271458937 599.11765479456051 440.85715220709602 603.3228769249572 607.13910152941378 601.24740117875785 596.72322305098828 600.58268036714833 607.37053638450686 600.95109408177768 608.92335946033154;74.944250180224529 57.218711300543838 42.820077564323867 65.333957812619488 42.820082451755908 62.89119510746346 42.815062105447225 59.541280718422804 42.82184658867812 43.157702803101252 43.203650733625111 43.269754616625519 43.414871181673668 43.356659164924118 43.291556254228198 43.272323077029142 43.217081531969569 175.21708595158896 43.805886455337486 192.93306521339673 70.292891274627678 183.66648576903634 48.722454620784561 180.20884992544833 68.037200939268445 268.95503637264221 225.44573664798529 341.59836549649702 258.62901280542076 251.15110546058196 233.92492479543083 227.28058826062139 248.5654541839032 248.13052694319458 141.37028487674056 290.55103794162227 145.98102543470964 271.81671958796727 138.53241644627735 231.55164182286617 141.58181976055886 55.511830987152983 58.447675469809298 50.992562954524608 65.429265232598908 71.133397133839907 76.829600092008789 67.964107650195544 59.803814339635949 43.135903297634115 43.760974793781322 43.241050630765457 43.475623313277531 43.261872445054358 44.007476385459903 43.341005031239781 43.943375645379987 241.30805039482908 217.33865090046581 66.798463248843646 54.033516367259246 42.818575594228122 63.597559760891123 42.820474979113619 70.841749582901144 42.822503750878525 59.442758953286067 42.81570743338014 43.093146227406983 43.139598417325949 43.240285125471736 43.180819764390264 43.373209554472297 43.589982498703286 43.220655069682387 43.149557830356883 156.37399909026394 43.234040074900953 171.66363359382632 69.51071907340895 207.09775901307688 70.493742416797446 189.52745669722825 66.374163331473497 229.94596154656745 187.11982090207849 162.18848230728622 254.24953189327235 256.70842446358586 288.75479290268021 277.32865262172737 277.20370696914915 249.77572184540185 112.97122479157865 193.03893519499928 124.99783881395815 274.85341489545056 148.30383655168072 347.51009554939276 145.98658404749676 71.812499835909364 45.688426711329427 45.979865628456814 61.684473194086955 72.272799206908587 71.02942240545417 83.202612207324108 73.493941610942358 43.484884979018375 43.614228738219204 43.118320928818854 43.796182265062214 43.351528451238067 44.040520794320841 43.597677648022767 44.480060946680268 277.00052079647389 220.87494914871394 64.234784237248732 51.870679917369038 42.815678984876165 66.383322728372846 42.815264977898075 57.220906811871032 42.814543689382667 72.660961125476149 42.812077691861816 43.127178849062268 43.191652253110739 43.331134191005823 43.304777777597344 43.236939533342472 43.223871663392117 43.286670990684414 43.235284747102241 180.68815315789982 51.855171751254247 201.88936490098274 48.771001178588442 191.5792602719809 71.716347708105047 188.01713423150036 44.624616318584977 195.00332129159662 270.15858043427937 283.57615757959513 260.97784051140042 251.82840904970703 283.13857336252312 315.27396915198591 211.57184187903061 220.28428934270843 141.04104384227969 281.18159680420678 162.96007618947485 276.79749364574474 166.43278964022807 347.55248691529852 133.36463054080315 73.768523689772536 64.585767158157978 68.688795545606496 81.702515792079197 87.733287416509114 84.308229229324922 78.557803283549063 73.402693901352919 43.962204964013615 43.899573186163245 43.785802785570795 43.52367319974055 44.145825911216811 44.505925199996931 44.149781835459045 43.65559895749935 275.41946699438012 223.63386256960592 67.734442049681519 64.908192602916955 42.81453316115639 60.742970742968794 42.81307453824752 70.364751635776528 42.815151304994416 61.939067998237668 42.813807926830172 43.16912258375401 43.183139882619159 43.195830361179567 43.210864376894129 43.324533322631716 43.231589203881775 43.211927563987167 43.167225888803294 202.12069047962871 43.27806643882068 193.2527191449482 71.981798073810282 218.50782324136546 44.160890026239571 206.46947091451801 69.078790623478724 242.31462535566737 166.75259307036578 208.84331057266965 228.78347450152162 280.52787683756941 251.66407155521321 253.64480324762377 264.8333906775897 272.4421101351121 132.10463636300412 281.93294862899023 132.71873235475647 297.41185749876439 145.12239212078038 300.96392080304514 138.07685457953559 84.921080498414227 83.176862167400046 78.514520176871272 68.313005019652962 91.89952084121316 88.839976789157959 84.998513513417535 88.09111282212578 49.675365194884897 43.415991978314914 53.878173481182941 43.963836481752374 44.796788685788314 43.634441311479911 45.661913017017802 45.854107679381649 347.55950382080289 242.33515739041886 602.11653149918254 442.59021520141476 603.8132313727906 443.08190025945902 600.68686186735965 440.9394754995912 598.76268670609272 440.95839524041577 599.36045462206721 443.08173013016238 597.86630661944048 442.49341513546915 601.6504333954648 607.15437869052164 599.66912455562181 597.2090495025584 599.24615743154266 607.37578982206014 599.38449990071445 608.86563867088125;78.257370509594153 59.114155507043556 43.045508963709523 67.95840298224833 43.045516696974005 65.318892462501992 43.039925380615216 61.669063216780856 43.047493591869532 43.423669995681436 43.475259331358693 43.549535743095433 43.712729785124097 43.647237453350485 43.57401117659893 43.552401018691242 43.490344183969512 177.92590625761147 44.15285007758591 194.45223804942879 73.287228594264235 185.89690570720171 49.671462866432307 182.66917177832715 70.867381230249194 263.60672744082603 224.38599875848905 320.76542242435556 254.55010993248231 247.83961887468939 232.16118113417747 226.08286459297096 245.50195035422433 245.10808362789015 145.51142671973389 281.11401940837374 149.88714891995937 266.04696862097649 142.74388427872589 229.99601658122253 145.71877150392584 57.227388460705555 60.468040231619419 52.206215753931417 68.061062792570453 74.187507216428912 80.26445048505073 70.788850236209527 61.956538578823405 43.398781293943344 44.102251431618086 43.516928366922841 43.781085707785685 43.540345311337667 44.379762665298685 43.62936641493777 44.307581408644872 238.90899222057203 216.9563759643126 69.535621912254726 55.588854014126014 43.043843165379741 66.083567321016318 43.045953799032077 73.875009105719712 43.048219871567497 61.561042542212107 43.040652191592841 43.351205351069055 43.403328107193005 43.516426582788682 43.4496200643366 43.665877786086646 43.909789949879197 43.494379398878451 43.414505565445744 159.98379273757087 43.509446880785852 174.59065726540013 72.448870094701874 207.53179413666334 73.502436781767855 191.32965442783012 69.078994320765418 228.52602851527973 188.89521796892546 165.02657935348336 250.63040254369395 252.83526944437057 279.77426085731372 270.63076819858406 270.53179751648986 246.59703584432287 117.72606559259387 193.96454031044058 129.6081932570799 268.59303076042977 152.15354150453604 325.58888382004614 149.94767400408315 74.914086081394103 46.270452667175491 46.597811299112152 64.009165719097808 75.406134690157145 74.076348124155857 87.018318599852748 76.710494844318973 43.79125091218917 43.937088041564806 43.379177945839807 44.141902384789624 43.641241609372841 44.416966677059733 43.918150496434443 44.911687188906114 270.36524400085176 220.20516414255059 66.772290737365964 53.184567854441354 43.040621376761727 69.088922915181683 43.040162294433394 59.116583486032646 43.03935518253428 75.820835671942945 43.036609527763019 43.389377402553848 43.461787736054553 43.618580022096261 43.588947600734706 43.512675355345792 43.497966092307664 43.568580394536653 43.510821160857319 183.112756014697 53.167329517282496 202.73338562160995 49.725766590610448 193.22876759926379 74.811137558148744 189.93570703286352 45.074364610570875 196.39257383221991 264.63614547397373 275.66373584688318 256.6368236280336 248.45071729836718 275.32215058878614 300.88365225614024 211.65276555034771 219.66257405040264 145.21338856502257 273.75615949209066 166.07672645486127 270.19863768494213 169.56495431234035 325.75613884659373 137.74543622467206 77.003720801293554 67.15127916662864 71.567042165979743 85.43260150846335 91.78930220938102 88.184576203116123 82.100581297608926 76.613154125222792 44.328531465580738 44.258311859453073 44.129932490879654 43.835142821887381 44.535246741800719 44.940815434310565 44.539724829679322 43.983620087098117 269.06247728050937 222.73805070607392 70.54215075045613 67.499159057267789 43.039339283536066 62.983497032326198 43.037718971835446 73.364223538494059 43.040029918535765 64.285967136274792 43.038529995666174 43.436469023305314 43.452217632654182 43.466463004420937 43.483356526735825 43.611120551827469 43.506639660762104 43.484569622454742 43.434359193486422 202.93327608841258 43.558924708960134 194.7453380218995 75.095224738397619 218.02724088493241 44.552476474030001 206.95431573366682 71.985863374249647 239.82570093706261 168.58337657846346 208.17227772179746 227.4609095969704 273.23066548760011 247.46848505009405 249.92522216488061 260.03189632706869 266.57509627319735 136.49938940278193 274.33546996293211 137.11661788581853 286.62609896553664 148.81934657331027 289.44274593235332 142.29409734655184 88.830326356666859 86.990951660826283 82.054677763245948 71.163647792069156 96.151440845690644 92.950298155116869 88.911691140792129 92.163911476483165 50.735565298568886 43.714016307817651 55.414985475897993 44.330628820301342 45.26754819701334 43.959832896423322 46.240013174768549 46.456552912670091 325.65648812148601 239.8443956283912 608.15063469656081 455.5443684478347 610.16747069686369 455.55338077538897 606.78368238990504 453.51785260409599 604.81797503856114 453.5696918287814 605.83503700894028 455.55315858243119 604.25456167633172 455.43261272815488 607.74162422472523 616.75089756223213 605.70814687786537 607.71169067326593 605.63574470419144 616.95421665199081 605.41317077201859 618.33134271511835;79.633153966656906 60.115959285437505 43.521448443373941 69.16370567958127 43.521460470397798 66.473568083033939 43.51571820917566 62.740457435686515 43.523504307591239 43.91077153324477 43.964003606338025 44.040679959723988 44.209302102359871 44.141597452789753 44.06593489246044 44.043626330889623 43.97955783317029 178.05516870210269 44.664518596592842 193.79768160480629 74.585728079721477 185.7585333757755 50.374552983683799 182.68047268281458 72.124850002658292 258.26659301042793 221.87444578034524 309.50176855509534 249.99719873680942 243.79719708600641 229.16257869875449 223.51360170123715 241.62824272791374 241.26258969999378 146.45644455410911 273.79099207448604 150.63242900331792 260.46528811378391 143.72362033317353 227.17246298030977 146.6627381949138 58.173381813117807 61.507505176569538 52.993684168877422 69.268181023231762 75.500036156377206 81.668604936915784 72.044752619972314 63.035176009596739 43.884744670390731 44.61215539579014 44.006715591794588 44.279975516653884 44.030901254735362 44.899327954824926 44.122914091593145 44.824633608206881 235.49463269452369 214.96921559555864 70.769776096269553 56.484773687559866 43.51974676471022 67.253288694544423 43.521908821903402 75.183187616492859 43.524243198225577 62.629608007149507 43.51647456791509 43.836044553278086 43.889790334697018 44.006501083127382 43.937539545948908 44.160888198002624 44.413071213082674 43.983747832687918 43.901301314649338 160.62363930900256 43.999319377728035 174.86436761724187 73.733395893882218 206.12118577189591 74.804394485725851 190.89471845051139 70.304906930511081 225.80045985231445 188.28124299902129 164.77020447056213 246.38092797955809 248.4171814148167 272.65491361421675 264.55238451135557 264.46814927776285 242.64479819950753 119.24105013924469 192.16467457426228 130.91954524272683 262.74343534528759 152.88288059982204 313.96534805053949 150.76381576769967 76.238341645563708 46.85636034329292 47.19518646651742 65.136206533909942 76.73840035664125 75.386918437306292 88.505304411378802 78.062944832151572 44.290252013024698 44.441304126805861 43.864639108252149 44.653216052082854 44.13521623976952 44.937829994915987 44.421411392686714 45.449933266607815 264.32026648780169 218.01291220715706 67.955400030559048 54.003999705494046 43.516444215709875 70.31483011113724 43.515975248982087 60.11843596664086 43.515141817717073 77.159975814480504 43.512322025606068 43.875384306371089 43.950103336450624 44.112023163321886 44.081412604080796 44.00263535106582 43.987422487616492 44.060374307880103 44.000713397283022 183.09802795516603 53.986240411520996 201.61448692032829 50.430683019887312 192.6882137851758 76.13413058718254 189.58474737897126 45.618309903710689 195.66987510032013 259.19349966947055 269.00447316255833 251.91441496112901 244.36346725282323 268.708457029459 291.78235710856103 209.99460201932283 217.50433106070145 146.19127143570068 267.32348984305048 166.28123219026065 264.17230119452239 169.91456341100636 314.17885175981417 138.85530987332086 78.360476302764212 68.341472586771047 72.836428338850453 86.902552006044033 93.322968105698962 89.684811826452545 83.529550036548272 77.964003227097294 44.84609081410381 44.773661528693872 44.640574667803527 44.33586213642284 45.060038022878913 45.480072829262468 45.064697737528718 44.489420990579994 263.16178070418266 220.3847909681605 71.793830710760872 68.696031369278984 43.515119681968045 64.087107676342498 43.513460852164002 74.663819644054911 43.515832453286009 65.418949248501761 43.514286259646148 43.923966967625859 43.940209266583636 43.954901498704309 43.972337925969825 44.10429163077967 43.996374931080197 43.973607455455053 43.921795431686739 201.77726344260284 44.050374032188202 194.07005626481444 76.422314332925765 215.96255949110895 45.078061573984954 205.58132660557277 73.261951173642984 236.3487375238503 166.17476525577609 204.36051428630481 224.80439680997802 266.85890057218853 241.96156012248835 245.1870823302645 255.0205572126475 260.93917806955699 137.60890021510764 267.81498600534741 138.23894963722586 278.79681299112895 149.25293919905593 281.34087770388913 143.27283477610592 90.337393256534057 88.478030864082669 83.482716177981757 72.425902698040858 97.718789489230375 94.49375454311344 90.419561228442618 93.702077667329121 51.473665935273772 44.210642516146436 56.304289150686373 44.84848458740089 45.817828421891335 44.464822459678444 46.824323271353073 47.049006937390736 314.03986303488688 236.36616768207372 608.02778753596579 452.91634609436528 610.0812692086746 453.23248087270122 606.43353335125607 450.95274394812435 604.23312327489418 450.98771018091162 605.08948596739015 453.23226952489949 603.35757427037686 452.80428421216152 607.52338101713417 615.53640051427385 605.25494695824113 606.5360406355228 604.92361765238184 615.73900255669412 604.92762584765603 617.10779916744423;203.82942237557296 153.7835328091349 99.466649957458372 180.31907791284061 99.465904951458469 173.37050482905792 99.447590279207873 162.34691642007311 99.470020537415465 100.83258135472731 101.0159506558531 101.27769145358896 101.83617504052572 101.6163146965568 101.36592814812266 101.28933580200942 101.07200768658026 531.42510041392529 103.30284813515304 600.5416072002962 192.85254032124467 559.39860160191881 121.53382372871404 545.30085246614135 187.31334394809275 823.91577231996985 703.0670093688492 1030.0196932755628 787.65970941804198 766.4923956600112 723.89338356198743 706.9529631917394 759.7293405488191 758.60947743639213 417.8023639252832 926.78534850637084 443.41117851654798 836.10168473362671 409.87998318496921 717.65967868808059 418.23817282824268 147.3559693244822 158.39727005425425 130.12671183950704 180.59255007344399 194.99392367203359 208.19381384587291 187.16832435566553 163.28936575466776 100.79873133183706 103.1363416903359 101.2094158868023 102.06559446952895 101.29018080551977 104.04911029018967 101.58799472999131 103.81039262501416 741.54528523607075 680.50790679755846 184.13775545102789 141.69013347377961 99.459539885883956 175.47977245786166 99.467481728006746 194.16697518239579 99.473692254940843 162.00259815808045 99.448195722909333 100.57023244280197 100.75874818952839 101.16078585725219 100.92599375278763 101.67557519330366 102.49631026151104 101.0822991916022 100.80216601200233 467.52437718289411 101.13306456256721 516.40029785797071 190.95417560742021 650.05098762933596 193.35192784083307 584.48269878016515 183.04619466737137 713.63766871457028 591.61365225817201 535.38300742740307 774.92050446843041 781.93329247986662 917.10978414022929 862.32661014580708 861.56503613250663 762.86865807110564 304.99880785102835 633.62450694210838 352.14227173388724 850.11169926029959 448.35152437000227 1033.5164697512557 437.04156444979878 196.5959767496411 110.23834924618701 111.30970995066855 169.6394191871963 197.64402133251576 194.77207390816613 222.82464552666573 200.50918300956562 102.13533543700493 102.58781044891587 100.71018724818708 103.26133815290498 101.62372424250049 104.1716522775711 102.57164554737619 105.78367149116127 860.5599566266211 690.21332843910773 177.28221247622452 133.45221870994865 99.44787944842038 183.10352360739861 99.445910411558117 153.79522709762333 99.444096553651278 198.48884709146796 99.435204629438715 100.71151373721939 100.96785737107979 101.51302482974826 101.41072220406373 101.14658016235268 101.09921318813429 101.34004005061458 101.14165189514146 547.68063607444469 133.38766421620818 632.61715104887958 121.71845900252208 592.80842831723999 196.30003492928583 577.77572931217696 106.31909199223128 606.38601658687685 828.99107050314842 893.53886934253694 795.02599375384727 768.30183346602848 891.15594037894834 991.76479392097269 663.79772748816902 688.62626209710811 414.10311318559019 881.47821026796692 511.04195684823122 859.55748901469315 504.47022498196895 1033.0669112189385 388.30771141786369 201.17145229195091 178.28212480449881 188.96669435812817 219.28309924790574 233.2104317397594 225.21002753051519 212.1114276986826 200.31633235607674 103.91276531773768 103.64722069060772 103.26043907703593 102.24817776022944 104.58971769334221 105.88184037974167 104.600561431451 102.74417793780157 852.82989018780108 697.53173022568365 186.57283757364939 179.14453746748183 99.4451047905672 166.55276398922751 99.438889844183095 193.0584215234237 99.446699298891616 170.46246402031281 99.442877555586492 100.87930537873751 100.93696958354846 100.98881906989298 101.0485964621694 101.49076735480263 101.13003902059511 101.05024272615171 100.87138103330761 634.38930040347066 101.31224280433803 601.98766501197872 197.00234904436257 683.97515484505948 104.61970203948448 647.94436821130068 190.00566312983821 744.02200180531906 518.00813043242897 680.45954471725747 710.72478318548463 878.19972942517848 812.73588426815058 782.51412325357455 808.13295230067695 838.90037646166627 386.12862900611395 886.07128247745754 385.92384805296547 949.24305252210036 466.10872830684411 959.96682099453835 409.22220226327613 226.57793917427273 222.70328566446017 212.0707378885391 188.06806323849929 242.8676890690339 235.77219786638631 226.76315170243248 233.85440424877899 125.2353471510923 101.83942790208282 141.27144852498913 103.88659486192819 107.01879829061853 102.6647416723011 110.21739448835743 110.84230357643193 1033.4479755147986 744.07246175370096 322.22273061807891 386.14983382781782 313.52735144840159 360.91981410907005 358.21968299646085 381.1406585967581 398.69880218136967 382.54334579926331 426.30965318269364 360.91901847757799 454.92153598922528 386.19019333345796 336.72486840387057 521.30720941038714 375.96627365595623 457.56203131239209 420.3555561100419 522.86064499189263 381.56253679594516 534.41121628073881;113.0549165225582 85.814110562446317 59.940277712763219 99.241131158772248 59.940087365862077 95.474512561271922 59.931205955248252 89.914709157751588 59.942600436536154 60.573236621249741 60.658748600781927 60.781228108081606 61.045909951330515 60.940818659820408 60.822119154968668 60.786370786062498 60.684379711111085 278.12289101767681 61.74909627218301 310.38499957342606 106.47718410360433 292.12002126710138 70.522119175143928 285.67303859889125 103.22844409554736 429.18477712117982 363.4193520765794 543.14566478651761 411.59975995461878 400.2193798707915 375.57997411596324 365.8294410438088 396.42718630675176 395.79350239116718 221.59229369300266 473.81401440485524 231.9762420691734 434.6425485405864 217.26860725394857 372.0244719205665 221.87381090561129 82.761122497057912 88.005726800678048 74.609126484346547 99.388515206345616 107.70565385993483 115.69650718516066 103.13158853899361 90.371136347440569 60.546508138513282 61.668844775610545 60.73984317115189 61.155574873376217 60.777980293557185 62.109008909880203 60.920556881847133 61.99420613576229 385.97505733335515 350.96278718880569 101.409559875849 80.08943571724015 59.937193661885175 96.589460787637165 59.940819309147095 107.25887459915668 59.944096693670531 89.745680700799056 59.931889454061889 60.451867466455553 60.539134664696959 60.726569097077316 60.616559156817999 60.969855885414162 61.361699614816239 60.689999676325506 60.558622072369246 246.49079322398171 60.7142192628272 271.35851605542234 105.35664613880908 334.76107905175394 106.76775460461633 303.39604147651471 100.78522187588493 369.69500317972745 303.61200931956586 269.43480490499047 404.84595419027187 408.60132682077159 469.69082829765836 445.93751875292526 445.63228711778748 398.19558391349153 169.5857836476593 320.51309369015422 191.42885346048192 440.73759245929136 235.104462651516 548.68051002686752 230.2956385776144 108.66637956601268 65.099742101352845 65.617529644702486 93.535036037603419 109.30811177435723 107.56423373437342 124.58333444513778 111.03069062595826 61.181299492983371 61.405445772721983 60.509001273795249 61.730332169408889 60.938510214080104 62.168055597334913 61.38755807836899 62.948735875121834 445.20460157085813 356.33566635783035 97.569717279108502 76.18917288380527 59.931783446714867 100.80696328589023 59.930931142903397 85.818874461643802 59.929869319654081 109.83956195140702 59.925534105855967 60.516625776400559 60.636364429923461 60.892950984801431 60.844652449067347 60.720121226222439 60.697044339456468 60.811368306416199 60.717475134479528 286.68180955062553 76.159822973175011 325.9920350391734 70.609790491701659 307.22682613860371 108.51338876843876 300.41954418696071 63.206785330447808 313.54259196113139 431.46803850023974 459.23011391027217 415.3632441902497 401.22236971456812 458.23612050563537 511.05263376800707 341.95743042990495 355.44815587431134 220.36072598928382 454.09129737287589 263.24627745751576 444.77783142442826 264.13796481343252 548.47887955113242 207.52053754585438 111.42224782857475 98.111053586712529 104.18046117541532 122.46887590765913 130.88946467646423 126.08583764902477 118.09578235078705 110.90721598177885 62.036249144592496 61.915738147646877 61.721493569013028 61.2426008301221 62.363316857637585 62.995514814198721 62.36939933917499 61.480152765120444 441.90443546143962 360.45548160987948 102.79275606822827 98.594414359748811 59.930124358625257 91.975273081202161 59.927310313386954 106.58785810951078 59.931045382043465 93.953383429105358 59.928950982934523 60.594790193781122 60.62132267873411 60.645252556217194 60.673172770664451 60.881728464386946 60.71141278942855 60.674476798440097 60.591166021142612 326.67110158420377 60.797048165385156 311.02541394950214 108.90750772300301 352.82072433353278 62.383560662385875 333.70000470945632 104.762074692532 387.4145381392774 271.92709727876399 347.03100395008357 368.00933284885156 452.69646484226837 414.45258549511351 407.02929321257557 421.81111337712889 435.87317147249877 205.94865569360621 455.94008416699961 206.38409499877139 485.29388675151461 237.39085242452884 491.04355261528082 216.73546439975004 126.92989075424683 124.53209425979095 118.04990398330149 103.64493982250013 136.71259512986964 132.4355760854944 127.03968682401407 131.34391928907155 72.262081205521639 61.047677821334482 79.852540872167836 62.03085205485597 63.530012197017477 61.442082978220334 65.072179364003262 65.392813597397065 548.67744111804882 387.44385734562752 527.3403615110476 446.12910329291662 526.22466346857084 438.34230928957015 537.09566119204294 443.14567847379743 547.46889848933506 443.61183864065697 556.28634289749823 438.3418968165542 563.18033715707804 446.06111738871891 531.40635785961672 592.08033819671414 541.50981959425258 569.40967300460136 554.40729207648678 592.61113587772741 542.92485017005208 596.45957415659632;83.253885480966346 62.777761053759178 46.008638714100194 72.221038809882998 46.008626887922688 69.396962357319765 46.002866965423976 65.497192404243705 46.010599100035535 46.399874609489196 46.453102526364205 46.529657209293504 46.697404773437142 46.630199893540023 46.554945516298616 46.532659790819139 46.468724160873961 197.55547400318011 47.148870769807367 217.58861700545194 77.92296789217292 206.97871175055531 52.846446763781607 203.05289491432458 75.332642119653428 300.64821446547887 253.49682099657724 384.32064204983408 289.21043393569204 281.11138718389429 262.62762759623155 255.4385302030505 278.32782079066675 277.85997495285761 159.50623628920948 326.14360408036276 164.96484384659644 303.90665326402876 156.33742899591701 260.04689310235324 159.73846065648118 60.778732606525814 64.218073460114837 55.492729694913841 72.331280571524701 78.890436438334817 85.412032721659727 75.249555843244337 65.804165052475796 46.375753986236873 47.09702519759265 46.497377564944493 46.767551766531938 46.52145957037078 47.381543535298931 46.612774417341846 47.307501549095797 270.5321846074134 244.64227037117914 73.90718953846212 59.047027515764832 46.006878569310778 70.215607963142503 46.009080485784594 78.552448519821411 46.01138177097608 65.382193916009783 46.003567896806452 46.324985565986907 46.378858054027248 46.49552384812651 46.426680304892265 46.649234740304351 46.899604679072688 46.472775711174336 46.390483280238875 176.40521369133046 46.488232388668955 193.49680203516331 77.025250472233594 233.39735299306659 78.153838014822725 213.66189109623991 73.418955100565611 258.31439057989428 211.41922655399964 184.18296523976898 284.45629035747766 287.12088818901032 323.88705628267439 310.32304825643121 310.16882575121076 279.63000976440765 126.79726533105527 218.71678733720537 140.6896779534797 307.41680077233639 167.51518478765152 390.72588504191452 164.81255044763046 79.668778729252182 49.324478905477854 49.661846252380535 67.996552699733002 80.195292158560832 78.77196623975729 92.699761733657297 81.594404413764281 46.778989565965901 46.927614944696039 46.354996801107774 47.137527711092659 46.624839848514533 47.41970203045318 46.909497354498662 47.927052080518045 309.92984282920577 248.49484698494481 70.951986597169309 56.517894405320369 46.003530305604869 73.43036864183847 46.003045103255531 62.780419303020786 46.002235932830551 80.638261018601256 45.999409428052431 46.364526279309651 46.439197619318065 46.600588965648861 46.570105154686054 46.491628904423045 46.476592431995648 46.549150158472315 46.489754305658671 203.60903378550671 56.499658335220964 227.61036695911039 52.903000961016559 215.98752398322711 79.556738810510879 211.93305679306337 48.094138696384633 219.85842250015719 302.01682704989156 317.74345179396272 291.77876287707653 281.84161578672996 317.20868590950329 354.23609113112212 238.32606362683481 247.85276145414946 159.06970452489139 314.87912616641188 184.36158071626889 309.69121033752407 187.78559569506504 390.6399799832115 150.38340640027374 81.90960463244194 71.357870624460517 76.082131572382963 90.982273522453056 97.872802846976924 93.958391291768706 87.387689331573526 81.4904563916635 47.329927046494944 47.256932710082722 47.126344143849543 46.823063421645273 47.541874963326542 47.957009509096984 47.546362120663801 46.9753989987342 308.07696822445126 251.49015106208483 74.985146116192311 71.72938792729407 46.002247555051213 66.900803848972615 46.000554079140166 78.006242585090632 46.002941742744198 68.292787344790995 46.001425095555135 46.413122775017214 46.429407182918681 46.444136807413898 46.461553229434834 46.593021807943892 46.485537298969582 46.462728780318933 46.410924654241924 227.90019432418205 46.539342830778565 217.95552452660723 79.863069361432764 245.92719206202548 47.55876081141863 232.69903245764874 76.53223654698067 271.61279161249212 188.24398690619384 236.24213746072562 257.06018865858772 314.10163566590921 283.73050110802927 284.35463581009606 296.03152735991893 304.62509645691796 149.00597659848989 315.81794669485237 149.64625888824568 334.01191270975795 164.61692383788389 338.10658944149174 155.84352055082707 94.657074988925402 92.668479856619456 87.339779587464804 75.651263629146939 102.62354510192601 99.135494303220938 94.74553007209434 98.275129080861632 53.958357584578799 46.698684772062677 58.86858388769685 47.331137424549091 48.294464830986371 46.950977772057172 49.295335434596623 49.516121786751825 390.75275966413841 271.63482118922838 600.36168902146312 466.35619274313609 602.03343498809113 465.01057300696755 600.1406648209454 464.17659489388677 599.38979283505012 464.29974661018849 601.01979164096758 465.01031705408053 600.23523606579693 466.25267402105419 600.42119729146771 612.87825036094318 599.61931397918704 604.16148309677772 600.69269405025807 613.0729426830585 599.49385653370246 614.40486288033219;80.63540751871534 60.461292280480713 43.804972407450038 69.763521949169586 43.804969444267549 66.980328579605896 43.799197036052917 63.139787273522202 43.806973327756943 44.195739209485318 44.248943545226751 44.325485327195111 44.493379666667153 44.426069465703918 44.350746095718542 44.328470104934816 44.264528315109558 190.05361475302547 44.945540058012938 208.65612429485219 75.385081589788044 198.91961089686924 50.632801377135081 195.27630568092454 72.83160189075538 285.22046403707475 241.88957638024817 357.23059495053991 274.92991114422006 267.51145263640956 250.38249585618553 243.7298819557264 264.94661842571486 264.51507047178268 154.01903122955855 307.09021125318736 159.05675354544044 288.09341633525497 150.97665734670449 248.0090701285593 154.24426900760693 58.489274435419631 61.879964313527445 53.260480503136819 69.872031707890457 76.33691201550316 82.758467597361147 72.749229284007953 63.441930190260649 44.171005907341794 44.893604733498165 44.292679624083242 44.563632078817058 44.316776327412974 45.178589394364508 44.408254113757238 45.104452933572489 257.73846178050843 233.7091120913812 71.426481650386165 56.779280367357217 43.803227650487578 67.786672867499433 43.80542247211585 76.00551239910682 43.807742766373941 63.026466461907908 43.799920141914669 44.120938460781751 44.174751050140834 44.291360706039654 44.222519298564372 44.445173303440384 44.695881591296967 44.268625246685239 44.186327141056125 170.08248531278005 44.284105922469664 186.28164580080414 74.500254862275085 223.28293986302748 75.612413973099578 205.08067279972784 70.944974956890036 246.40184263951366 202.67671288736747 176.57147652565831 270.58438232330479 273.02362442387499 305.24050123132542 293.66166269963901 293.5329891735326 266.14725455978248 122.99903874460809 208.75815350346389 136.21434430524192 291.15503669296157 161.52397464170426 362.94441008596812 159.01052250894179 77.103947916016338 47.122302865243128 47.459340287210622 65.600675619382713 77.623147398004605 76.219818352079471 89.915518656785665 79.001110100189123 44.574676694796331 44.723928598598128 44.15047140874114 44.93424425120746 44.420385618319735 45.216800117535634 44.705240832859154 45.724877581524204 293.32717596333902 237.28390181327038 68.512629178147364 54.276687500886766 43.799885062948732 70.955817580407412 43.799404112451448 60.46387119899822 43.798583592040849 78.060359135432108 43.795749810500176 44.160397477524725 44.235047408262801 44.396492574230464 44.365991629184023 44.287477814600066 44.27239166405068 44.34502934442439 44.285583895173595 195.78546619518627 54.258685238092731 217.93193257965103 50.689017739192188 207.22641801436328 76.994429449981141 203.4941947025803 45.892065934369725 210.79594376507663 286.42839955319357 300.00210170925163 277.26343957082241 268.18319463162021 299.55420995113224 331.53692413109559 227.85200108255358 236.68769154889603 153.64232054864374 297.56815715695609 177.25627254692722 293.12155653017436 180.79777378010175 362.96095488631988 145.36103091439469 79.311155936457197 68.912486466681045 73.570156236242227 88.232005207126079 94.984480015737034 91.151760344761797 84.701394410479708 78.89848350333132 45.126530072254432 45.053814861540182 44.922599879842629 44.619209870573151 45.338806642260096 45.754827263093759 45.343343882658289 44.771771165993769 291.72714800948125 240.06457531815707 72.488728254022433 69.279045440361045 43.798582963006538 64.521453469025943 43.79689630704187 75.466754790509825 43.799286335135058 65.892290004177198 43.79775375914727 44.208968268235225 44.225224520935221 44.239933109249492 44.257343969732993 44.388881452358206 44.281331796675993 44.258549818955707 44.206774895881665 218.17620715606515 44.335148543149437 208.99059722897769 77.295263569816967 234.89327138783017 45.356013115509356 222.63883139054624 74.012877315878242 258.73935495458983 179.74109642728618 224.43970467936052 245.23711835059069 296.90450651709398 268.46964842859069 270.07117131634084 281.10137015449897 288.72284753529209 144.01596321464862 298.34395930054438 144.66054017192977 313.92306456858853 158.31287627111234 317.45745944853218 150.49297026818243 91.83718975599983 89.885714681747928 84.653543043651922 73.144944162820025 99.630965121485701 96.220193314033281 91.923837241411761 95.38104704981312 51.736660408778924 44.494672969284629 56.601001037494974 45.128119545107573 46.091750887352035 44.747313718550274 47.092308049655905 47.313836273913942 362.98738319794091 258.75976546658671 587.50389674656174 451.98445219807883 589.12528088149622 451.48861890260883 586.73777667093952 450.10314297181185 585.48195120973367 450.17655971435408 586.5888618462443 451.48840771885227 585.51557849774213 451.88697623816921 587.32001444385526 596.30853241163061 586.00967825911596 587.85360471934712 586.36895417217943 596.49749458038559 585.8165590620273 597.78117324271147;73.508106701139042 55.617373741727917 41.123969738957392 63.797077510436957 41.123972882302105 61.329133674198594 41.118845279202255 57.952255965643971 41.125770885793557 41.467241082869521 41.513815694375275 41.580796517125449 41.727725640550666 41.668807341139249 41.602885482060977 41.583400854488985 41.527434481593914 175.54244274608064 42.123196238758545 193.95148231699415 68.808172099964082 184.20553258827138 47.079427209435373 180.6193641742054 66.528814779328172 274.61315926448054 228.32112717960936 352.54667139218969 263.53382387945283 255.5563589882936 237.29207122801935 230.20293243166992 252.80371473681663 252.34074048976356 141.03267216329573 298.05103934319231 145.82646740044206 277.70238353894484 138.16223552011633 234.73317004907909 141.24516935932269 53.903005759099955 56.852515067368735 49.362644409732454 63.893412510882925 69.657879813111705 75.413170939226546 66.455056229837425 58.21645217075222 41.445232800317584 42.077795691515504 41.551803050853096 41.789201454266951 41.572898683014422 42.326922319547606 41.653023238929102 42.262145098158776 245.08711821970843 219.66746910471733 65.276920735394228 52.418109866380135 41.12243296689504 62.042651574541168 41.124374241444698 69.362737733621913 41.12644404960178 57.853163471790566 41.119501622050429 41.401762783950581 41.44887911285582 41.550939065735811 41.490678106228216 41.685552118459071 41.904889969721317 41.531046683201147 41.458987228097641 156.29456621325602 41.544605811489092 171.86700408813508 68.017810409299557 208.84719652677535 69.011181279221063 190.33406914081047 64.848166617668426 233.02721820679079 188.1518246263775 163.05906331388195 258.85847767153916 261.48216483485243 296.0623720254826 283.67862129825107 283.53955742653136 254.09181803777466 112.03074600611903 195.54804668189482 124.30321081633571 280.98989179363804 148.160442427048 358.66496990844678 145.76490315660448 70.344034510724242 44.023429519232998 44.317253183455058 60.111291162759649 70.808988445262258 69.552932066203496 81.853886718929445 72.042838182942731 41.798651732935937 41.929414355289133 41.427370517824016 42.11337029860573 41.663669192652037 42.360310943631092 41.912785733457142 42.804215289106537 283.31901506300505 223.41249288226535 62.686368862554758 50.245203384936559 41.119472182516212 64.857536752400449 41.119048391122156 55.619593450959002 41.11831287240075 71.200961495735953 41.115793937107924 41.43629125776171 41.501654466402044 41.64295303147594 41.616262923424514 41.54754709973642 41.534315550564401 41.597923128418614 41.545875465094745 181.12181128128327 50.229599604705328 203.35026488048771 47.12828610484965 192.48321056137033 70.246654791124882 188.74594708121674 42.950163782644438 196.07824753629598 275.91379722436943 290.46335438329152 266.04661914599444 256.27789292204443 289.98315530943978 324.30853436813061 213.56811015414945 222.78726426264228 140.67378980929232 287.8593252071218 163.28717494176573 283.0986515132451 166.59077008118172 358.64611549968657 132.87096846023798 72.320390854037313 63.041062557676213 67.187343609328764 80.337252999720548 86.433840200638414 82.970808443686408 77.159348160564846 71.950717758251528 42.281253744057963 42.217878110690776 42.102969178777684 41.837818009052334 42.466768895822078 42.830338252074696 42.470755496784349 41.971254085142071 281.60361749017795 226.33554242819409 66.222941734422562 63.366767224780034 41.118304194152216 59.162234669821864 41.116812373845505 68.880878710929863 41.118934162752844 60.368178982919346 41.117564080156392 41.47881891929579 41.493033904473805 41.505899845065287 41.521137285403761 41.636275658525307 41.542136869320302 41.522209193257453 41.476897347341648 203.6229782178618 41.589225390112681 194.29139756904488 70.51514074167477 220.91769478970383 42.481923682017388 208.18097136111439 67.581737323863592 246.15662299262334 171.13137720749501 213.99432026095417 231.79437136584937 287.14932005577043 257.7805764833617 258.85267100391172 270.1792431046365 278.37867334452335 131.60834240903364 288.69403579932856 132.21267693160348 305.35751048959116 145.29294368187755 309.15024585089253 137.70724099433585 83.590078335787396 81.827600232370543 77.115800945821178 66.807716052221679 90.646380518260699 87.552702623557281 83.668303415502137 86.794613090806564 48.038429745989085 41.728858720852912 52.262585643859452 42.282822925760996 43.124120891977164 41.949858964547914 43.996896280953045 44.190459551950845 358.70316552831122 246.17842148573732 586.38843071138683 426.99362714819551 587.88144678202571 427.97717908420663 584.78489381851534 425.76930447352072 582.76159362892486 425.75333286811633 582.96829801032868 427.9770652196238 581.45612899469836 426.91440779476056 585.8271097386862 588.21813293426044 583.75145889705209 577.5219860228375 582.93380840924215 588.45593230789427 583.45657192600788 590.04874790173926;71.672870630282091 54.626635705432108 40.887651807740482 62.404777994388475 40.887653617249747 60.05277965683284 40.882754995386179 56.841475659500105 40.889366914143267 41.214865492687835 41.259191433909827 41.322919584768336 41.462636350918729 41.406625657789846 41.343938566349884 41.325401513249233 41.272155722353105 171.04026172788812 41.838409504391251 189.4957589060931 67.184947641897438 179.64067773298146 46.53849898256027 176.05143456553122 65.010025996176381 272.27757390009089 224.52028541571175 353.70786481258386 260.75124538370358 252.49363708564681 233.708726943134 226.40781215611719 249.65085681930779 249.17289731282932 137.07663238602817 296.85897753912224 141.83962923578255 275.50586788309442 134.27989426250781 231.05486465279409 137.28276461195151 53.002122177413156 55.797919402614539 48.701487585333936 62.496648338465775 67.99622829451485 73.493393137625731 64.939730707573389 57.092351191852202 41.19403815952046 41.795289018048067 41.29544094620492 41.521070828370334 41.315507808396674 42.031891256186249 41.391693631299759 41.970376104010064 241.69596753069393 215.62425980345512 63.815850228790183 51.595422809230534 40.886180809436077 60.732561370525382 40.888037103087797 67.71424020129156 40.890012157610187 56.747422328610313 40.883378847177561 41.152526160074025 41.197386318732669 41.294512835814132 41.237174385797232 41.422537077428188 41.631014511654236 41.275583970009599 41.207014802844213 152.03866524399939 41.288478430734521 167.37509562479897 66.430686559032409 204.59460718845136 67.378736478357865 185.81282375440185 63.406968820967251 229.30256661543456 183.82952213306166 159.24787830759865 255.90815681887995 258.62464350776651 294.748873438808 281.76900263910773 281.62101109149239 250.98073863571685 108.7314553995331 192.05071319482883 120.69159911271177 278.94791301123473 144.10752798520556 360.01972109493187 141.73432922344762 68.651234342501084 43.641728169378119 43.920368836008251 58.893456279468701 69.095067097416106 67.896111282475999 79.654998204878851 70.273304157696927 41.530136444047223 41.654317902677867 41.176994982808715 41.829068135097998 41.401805859759591 42.063596243065206 41.638626972969973 42.484992063627196 281.38970960067053 219.45317069858865 61.345964226364408 49.537385809744485 40.883350253522472 63.415972041435182 40.882944658440586 54.628748077609124 40.882243391611539 69.469200424564264 40.879836815230071 41.185408985390637 41.247617632320001 41.382027307335484 41.356643827801136 41.291283173037947 41.278704132641259 41.339201086005609 41.289695327502891 176.55762300534971 49.522592697983136 199.00472919654993 46.584796421141945 187.98141030729465 68.558131449726446 184.2069758203902 42.623514143603707 191.61654390901555 273.6375774101208 288.88763166185936 263.35916409602038 253.23936113268906 288.38071443415623 324.12524565097283 209.39977366728354 218.8139148748912 136.709351512269 286.15308695286126 159.10737719530221 281.15860083861895 162.20679090760154 359.96622091815794 129.08646536168848 70.538450640865605 61.684075955944877 65.638335341647618 78.202871975387168 84.043184707324144 80.724259482560726 75.162726875266387 70.185368507863402 41.98860309309454 41.928330885840381 41.819280594111405 41.567280421648832 42.164752815930427 42.509789787973205 42.16852888928409 41.694076888736433 279.59111651365509 222.44464340902135 64.718284566586178 61.994499151366796 40.882236887050794 57.990945167136253 40.88081002942468 67.254398977998378 40.882837715431755 59.137934720995773 40.881530550727234 41.225888797294118 41.239420118887899 41.251667064049862 41.266166363094264 41.375686421611434 41.28614620975987 41.267180089774406 41.22405786163052 199.30012728535431 41.330937214534202 189.84220626680604 68.814613444530295 216.90988425248398 42.179071203770114 203.91477796614191 66.014807228599878 242.79726785526495 169.40058456031994 211.91858558730917 228.03806630905044 285.40808515596819 255.8718878306351 256.31735826940485 267.6554057651 276.2134302851419 127.8666106828077 287.04035569155303 128.44287239861771 304.44749181379314 141.54216236433132 308.39548731300061 133.84068683118667 81.317334032865475 79.629679036966309 75.121202273100494 65.276217505949973 88.084697715715023 85.116100622160232 81.392258983944274 84.38855996302344 47.447359336338408 41.463709438313202 51.448550511694279 41.990012502328518 42.788757996162062 41.673746258212645 43.616756768107614 43.800123346317712 360.05214825918392 242.81970566638486 586.21182088347882 426.60257888769507 587.72875376995466 427.32327892922694 584.75723695746808 425.26004779662333 582.87171859170803 425.26009676428032 583.24193516099751 427.3231483311381 581.80972404556985 426.52005208312858 585.71751607039937 589.27604619304975 583.77839531452821 578.57029274915226 583.17362171782418 589.51387904214175 583.50177645436179 591.11024763615649;71.306420002608903 54.751555519709136 41.663783732530469 62.266794097781883 41.663791586996922 59.987923095299578 41.659243346298027 56.885592382634954 41.665396068011781 41.968185606564461 42.009615224503243 42.069198556253177 42.20004980658976 42.147546852879088 42.088857019867419 42.071520915860717 42.021702776198794 170.49382907721133 42.552739322189531 188.31533488065853 66.919656057600264 179.09427014631527 47.003013054163574 175.61113842456743 64.799673267248593 263.87567608225686 220.61570983360497 339.17762963699244 253.62103089002267 246.20217802614303 229.05623321771014 222.5092822485129 243.63660811615563 243.20525538017219 136.13512188084735 285.68345338655831 140.69677867511291 266.72587038706365 133.25570196869896 226.7484413603936 136.35134112993163 53.188573700491759 55.879284219981862 49.066202971953835 62.355902197020278 67.709615731959531 73.089894643504351 64.730780887203281 57.127688549521807 41.948498539076724 42.512247955658445 42.043293234361457 42.254845747751851 42.062054716250763 42.734687495838777 42.133422650725791 42.676866688093355 236.43547477012376 212.63880183154239 63.638153181333713 51.83792928288598 41.662428541499381 60.6454966806401 41.664146456810798 67.436391114826449 41.665987432953791 56.794762310838642 41.659833507892266 41.910016210885665 41.95189004748579 42.042632494289194 41.989023523883553 42.162481335053982 42.35798810326289 42.024936440966727 41.960843408466012 151.34055174397008 42.036994122852668 166.91520380201572 66.183936062817722 202.44993534713956 67.108488995667244 184.95893342043101 63.240561512302961 225.15776601885278 182.21957180871425 156.44201109023686 249.27611347556794 251.71556982795795 283.86031593178046 272.23919912710801 272.11647553865225 244.83754847404279 107.868486544932 186.93243034823689 119.7585240192207 269.75947783966052 143.07686553510243 345.41304442073351 140.7670173072475 68.349518410191081 44.253537893410581 44.517250890561137 58.86665401464829 68.783891226053001 67.61131206156945 79.138579867316835 69.936026427748757 42.263155761380261 42.379847573138775 41.932663748012239 42.54404668283204 42.142911162748071 42.764504543671109 42.364831540206715 43.161412001129591 271.91232901787595 216.1510371056057 61.239983698640586 49.865687632666109 41.659808662812985 63.24879274186587 41.659435001677871 54.753532970522002 41.658779118794691 69.15067652354675 41.656543953308706 41.940681803717673 41.998797332027912 42.12452904284325 42.100765333763 42.039617407360488 42.027827093740392 42.08445251971149 42.038108321292391 176.08862991690665 49.851581832903328 197.26791221882814 47.047057512816252 187.01072401042066 68.259594527021932 183.45534048801204 43.291931707092679 190.42873902744256 265.07103801593956 278.55742750430363 255.95114593639039 246.87408901001277 278.11580108883697 311.50743386913115 206.9061037575454 215.56396470391832 135.82595623391506 276.12924414864563 157.76531758593944 271.70842818001398 161.52760324529015 345.46146444589357 128.08651071466315 70.194863056380456 61.567514370043419 65.411290708057237 77.713349917203544 83.458995987461051 80.193179833579165 74.727697393860936 69.849640871791067 42.69382301226382 42.637308983142916 42.534640241722109 42.29818567215414 42.859559583435413 43.184727241505513 42.863137634021818 42.417184780142769 270.32632381868132 218.89076601277543 64.515312081294198 61.869008888509939 41.658765739555712 57.994553882920492 41.65744716134661 66.98700583747214 41.659328444726519 59.102719124143029 41.65810707531945 41.978493040718305 41.991108641673002 42.002544912373097 42.016091404534627 42.118584392640528 42.034779246818189 42.017053452226463 41.976767851780131 197.46860492076931 42.076634718825268 188.6300844743123 68.508921747562738 213.78655660539997 42.87311711991714 201.82785858004516 65.776707387759899 237.43435347291168 157.87546387239908 200.85867828926857 224.00374316090543 275.46763311820519 244.98848570221691 247.94221135945804 259.77916514439943 267.34973671582134 126.80146079636064 276.87766157001448 127.4386124495821 292.81915533323843 139.50231818750837 296.51816611835801 132.78822565636273 80.777864790843168 79.11488132591613 74.686101437735317 65.058023686184043 87.449088854630531 84.517356083767453 80.851908735059737 83.804176403384957 47.868468943731003 42.2010460228921 51.696122711783104 42.695316377157184 43.44741510474455 42.398076093493032 44.22954362074244 44.403500380148827 345.46582128644457 237.45475157935368 595.33236924516393 421.52082147581905 596.81697637571619 423.29259462580336 593.30641521529196 420.49112214847457 590.86532587754311 420.43139671042456 590.67121523889148 423.29251427102292 588.89742229914089 421.44274831821122 594.58751102878693 594.07282825900279 592.09971141310507 582.76286048218503 590.72023624525173 594.32307413822309 591.74838143609713 595.98867384330663;72.599929508655961 54.857752003027265 40.335170568959619 62.990607046277916 40.335172000483425 60.541917952679071 40.330043768723044 57.184554404474966 40.336961310974431 40.680490836844115 40.72743967845954 40.794958292476721 40.943032737704229 40.883667721200908 40.817235299485802 40.797590645856808 40.741176502915678 171.09792430119109 41.341466342493689 188.24282682483647 67.95347516130947 179.26908916670564 46.321275817670823 175.91846853822756 65.697313819822256 260.70481350161276 219.42081397178697 326.36014456498322 250.94779069429427 243.85839303443066 227.49670323193132 221.15928257025445 241.40443673889189 240.99149653143411 138.20626284167207 280.72353289337235 142.73479668096709 263.39596208042195 135.44509702530155 225.22870291414745 138.4114544226851 53.147240769056644 56.089188792957273 48.608578921649269 63.086165052169434 68.794601054642214 74.481319711333612 65.624419466888313 57.44758720612996 40.658528076379262 41.295737432432979 40.765909771027424 41.004976618554359 40.78716740567387 41.546652073826088 40.867884572078118 41.481411136265031 234.51032779487861 211.6701471705079 64.457162950875329 51.664138222617105 40.333627597897042 61.250325268056159 40.335573243969087 68.502074230159479 40.337639301018577 57.085917649363623 40.330693377831849 40.614488780640748 40.66198140036083 40.764858410433547 40.704119387569889 40.900526982103088 41.121542047091161 40.744803017085374 40.672180984925859 152.81023801584249 40.758460335249154 167.64448533258422 67.171376595280293 201.86706597342732 68.154398653727839 184.9444465591699 64.032353461479843 223.69877474954563 182.67248575276807 158.59144234962324 246.79738253031888 249.12825603656754 279.08782096678937 268.55183295425144 268.43495739898441 242.55320102147283 110.34741945023791 188.38874237474403 122.17705404024265 266.24150785541087 144.98681530952214 331.74291496669241 142.71790195742838 69.473146560190656 43.253535340911291 43.548836595250663 59.332237785330612 69.932699888566049 68.690932894776552 80.833840628423772 71.15235149075788 41.014627452673437 41.14625205085801 40.640454941838613 41.3315523341033 40.878594871934062 41.580276776395472 41.129663353504931 42.027158712146431 268.24567051863966 215.04819208612258 61.888995204190287 49.491727362736114 40.330662967051829 64.041783933110437 40.33023793050598 54.859978429751244 40.329505524375207 70.319912215817013 40.326987009992557 40.649303627645757 40.715179257816914 40.857590982260071 40.830689909060396 40.761435224833015 40.748114430742362 40.812205684599711 40.759754625795445 176.38464060802784 49.476100118700018 196.86579966624774 46.370267667431698 186.92719807353609 69.376550856168407 183.4821106711945 42.174057743902686 190.23216211663757 261.83824435088445 274.33717294591082 253.17164157638311 244.5010197385327 273.93382138604397 303.117856930171 206.153792787284 214.48427632094527 137.87567068709382 272.12706161220024 159.28074961555657 268.05646385168797 162.59148163445889 331.82707834059443 130.38657095884491 71.426773533375993 62.240916908628336 66.349461943200311 79.338651479334516 85.342463250268025 81.93337988019681 76.204581646436509 71.061405715742183 41.500769053652853 41.436822872223956 41.321208534655412 41.053968214509325 41.687576147623453 42.053460868131843 41.691577576168989 41.188411477677057 266.77054940135542 217.68130720883701 65.394494212531299 62.563833058242842 40.329500089841737 58.38874511509205 40.328005642064532 68.025541913041977 40.330128386435142 59.587561898763447 40.328761612848908 40.69216755497316 40.706500437381351 40.719474398713608 40.73483320794481 40.850875189983526 40.755998972889408 40.735903316285444 40.690226863083581 197.09232235437307 40.8034553366561 188.55204889931554 69.642387842829976 212.7893277855502 41.702746117455867 201.26395655447615 66.740261020362581 235.46703784086662 162.23745931935127 203.38423883602681 222.59120429959955 271.522109871211 244.64473445696612 246.37155509622758 256.81696182424378 263.98293128838884 129.1641096690721 272.82263650617784 129.75510256337532 286.96921266081785 141.97450308854962 290.18863417723412 135.00396084543632 82.543000559859252 80.807643094728746 76.161863796254053 65.973750190045976 89.481954317979515 86.442673715508349 82.620008034718879 85.696340163893069 47.28273574508912 40.944169164501481 51.509210733737895 41.502237141234609 42.349319454163556 41.166854103903781 43.227102020136385 43.421399595453096 331.79752410737501 235.48654617882099 594.44801098248774 452.34985474698635 596.39102014879711 451.43463081087515 593.74009357221667 450.01644815150655 592.43144374855649 450.12187590488514 593.94069367316399 451.43436121548586 592.76851106678748 452.23250933680777 594.32032500696994 606.38750135747898 592.95001125362876 598.08280588416005 593.64013366330994 606.57373892266003 592.74500902725651 607.84474659283023;77.266490988046215 60.319905361028681 45.978770038209511 68.155908548824655 45.978785009801257 65.822372829915537 45.973819038753163 62.589386989943094 45.980562355476202 46.314662165488741 46.360633703240943 46.426845586863593 46.572538266251868 46.514018855324068 46.448653836785169 46.429390782251801 46.374043783145439 166.28903964678625 46.966003171002612 181.04025607360728 72.869516623325779 173.52409780720018 51.901642761303698 170.64324714141492 70.728766452205846 242.85798863805508 207.63948994877916 297.05509764728077 234.77081958418682 228.75398265285884 214.62818864880489 209.23191874374754 226.65533563777677 226.30190744399664 136.92718870442269 258.58389920777057 140.73305259921011 245.02902425723721 134.40370253435705 212.73631769339403 137.1185352171675 58.64055360108415 61.52279633144127 54.164676000705825 68.246561140326662 73.66410197504193 79.041928447428745 70.658809678112419 62.844436256037596 46.292023364266356 46.920754580577885 46.397368875845089 46.633624310089402 46.418253033373745 47.169027323760019 46.497780098383082 47.104475474418976 220.73601207481261 201.07681893373331 69.55124283852625 57.181430558967122 45.977306176243147 66.498132465272761 45.979171676746226 73.389676983950039 45.981195524641528 62.493409794772205 45.974481063182878 46.250172513818384 46.296568008407604 46.397329244771413 46.337771563397055 46.530707125786996 46.748660140245931 46.377681800870505 46.306479339940211 150.0343723486518 46.391129704894752 163.31723192917832 72.127815359723868 192.67155130672575 73.059655011603169 178.33168848474546 69.14727518389347 211.42244164788241 175.7692678312273 153.62223486695791 231.25789001339666 233.23465278167441 257.39304417710161 249.10496355271022 249.02092471465431 227.63859188869685 112.18091886388825 179.13081503765613 122.7289892596973 247.29364461962822 142.8257446369899 301.81664835858282 140.88376216816994 74.307108876101807 48.860964602014377 49.153898501636604 64.663314822812197 74.743113812458645 73.565248880604869 85.014553513443431 75.897220434871798 46.642375196599623 46.773054751129109 46.274722590899955 46.956292013091435 46.508422006065516 47.202308345597928 46.755664138717876 47.645133246651369 248.87233753248594 203.97744407811393 67.107314573916312 55.037728998958102 45.974455922928172 69.155539485357323 45.974052584238748 60.322009064214846 45.973328241810492 75.111099976449282 45.970888774343649 46.284113992795128 46.348630275348157 46.488479446975056 46.462035004907726 46.393994171589995 46.380836955179049 46.443870149220601 46.392317515341162 171.03155339789708 55.022416643638593 188.41037292827264 51.950121209901667 180.01476716643248 74.21705927476691 177.10640131799934 47.790666319114962 182.81625852200136 243.77080242749543 253.62608778875381 236.6377303234699 229.30234944516133 253.32277986715869 277.54182412658173 196.34651842221686 203.49224107296752 136.69466443169449 251.90885866049328 155.18879970436183 248.72376363436049 158.66593283245916 301.9910455504538 129.95046820276713 76.156165055902846 67.442139353490433 71.347305965746799 83.614220943622641 89.23482215452438 86.048628612136241 80.666798871053743 75.810746258483277 47.122901438692651 47.060391347122192 46.94522170349191 46.681925635558564 47.30787635241694 47.671152257944769 47.311921208286314 46.814655445838923 247.71151361179128 206.2414624235453 70.440741864422449 67.750146974609578 45.973303716803798 63.7546056681701 45.971873551813502 72.937192728442682 45.973923795683376 64.908105760808894 45.972580881608167 46.326062020805665 46.340067486983926 46.352748011465614 46.367800562348116 46.481795144546275 46.388563889664795 46.368906720271752 46.324176961243289 188.55443992091466 46.435172937928975 181.29469197187296 74.467190207667841 202.01835775921336 47.323510259412473 192.16134584565083 71.716445085267864 221.55900827121633 154.69895913020082 190.33285494780165 210.46836542379421 251.43647067616081 226.40210276898696 229.82702257828291 239.67181773927604 245.49869740626218 128.79798552350266 252.40891785669453 129.38614761430267 263.80976811706444 139.33579112174567 266.48704911516597 133.98505367543427 86.620647299315792 84.991468608733129 80.625326820510423 70.989934419868177 93.09694779405261 90.262380038867306 86.692768943912114 89.570284564211292 52.850997505417524 46.573689573324344 57.024866541416863 47.125083696893299 47.962915690038599 46.7933772971842 48.833018650727254 49.027573159285723 301.88501501913447 221.5758167732009 603.50928835240916 435.37837013431704 605.51259482784008 436.18157557045845 601.65274159649425 433.54717625094071 599.208444295812 433.55489075085427 599.77306386288979 436.1813871028379 597.89813271781418 435.2676909381741 602.88653407848551 608.74524730238386 600.37832512708962 599.01253347110719 599.6673452577686 608.96300976213047 600.01865859860459 610.42651676310061;71.7603500231384 55.552999112890078 42.228072588205336 62.99064861344236 42.228067745607703 60.751750815590185 42.223311620874441 57.680887161178958 42.229705913165319 42.548973862684477 42.592532567466449 42.655142111137906 42.792245023143515 42.737326711302721 42.675814882918921 42.657597238701428 42.605299602535922 163.17043948061115 43.160500144478796 179.65029433669997 67.521461160463616 170.89734505662474 47.739703023291433 167.67995565641942 65.462484799579741 251.18003595822748 210.12479561799631 319.47772801603514 241.27849094067312 234.18730732209852 218.04031574459441 211.77461701032573 231.74662265779432 231.33632362190801 132.39140486376235 272.13007584262249 136.73782654822696 253.95127389191197 129.84825030942591 215.77290856574638 132.57847504814265 53.989217780139214 56.679371461257247 49.83609280858262 63.078078578541195 68.290174281259169 73.476780000803231 65.396297054975832 57.921500947685196 42.529098109661462 43.118273415226071 42.628636403289534 42.849538122028903 42.648332718558599 43.349908178812029 42.72301600660245 43.28967997048899 224.91695038677267 202.47280684662965 64.329919195844226 52.632483042269882 42.226626934020203 61.399907866246892 42.228440504262025 68.02191187806838 42.230345966459339 57.590759664896545 42.223898066725738 42.487679767406732 42.531784388627429 42.627230318652693 42.570908522468777 42.752892562890494 42.95731376448586 42.60862511254664 42.541284085532588 145.98811315737655 42.621267195414859 159.86640721559257 66.807820025882933 192.8996965462058 67.70495479175996 176.39815046474394 63.942037562187195 214.26669047489833 174.54841457242304 152.27484347856858 237.11913159859131 239.45197175377254 270.35607222062993 259.31679857658287 259.1904443694458 232.88839054975259 106.39930334498426 181.03383051532575 117.41036750147953 256.90244870434242 138.7964225470009 324.98184985454623 136.63549001946382 68.909078890540059 44.922271896259325 45.193829748974338 59.645383194994096 69.327860486957974 68.195916132373881 79.27531340361071 70.440394041148707 42.858794306252904 42.980157683146381 42.512156960863578 43.15129292914277 42.732888321485134 43.380940904222996 42.965263000473676 43.792993671893306 258.99262875380924 205.78053551952667 61.98369761982687 50.644633903666559 42.223867654775276 63.950996627914577 42.223469760445738 55.555071023869488 42.222797836513514 69.680348172770479 42.220462810695295 42.52004253376073 42.581156227483916 42.713132585900169 42.688214264296874 42.624046574174983 42.611736746567118 42.671087818505143 42.622503562904555 168.1339802908368 50.630276290824376 188.01973785418153 47.784657304490054 178.32191389902707 68.820250802014357 174.97187177456854 43.928414632435747 181.5353694469685 252.34762404824801 265.38548930413583 243.51865046362732 234.82756588382813 264.95512973905448 295.11869142348735 197.08002190210107 205.22853554565143 132.0511259263414 263.05906965207919 152.37585563945396 258.79494583747044 155.19897743300868 325.00340670710295 125.1046988661388 70.691012713200479 62.305583582877816 66.058023423746434 77.90878666647825 83.39386533305219 80.277700113001103 75.048598252429755 70.357666413129593 43.307854806630516 43.248511938095575 43.142095948332525 42.894855298408928 43.480211913902195 43.817266402388327 43.483868103401775 43.01913258915576 257.45334737692218 208.36100270809089 65.186268951998784 62.600449783201469 42.222801838728095 58.782524701868411 42.22140814183026 67.58752987644425 42.223379149297003 59.879076466517105 42.222120835200073 42.559819808849269 42.573134158911216 42.585182618200619 42.599428745045138 42.706945331220368 42.619050838083588 42.600396004445329 42.558015303557539 188.26840720868807 42.663034281104586 179.95525914120432 69.063569929672468 203.5794113119594 43.493966582430708 192.30840010798102 66.41556810927365 225.86258979686312 157.52416081900196 196.79080044555408 213.17866900644219 262.42414849341378 236.68834935946484 237.30487687949315 247.20966746226722 254.55829630483862 123.99781630025001 263.81298614162671 124.51709457768933 278.54399117340813 136.4178094884501 281.86922832033468 129.45002176706544 80.833965115268754 79.250641988672342 75.010230775931944 65.71545343569889 87.177718045034624 84.399324312336603 80.904263499636144 83.714713924559391 48.622191763105839 42.793286210652866 52.492225379787229 43.308906825486346 44.090501454464778 42.999209234660192 44.898645421997131 45.07660388172976 325.02466445099122 225.88186117646097 592.08480339933419 462.00617096718025 594.31505348852625 459.32675686986158 592.37511749139628 458.82538222913854 591.92490399529618 459.03944598363518 594.59603929718253 459.32636479543413 593.87408599649007 461.86364172793952 592.42176541591095 612.25975968139289 591.91162059181488 605.08228305778357 594.05971585579277 612.42138837152231 591.81869881059947 613.54559501492827;282.4918712254692 240.62059299271962 191.04573833926352 263.48526472092982 191.04532652454623 257.81552955982255 191.03112617575363 248.34831736503645 191.0489511933871 192.13267599749457 192.28397099094283 192.50097709685468 192.97156397512694 192.7845808770897 192.57391870801837 192.51036481178855 192.32938245910717 530.62007442923414 194.23224975803382 571.25141905349051 273.64859627641999 549.36620778988595 210.7179390961266 540.97813106238425 269.16155989392297 679.86222337710296 622.35178120168359 805.35722904821637 662.66566121818778 652.80272086950549 632.45807713561396 624.94890837602725 649.65890284146121 649.14022746317323 445.93969870965634 733.7208774445736 462.00471025552667 685.78713777280063 438.92342733300791 629.99663875421356 446.39955972373696 234.68453639372436 244.79897932569702 218.6723498489547 263.70422977763377 275.32448815738297 285.9837924914504 269.02975686245054 249.18306749277684 192.09210793358818 194.08800489204057 192.43269132785215 193.16721404826893 192.4999241508981 194.88323447261126 192.75209100296846 194.67555799604798 641.20723516289536 612.31130664469492 266.59997852057268 229.44245556620177 191.04053940212523 259.53809722294574 191.04652161771676 274.71613483768954 191.0515642195827 248.03777146084767 191.03192711148787 191.91886902221609 192.07268761561448 192.40395327815256 192.20931044873373 192.83595910486298 193.5359637462735 192.33906952505924 192.10713408901054 484.86698006402503 192.38164418416375 521.33482940465683 272.11166098895853 597.1963030907981 274.04488889086878 563.29119829263368 265.71107066741007 628.13400438286499 561.72167646868866 511.22348115529542 656.72214413746792 659.99036147613776 728.35138980282898 698.86947008173661 698.50040494712903 651.11852287489171 360.75976316673638 566.73199373315356 396.6336740343188 692.72083780031392 467.04694513393372 808.7294554351198 459.66131982386946 276.62401116852334 200.39481825531931 201.36496371096393 254.68447224124657 277.4896977171602 275.12983502542238 297.54889672002435 279.80226786066061 193.21623067145984 193.61431943535609 192.02374214543991 194.19870166487172 192.78340784814975 194.99023812482085 193.58562898432331 196.41342226544779 697.98882455854778 616.98954282004047 261.01892456237204 221.77153760898392 191.03173072845135 265.74184583467058 191.03028985808228 240.62918676229066 191.0287364193394 278.20244795163825 191.021830100291 192.03315432060484 192.24430248412614 192.69892918930279 192.61308510829798 192.39243203385843 192.35188525917226 192.55410740778706 192.38769264612804 542.29049322128913 221.71408030464121 588.38452088166719 210.88708577832594 567.83025384579696 