function [Y,Xf,Af] = myNeuralNetworkFunction(X,~,~)
%MYNEURALNETWORKFUNCTION neural network simulation function.
%
% Generated by Neural Network Toolbox function genFunction, 12-Oct-2017 09:15:21.
%
% [Y] = myNeuralNetworkFunction(X,~,~) takes these arguments:
%
%   X = 1xTS cell, 1 inputs over TS timesteps
%   Each X{1,ts} = Qx256 matrix, input #1 at timestep ts.
%
% and returns:
%   Y = 1xTS cell of 1 outputs over TS timesteps.
%   Each Y{1,ts} = Qx81 matrix, output #1 at timestep ts.
%
% where Q is number of samples (or series) and TS is the number of timesteps.

%#ok<*RPMT0>

% ===== NEURAL NETWORK CONSTANTS =====

% Layer 1
IW1_1 = [22.768885652547958 33.297097633838064 9.743118396421675 28.850200358121633 9.748225961924053 35.037760378526755 9.7382979311501892 24.137445671562922 9.7423192022882468 15.899880091559339 14.821343673379218 16.767706205207283 19.020560350897028 19.180095507765678 18.676849090474441 15.735563760136415 15.108866102395936 98.055969966359314 33.714105645783924 258.1606123002037 37.731417161348297 218.59595785005831 36.619042116093908 154.04849437597551 35.23590236956489 328.30630516650285 335.71937751431591 1206.9007930147091 635.33186326119369 575.13412714961214 432.85223057717201 304.93168688303047 650.69318264526316 359.61259390294174 99.095284331406006 676.40704916363086 257.55770226664634 518.46769157576227 272.95708398709695 363.79508121428063 177.44108181940931 55.196662400158061 44.774934164365554 44.638781141808479 69.480038703686731 69.217703764762348 61.250941932624272 64.652413534935036 65.537626448735637 29.747481928976605 17.375107249834649 33.870779124701329 20.336254579263876 45.485345743767574 18.726896306134293 37.738421757447107 22.833069667225125 164.16502036191889 161.43834405129124 22.934550240779554 29.833735378676266 9.7396809200363101 38.899659676445168 9.7393554085849274 37.149883142485777 9.753925406069186 41.756296129744932 9.743002898861409 14.544270417326894 13.923114651383466 16.315927585787104 16.290287018165184 18.219764456223718 19.018687381633534 16.791732789392846 15.110572004870086 115.58640219222929 25.546707403971126 160.84214213331273 34.877235741777014 349.72690286895261 62.275182253262827 198.08654774026593 38.639200249772301 319.60463134700638 213.58926305719118 302.37933829483853 519.24844510012338 505.78896589421936 1103.7724358136061 638.42281581427835 472.44578450304539 337.75090566529758 86.602985949597496 359.21425187731478 132.48517876924581 528.79863100870045 285.13599473883403 1269.9969176003167 194.89243937157829 78.257135271227867 46.99526245672299 46.939635860425113 60.514061685876101 60.514669535270549 86.89166775416345 150.3605414038401 77.728011454679148 53.523188490172572 19.287466635359067 36.427980309561732 19.93649286918501 42.703678173950166 19.074799487947278 101.01822573449374 21.587817271008948 347.18152015922516 153.44982610943268 23.202566609704249 35.169810274927997 9.7607254253621889 37.348260826498645 9.7520680427515654 38.428745407044651 9.7647062551610269 48.794658195285187 9.7553027402713592 14.121899683132389 15.982907013505793 19.669069397247068 20.893856604408334 17.127153406309905 17.539881160080675 19.720210115150646 18.807154562300521 150.21891882548238 42.088531107411143 300.52997902447885 35.811966589469137 203.14478295831213 66.84500732599885 218.88464140249343 26.652114808559013 200.65006364175019 576.84497011967596 880.88501616628992 648.26505645994632 366.22327722189522 796.41266799417963 1017.5964761376026 337.59523533564709 298.90002106110444 124.99945164255203 656.25934963024508 365.37484791377528 515.88767782149432 174.79842499623661 1090.5946407535232 247.205948410113 64.835459517284903 50.36299746182047 49.593419482775118 88.410436391740646 100.87353419715775 71.897515522185273 73.79951218437219 61.197837711896597 46.41058315411771 21.73834283568128 39.551527692796974 17.54212143209757 63.982923926336483 20.93655603708309 53.112015846940608 17.866227920249692 322.034821148113 146.60524151366468 28.431521211768892 32.036469602381885 9.7666106878649348 44.87511420272471 9.7595517643014205 41.399145060786282 9.7711827030034826 38.90619190938245 9.760580128584639 13.819960658476777 16.32665510227557 18.373759782248605 18.266029064433894 17.925926396241685 22.458327831521714 19.750503228683584 17.615791980181829 188.49309818837585 37.809784170137775 232.37535401362629 68.497333260147514 374.57568673759909 60.748332575119292 344.87124739505009 57.752889352166576 272.82256884839148 589.17773302004377 535.69255074165744 294.32654008700484 816.6977903309587 786.90691811842566 725.66003393279334 594.05781633606659 334.40715291482815 129.22529554896573 686.70961786384203 157.69400036132419 642.12824362360834 398.3604256307579 810.50162622207631 288.0445605062244 82.027852592028353 53.976367806335936 47.132855090944446 62.653351667648302 95.790573804925231 123.3589495669283 98.744302251313144 87.73294541569345 56.652007720337963 22.764305087073975 45.049552490002007 19.160763484822571 62.88836249043775 24.937975658747156 62.873386511404703 24.861247221807567 566.11131038328449 245.56484013112816 353.15917743649533 404.98499642973911 366.12144931228755 378.70243423922079 398.17594488465761 392.0051530849297 438.03644053706915 392.57859404868833 477.04252677726487 378.74740853267741 499.14069370976023 406.18053534061761 369.88431101937806 561.92092757898399 417.40014058654072 544.87664134838337 463.64534985725362 564.00057432995777 414.90440752864595 604.35905500723129;62.305079902821532 44.313880302626323 13.967336464095816 57.715154847594071 13.985915551311855 50.732066789201419 13.960230355862276 51.824849869943584 13.980735288921487 25.147472804651219 22.382599716039941 28.516788496903803 32.867569356318803 30.308672218982458 26.740823384449477 25.088638185909865 26.190211849617761 117.28248734834912 53.249035924166947 222.08214216837098 67.845338191622758 226.80550109243921 58.888058841663408 160.07165309620379 62.721977306661444 315.41203462544377 278.72170212368559 708.58675272349865 415.93257311625609 413.54782655391796 383.18446297360742 322.88245383526697 454.08895071679677 248.29193478981554 97.272644949533799 389.72398374794136 196.78944669709679 346.15083770910178 210.99898124663048 315.53517724355049 148.04213900609997 54.880264832882276 48.937936568993173 42.97976727049393 57.748876272924953 68.239844760433186 70.411844117411135 69.14516843713983 57.8164142901215 26.490961491411369 34.355369217085752 28.159527640920533 29.339400600645206 34.162993827214137 38.640422592976648 32.167339249136994 33.518832061803018 173.1649010282641 242.53576438819934 66.483475565053141 44.524581193249382 13.965576572503936 68.139740589956958 13.97219255014674 49.350260068096027 13.979618271202501 68.997478753346371 13.964351451791901 22.231195945287528 21.771648619584841 29.098077424677271 29.250235317219246 30.340870237184351 31.978159924697867 30.455926432227066 24.831926797073407 135.59647414326218 42.261855815049877 194.83134029412795 65.827437124704304 281.92579334835455 84.825377658827421 218.2513924207033 70.726991603815918 289.22463578464385 217.75730028306589 289.43918552926505 409.2595019403679 373.97137454462984 706.06470425148143 521.81127555550347 414.68755818877725 274.26188667816268 98.771292322641187 270.07880485203094 155.4187701275178 364.66543682104771 209.4892854152034 746.66652835612854 170.42171540706826 76.519629711981381 53.54341731164034 47.767330634203681 61.755543935948602 70.271623792572129 84.664001724994719 104.14633724693118 68.002243818393936 39.388478936476382 38.597571479988176 30.193601885305011 32.658233102398171 34.486707870516057 39.680953082832602 62.833936809786053 35.022839263194015 295.37032297209419 277.3900440076527 72.338267547233627 46.369669513009718 13.966888604126526 76.740505165258796 13.974360810537716 50.933314358681514 13.965125061068001 91.282260685469268 13.962720101986344 21.411938819589583 24.647003217355497 34.265637762623832 36.587289432727388 28.308289346402525 25.696369749886006 33.725026433380769 32.53109437658172 170.92607000862569 64.661726852616368 255.09132809355566 55.905742397819402 223.67775005498319 101.74732451707931 242.2685432804505 44.425148702361092 193.08261868571759 460.40759403410971 612.88338928480107 410.54354112074071 290.07907861193689 627.84278304229997 724.13027350627931 259.91560093017034 231.47930865320075 135.27863737739506 473.91536441955924 254.53157431044181 340.07513477611758 168.58488106090923 722.39631179834896 206.16686518632937 80.083132419148086 66.218148666762545 53.941622975139055 74.698693924010527 89.850165851434369 83.633343499027575 70.61445496106262 62.409559791402359 36.512013603652655 46.6732929970239 32.658393471350792 26.602384323791778 44.48657599479651 44.561861995906582 39.860248325102035 27.541199820697727 313.69215604200406 296.33316925647762 82.074596690431491 47.066763352051176 13.966511329028986 74.704837821723117 13.961152620812618 53.419682676295331 13.969138427613318 75.372652631378003 13.966610907447484 22.01219004306008 24.157705387503452 28.172243873687741 29.577434668223109 28.795986632500611 32.390604584791689 33.331574964703847 30.033647320057202 190.7999845067433 49.697172092665923 199.7387336991516 79.269691246665431 301.83634465673521 69.009719803386318 308.59993729280393 92.197620863263566 312.35785665629794 391.20739073086253 368.95686088353546 295.59942142957675 549.14421107874364 543.16237585959016 514.53056967416546 503.88220704577543 311.67205860894256 134.07218296139393 405.4342261058485 137.75288756845131 406.54228292215532 258.62047184171337 505.99677515836669 236.91146526601182 86.891549347628015 69.219694748632165 50.632241140841813 56.314520575569297 77.685101066646482 96.088739881712968 76.719561800355294 76.473367568877734 38.656423179734304 42.789639294905761 33.028217827928813 31.846380092415387 40.872842838783292 43.859450343568916 41.231901004078722 37.242410082282277 379.84127248230124 335.35617891628283 454.57821104747723 438.0158508666924 473.95982016469071 415.124906887512 501.89171269369672 427.00782365347811 527.56096125540091 427.5015657398888 552.00798147637317 415.16700880664217 566.14321758175424 439.02345131874449 481.09661266443385 583.04746280094002 514.78127088754695 572.62629315062247 543.99926968286366 584.11303223550556 513.26706443797468 605.94494767412164;88.057084983121754 53.080124526407033 16.9672176337953 76.808270103199987 16.996000498121873 62.617845773434965 16.95852658429525 69.968723420081687 16.991958013507482 31.917029684445062 27.849555120104647 36.924778727292107 42.772143450174454 38.262654489852267 32.470827952378684 31.697643009040039 34.138814916949535 123.28844800290669 66.492277081841436 178.16534386535301 89.49684905244915 220.95861030679208 74.284216426268543 147.36627506074637 82.816669519763195 307.25931967888425 214.25038042694351 311.04894943975728 237.37985519876264 285.0475150044839 324.61537513723817 309.63953438852275 292.25969285805917 162.30824383678475 89.870824735615344 152.02162325089125 142.78314650790492 217.04042812282594 157.1164744745758 254.14787039702321 114.60558437457576 53.421543452202016 51.29952004582448 41.674439434704794 48.32893207965904 65.926627916145407 76.313643344122141 71.324792424031557 51.103386891025856 23.868267986789007 46.03908450366859 23.764638017587579 36.284000168906339 25.471195485128586 52.350359003133619 27.794475649492895 41.704675154380205 166.84243480033706 283.27587378738804 96.66500929645251 56.693219051118106 16.967709290796044 86.248899970944905 16.979087766295006 59.224623471142664 16.979629227043315 85.52651049169009 16.962833143823548 27.821385468501269 27.469205059542389 38.311462659921411 38.591348278638279 39.220507339688623 41.43614884036657 40.209206468949979 31.770721489989526 143.05383449825808 54.226068580027459 214.39197752093963 88.453565063918091 219.70766333393908 99.793070434953393 224.17896591131051 94.505246886930678 263.53208187819575 209.25687291182817 268.14337364647179 320.17524878349502 262.44478087149287 406.43106915887597 416.13062517830804 370.24246621801723 228.85999702481308 105.57684464904106 190.36067434637073 170.69048385712421 236.81539897717619 149.56588643866698 330.20867323430082 143.85062102387775 73.269462772745015 57.542869190365543 48.293397467369317 62.390936608597244 76.373068958126566 81.036555545738025 67.799042017366062 59.648353916662728 28.517762313405534 51.813104576332591 25.341638571226355 42.686296247968826 28.120172800108023 53.77665090487892 33.688039392702052 45.50987200981276 238.64924316119001 351.49305003440793 108.11451807723088 55.162932728394871 16.952597143193934 105.13379604318425 16.972623809997124 60.993608156917475 16.945148986470027 121.6954482507586 16.949510000305001 26.674165534322178 30.933040748150468 44.728023504138719 47.870594515795119 36.465317453347211 31.547075915859438 43.702272131669865 42.324085972337457 181.72852666266004 80.474748652851758 218.13405041977867 70.602402749559388 238.25170716404179 127.04619368918371 260.53360832013038 57.266948719861205 186.51357204856794 363.07658518986108 409.5619558921386 227.37048781594297 232.78595069543536 502.5884574373552 504.34263917513067 202.67976656838061 185.65408972538836 140.71835195004377 330.78314140457167 169.38525978300942 213.75582897973888 163.31318242855119 445.13024835687236 175.36597825358822 91.044529517498177 77.624422733577958 57.587697240114814 63.838770831071514 80.468973179097333 92.567385756447663 68.239360207700926 63.537571844935925 28.966196087928878 64.014077498200038 27.377809832083003 33.366174406424904 29.609947308492131 61.2094558726155 29.771720428436467 34.833322447299111 309.92513524292997 406.76667590851957 118.90191667669305 59.371406033540715 16.946560906010255 92.687821110771864 16.943003136222504 63.279378283064489 16.94740414676054 98.38854475217147 16.95216524479277 27.970718554664128 29.725422286009106 34.948030034618 37.517808728330152 36.73838179490582 39.511504862198287 42.852766651888317 38.861328577157963 180.8076191035741 57.831064128997951 168.16841009559391 88.227737600508092 240.9482903027357 74.06578123249156 269.27404592339371 119.14190663133658 349.00095546097862 223.22144116389381 229.48355677956829 316.40499384151121 358.29116783702864 345.44297290700536 334.76585622288349 440.25369602143428 296.4379811355102 135.53798031077514 176.7187592680275 118.85580239870376 242.5893014592034 148.70654190208811 256.76316015291678 196.21927035397269 88.551682895269721 79.026321232740003 53.577692839858926 51.396842874588856 62.283277291104284 73.390253461125212 59.64586978868914 67.420521457392482 25.073705934864648 55.881562029455424 24.008612529688381 41.528837921864493 24.239479948403009 55.854757029568532 24.878274315376711 46.78716609525965 233.45160960576419 389.40156925311157 548.8949980449122 474.2535748356305 574.24720331353592 453.22869194765644 599.7456622837243 464.49673988959557 614.62431160608344 464.94576348085366 627.62780037048674 453.27048871507145 635.12457829327082 475.12559301870141 584.52866255468939 614.8250461681846 607.8321724626237 609.43361707363078 623.88457761946029 615.11091170361146 607.0522924599544 622.70189301197911;91.27087212237376 45.836862679449318 15.728900298883497 77.307264374899034 15.752694067270189 54.203891629128385 15.720347872391718 69.77400669061781 15.7463817955047 28.439922390438568 25.20137506300556 33.728020158286398 38.968074908294312 34.150331009017279 29.192679064399947 29.228588158229101 31.068722837638774 119.42976408278889 61.295324263261477 210.06926949617753 82.20528249886388 227.9651564819402 67.518433411832689 160.01318932619364 73.368897364585052 208.70585586961909 241.11419211515027 415.14347143239644 250.76768861743818 271.25539044436789 359.25582023819322 339.43693329860309 286.50169939998023 125.92429068576809 88.862715516844588 171.34167827168642 163.92553398005671 215.94303945771668 163.21596872315092 287.4104821765207 123.09704923754398 52.023175619579362 48.937299185980109 37.375173923772365 45.562558781353268 65.657438046705067 72.868810580067489 65.814631407427129 47.683470027648823 22.251267960482796 43.771447452506095 22.192849917104574 31.2198098802359 24.294206609135919 49.930850926960872 25.931373911451701 35.72265155397961 186.00507788357953 341.94895644762153 95.760144463876571 47.258290241219932 15.7242191112691 89.299669446178655 15.738375593905698 49.552796664817933 15.743643170828069 89.260900893729172 15.719473866792686 25.084735586014588 24.904797658452551 34.70258115836927 35.044705036973966 34.626237709986398 36.552799281792758 36.384232074959591 29.059377904879838 146.37791087441246 48.60506552457155 204.80334215039485 77.494267300134581 235.89398769039315 91.159363404172012 204.7303846284388 83.191496254085308 229.96959759676162 216.7354738359177 280.14641957034718 252.08749214591592 268.91839086669432 458.5841351585741 409.56634693416112 276.55238328080043 167.18915407893121 101.02760908383877 208.46627175116595 158.66050475532273 207.33838247201879 160.23753571809283 365.65695187212441 136.48659707114038 71.858829660022764 54.68749360734278 43.136722012768821 57.121007061539515 73.540526440383729 80.994354058336 67.954359787635696 56.240550435809908 27.378870511576132 49.182004421127772 23.817556595532078 36.13595152273254 26.517620948243511 51.159433264203265 34.216852137231328 38.655388085838872 233.08445151581117 362.39617747527501 101.64664406317166 47.329483602766331 15.712435725870431 102.5606133996329 15.727426034532099 52.088024665938562 15.712891787598373 121.44438711454228 15.708436797010748 24.20723639502404 27.806074944965538 40.330423927704445 43.024892430094489 32.359092759375812 28.467123774244502 39.787502104850226 38.422621911704859 183.91783862492466 73.589144305975225 215.08207582838406 62.407177613547233 225.7470788237153 113.99662913426661 245.78232262424871 51.284504907424875 163.08039632829428 351.39217535689687 404.98751392691395 214.47855542917495 211.06842878535278 485.97734466537509 502.5320571288064 187.03504880246822 169.98491167445093 136.73008612852351 329.71118364923313 171.21549990044423 189.15629895158014 155.20752614985622 433.39837090090316 166.90815856090785 85.187424849562007 71.94244637363218 50.809662961974311 60.222828486894272 78.454295067218993 86.594845558771681 61.633386898796374 56.767140089025915 27.176385657611554 60.853525319634059 25.522190631116331 29.277735992016716 28.649518985163301 57.72551317786791 28.109542909446809 30.484271541627663 282.9121581470273 379.42108432796169 109.49826957980864 51.341827638414671 15.709215235747532 91.381766632371097 15.706112822095065 54.929312813765222 15.712290995634552 95.130123564023975 15.711354549843266 25.3183148735279 27.072798621558256 32.193915606730187 34.231577978599589 32.49481437282985 35.406934773406164 38.768820787621358 35.146637492421142 184.0867135198219 51.665965085384677 156.10796121137088 77.363920002589197 231.39830918833579 67.075690209041994 274.31725292983975 102.66194088432141 321.7564392387481 211.7908938481666 180.394280407921 253.36760132431013 362.63036326680725 293.02992792952364 326.85851664427912 407.8813181875941 293.34860714539252 137.56458239220015 174.3950474610894 107.25725077399147 227.85729891926275 149.54600593873067 241.69961896516298 198.17023337100775 84.99507322192818 75.252051971927983 48.516731837105922 47.530470394269571 61.560862287453872 73.083359817499627 56.557181142416127 63.296413778415861 24.32906199300885 52.623688962067412 22.954258426649869 36.114268577117898 23.786601814521976 53.444555463024713 24.370385931974258 40.655553888616851 229.40636449143565 397.75740053219369 500.32877726811535 444.62665356529243 521.23542151473475 423.32719868991938 543.37349769198011 434.53685379544288 556.50872055974082 434.99263321243944 568.71906616482147 423.367965477403 576.61699631541455 445.55160092207677 529.89322635900589 569.8599712869235 550.44230539027728 565.03544462636853 564.99904319449718 570.09655185305519 549.70990388051189 576.9840634103623;76.676103863655428 47.998868629624987 15.489578720960598 68.637256148298974 15.512557488107403 55.885394714143118 15.481347592541333 61.844799694533407 15.508935109862923 28.33723768146568 24.898542197111013 32.751165235379453 37.907095795048598 33.734838877872761 28.900389709900104 28.376650527700662 30.281591046561971 101.81894094487443 58.948982643916814 154.14914185616144 79.786060372639611 192.07333912931873 65.56852735013355 122.7238726120562 73.483774494587635 242.37496950121567 178.57639435655915 308.81440004424473 206.85774885210921 248.27156674947932 282.25280965439538 261.9000040565208 252.43706299520238 130.75726561535464 77.615431607125601 122.52688056898512 130.84656869935807 197.43656079178751 142.26026365275999 212.69189295162718 99.882932705831337 49.604669417415103 47.630250473000174 38.643802278593768 45.157440635980102 61.211085255702756 69.91060988818586 64.316828832582317 46.957062497140981 22.511274558856815 40.961045252633163 22.70594820483166 32.367549156638631 24.531528788945227 46.213002926463844 26.261090392147935 37.04467188345707 133.63622723041772 256.57016886893831 85.449719121476562 50.970744791400726 15.488362236933808 78.156205360347542 15.499413923788138 52.928541777640746 15.501166494755187 77.748191744012288 15.483405392607668 24.84066551817887 24.574837177838241 33.904245132770484 34.213690300134836 34.560043241686543 36.526519049469186 35.504453545425221 28.334243631758607 125.65507557063528 47.836712976184771 189.43948129245928 78.592576077752568 203.59683429809559 89.188138966939803 193.84032150662185 84.409779958328983 230.13166355406187 183.89640865610107 239.55912638049193 270.014327780651 235.17886172965143 424.36593480259381 368.36189023323629 308.31161889197199 189.61006620008803 96.72692967763588 167.88888032183803 152.75732221872022 204.53287878437959 146.87120721877048 301.42069347557668 126.23949824563083 67.734310904606104 53.414112444204093 44.454730835186325 57.35851660003113 70.618662361342643 76.298480924618076 64.692974735929724 54.837675950449579 27.452906673149187 46.033212441885212 24.147471367554164 37.904565405223998 26.790553801648649 47.690417155935862 33.216885480915238 40.352692869638069 195.78529020357314 308.02284419719518 95.775724266090251 49.883819004021504 15.475558206582059 95.012119906398027 15.49128557556624 55.33223886245954 15.471847759196134 112.31332257415404 15.472680455658981 23.871841961137097 27.554913709222532 39.348412959391496 42.191574603861639 32.203193166411992 28.115314443789938 38.673568006500894 37.450509900240881 163.03247377455779 72.031293059937767 199.52956358202303 62.882591955340963 216.95071245806827 114.35774515844338 242.94762663132221 50.686453081626709 165.77490845849141 317.28211593818145 393.76795932955292 203.6512326048132 202.91772639305742 485.57777381028637 492.81092516315198 187.6827917298609 173.12242365137777 128.02502910724445 297.5659834679754 161.78195966055716 187.55979226634909 149.17277449176365 422.19307542728853 166.30610843214879 83.836633095314752 71.013900963135413 53.04249065054541 59.367236175809452 74.57307208073135 85.528119083691863 62.954030471689826 58.649009967365821 27.744102063176108 56.788637364026158 26.10774570381923 29.673443872509687 28.699374957179899 54.068986636217808 28.630013981833862 30.970734343873101 273.7421241987094 369.39661796523075 105.9867153456204 54.563111681701741 15.471505731644918 86.705279148078858 15.469195703410126 58.035992721428897 15.473721100757768 89.68404473044761 15.475155712866867 25.002316722627128 26.645191198739138 31.361641135044383 33.453229579764646 32.465714230953893 35.239423344574369 37.932834448616632 34.503744988025922 160.80772703074527 52.882010564038602 149.93904522054495 81.525721183046542 228.45040759191292 68.066751772624812 249.67763660753977 108.22232023025086 319.08748972483005 196.96828387103213 192.58369387265563 286.04431051934671 354.99345757137814 309.36607069331575 301.48508744916182 414.85476760420789 266.34083451244794 129.64857147906514 156.74110113089807 107.3144129148516 230.95480264265444 145.70011595190681 223.40239261189416 191.37521778828912 82.577783112392652 73.685805454335295 50.655485363608761 48.69539087443151 59.480945902052639 70.651503450566011 56.787002190080898 63.535449133700908 24.673007734461294 50.037101926291726 23.569339076631927 36.882434064439607 23.952430258765464 50.49842950504685 24.57071928403958 41.809497705820796 208.18214903473981 360.5877706061836 542.89061704183734 453.3071983868353 569.15205449887492 431.07677411819725 595.97694979435437 443.09010080897764 611.20882641320259 443.56738663533406 624.5318573162964 431.12122986817866 632.1365038967931 454.19330396472174 580.3395324310352 604.8488582732075 604.29580873831299 598.39116106193683 620.71909870755769 605.19376589477054 603.5192831643692 614.42268705912193;75.629940290563823 47.077773375991399 15.171916356437894 66.251719982271098 15.197042264038734 55.103788570361971 15.163939697720163 61.09489231457345 15.1948375682581 28.146212757958551 24.61475808424635 32.19208887956782 37.123193092403071 33.26550563885597 28.377329567550511 27.792736798220968 29.994629515116827 110.8185165135362 59.083203333749509 148.57010724400106 78.603530123806564 179.47836135465906 63.796332477467608 113.23387957759087 74.865745927326984 315.39340598304943 192.75128809634549 264.71417166991404 217.04494558341548 249.87864036882712 259.27269903249299 244.87712296142445 267.97956284975504 148.05129036283813 80.157045171633683 128.39928231271509 122.46164968192221 196.15949192062186 133.74566932159115 189.69604323837927 91.693636519992964 46.159536393610111 44.735518927290215 36.371308726552783 41.631727123504589 56.38951444379834 65.415136056722602 60.980494084170502 43.833135074545226 21.039867415915332 40.05257314247541 20.950114171526465 31.998845102685166 22.353088868748173 45.127319608358043 24.358276319474953 36.591757602836481 122.99056071794604 228.40069492368241 87.037687662203169 51.626988872960681 15.172589765329375 76.536378637860295 15.183447046024366 53.88068259688901 15.18382015724421 75.755241040085934 15.167918833440043 24.659999580576681 24.355236207920136 33.547764266074338 33.828734574071987 34.394034888853454 36.365972414908114 35.187089483580181 27.978482540196119 129.1914039311024 47.461915837343938 204.37012305989413 79.89048370277078 195.56494894645448 89.154039466557975 210.60744350366073 85.811451749381007 256.61321810902786 192.12855904378921 244.24232723486875 327.65529354284115 237.93443316702928 375.28395424472205 367.2670048352831 380.35919766622305 223.50726192427766 95.593040963088797 171.38060163914767 160.83438154909533 228.15732692593352 133.85898388038774 298.86765693659277 130.9649918248524 64.301446492749776 50.355890136321761 42.507516199429382 54.936972837122916 67.042528274713021 71.013788490825704 59.411912406360642 52.57907628976902 25.016910108647949 45.230131847563321 22.332709968548102 38.029715063716537 24.679467594729843 46.963581217312559 29.326098713729927 40.503638487727493 209.72386272489402 323.9933446621709 96.595873146643896 49.178736124136634 15.157279482150722 93.48668082406752 15.175856101537768 54.256220208755522 15.151244381627123 111.10269153282206 15.154362348043104 23.637077553806556 27.240960771383868 38.907087423156554 41.59408870217014 31.97305616336671 27.733093387785541 38.010971960380516 36.825511638955902 161.86943342362795 70.933444068262204 195.66467270606017 62.746730747771423 210.23693507442786 111.54544747542539 239.71732982478161 50.019623126431213 175.38443881011341 345.51726176081104 382.01133031295916 206.74154671679378 210.71778888152821 459.50432916053364 474.3280340831667 185.89090111018174 171.58884987214833 126.40228093874509 304.03992428947015 151.03497697053558 195.99704517594961 142.43639337475651 410.84405788903723 160.45798795757423 80.313208283489857 68.308251086454305 50.495193978282124 55.531566072869609 69.98491055364353 81.186907277033185 59.514866392311035 55.718546832475859 25.367637424205444 56.015441706292947 24.034063488340998 29.454393557361058 25.849959396587831 53.428793432391721 25.978177321746436 30.697481287093872 279.22358259242299 382.90576062659181 104.13785070512279 51.593830407806323 15.151620398081743 79.366648158250825 15.148502978408608 54.541209316411965 15.151698936836748 84.062343314713388 15.156735827339894 24.671462646889676 26.101685627220746 30.405886654625967 32.61743001015391 31.963181930298518 34.174005518883469 37.068583946178158 33.717138600248347 151.45799669970563 49.490484918047883 146.67393381415414 75.698470969101038 206.56727574773623 62.806610682911312 210.19400831968306 102.20102908262515 305.80859410250855 185.9839364631502 197.53121732756603 291.43488443994789 311.96133756136118 288.45436083578392 259.73453425230616 379.36832344653033 239.94539191065547 113.79489558384074 154.77383556489031 102.14147986101571 218.44668176940908 127.89443513072246 203.95471176004395 158.24149781799576 75.136130373288381 67.506578518294901 46.021455780281087 44.328405606450033 53.117610769885687 61.937440783659611 50.65268619517029 57.353208739013212 22.084763221560934 47.851444757073224 21.26604091163999 36.176480035824568 21.337928387188381 47.704955379107361 21.876083206788188 40.494894141904595 195.04757659114034 333.87373228503964 509.48927001471753 466.04446748258488 538.25510126469953 443.56468183630022 567.92553101930275 455.64059376773724 584.96805821371618 456.1197795907143 599.60596709431957 443.60971703820655 607.76631534100989 466.97495954559884 550.86122398016369 595.36720353372334 577.09513017156576 591.00754239485082 595.40229913773271 595.5832585409953 576.14768947099594 601.39456258486621;71.250907764622028 49.110929048253965 15.707874513221434 63.359140939852011 15.733296047222092 58.55671565355324 15.70093561935704 58.131941341373349 15.730119820940107 28.61524782283157 25.057087508614899 32.119017298696718 36.833195808801207 33.884709672293937 29.147154380492843 27.818172829098039 29.936459506606166 109.23213696464629 58.402145435178838 157.64750659468464 79.935189284582222 204.84610242761212 64.719667066822836 135.77774775840652 75.975205813969396 336.92474827035056 183.16685893929269 302.60580247308536 269.80197243260034 300.85610288539931 277.0895664837218 268.70564344322059 337.03508417921421 180.08896535372779 81.630041402366444 139.52378099095404 130.16728116666283 232.52422351868358 148.42122060744538 212.45623632696785 107.90671799636615 47.959695599552049 45.195751033398174 38.102239532888944 44.221228768533052 57.802531884517919 67.490927797245277 66.256466120897215 47.524877643118501 21.871830823529436 38.677482990804698 21.779623856350288 33.156215327825606 23.339623516146517 43.679717567005746 25.374673006242581 38.127445855766098 137.96212478579551 236.8947157364118 77.821167936838449 53.834449669437362 15.708999046250449 72.188254644603603 15.718645109360146 57.643728904324348 15.717974666333111 71.967805972163234 15.706296011617045 25.130028438883578 24.671524689841796 33.271633895238089 33.520266319172009 34.84847748971525 36.715929763904541 34.81086020409105 27.989509834874799 126.25011334958778 47.36297861387466 196.85050246738606 80.266381567447013 203.37331184585634 90.37861759456888 214.97145463955951 85.221917589767656 269.53080517384075 189.03576633157832 231.98080371099547 358.53600199707114 276.08895934060973 393.20434859295688 380.47063787299226 408.21205224544951 230.45251687481624 95.699533668134023 171.00124236765038 158.31730044737725 261.89141757512738 136.93071856338688 335.48158865761764 137.06593016851292 65.45367534208502 50.259443909389169 44.398746224117019 57.139858241619407 66.420679039823838 71.115326242574511 64.930896404635405 56.494924092117486 26.14509484206814 43.089058625044125 23.151802918310988 39.149191562522155 25.634217401935011 44.551271788201745 31.000762315037896 41.929015871464692 206.42767786404852 315.47135855216897 85.067306372940735 51.061157908675568 15.695889308165107 86.885519704783448 15.713878070886981 56.116070604038228 15.687213670856792 101.48554101429667 15.692755008248277 24.042643735410238 27.629127611618671 38.60606067870637 41.16403017919248 32.28844929989836 28.290792442578734 37.555482474357142 36.372093442210861 155.56044285803446 69.597038134384121 202.84817330656085 63.822918824601842 209.60562067947865 108.43111425094037 233.3634457597262 49.992531782445951 180.39201503060031 349.06819907723934 384.80895644158056 245.80132448487041 225.6804103965672 464.74617578351689 483.80881808242856 202.50053357188182 175.16128141398355 124.01831424513801 302.1547036170906 159.31485771989196 229.3960514988832 143.88857045198904 430.91381882043032 163.10971447412686 79.415934027548417 67.525767163495459 52.19731701395736 59.104633114028331 72.287280371267457 80.818379434624944 62.41622938475534 57.755623473510994 26.450166906883609 52.300907039878254 24.991666374523135 30.162417574535599 27.213321915657854 50.616913365057663 27.223231945504786 31.377453163720478 265.41559470036128 358.84163127997243 88.475784087615196 51.687611084833975 15.690490931541829 70.581841466396511 15.686287565226309 56.444042115269923 15.688223118715699 75.658086880553185 15.69570805728428 24.896045880383451 26.373511403463077 30.210192475731471 32.379173285532111 32.412998456571103 34.677785252777795 36.689382397001722 33.305160488117217 132.35133449512537 48.296860635397103 137.37884556399422 74.676493453133972 200.44413946896833 62.320867212937586 214.39948952380161 99.090245645902968 271.50490767536814 155.04691676874219 172.95001116497124 279.90357937467252 313.14307131664424 258.3834866724057 249.85029406284622 387.45618241493446 250.22838375259778 98.741195526588299 146.61585984520534 95.925932981692341 225.89984805123851 124.82038276013503 205.77723991250713 158.02790434748545 73.73519917926653 64.309992100797018 45.829493169409346 45.299806815298005 52.996483368508073 61.844017064248234 53.620364935520897 59.760312194788753 23.196779191042395 44.911022595441139 22.106891469970648 36.605798428762469 22.548377075807032 44.658033956266372 23.100430220039858 41.611272335798908 193.77142752580366 305.75038224313221 519.99761856262637 436.32401546621907 549.37786311050684 409.88306713367456 578.88597317940093 423.77818677054677 595.92350135322761 424.34080350583974 610.51302695231254 409.93408702600283 618.06436250133788 437.49226914951601 560.87302267214511 588.39408234642178 588.35126495998338 583.35460134790605 606.62705249773114 588.57744953755071 587.55969473751088 595.54024877167717;75.550995616388619 49.897011834629311 16.094547273815714 63.271311418757833 16.12236956827747 59.512929481601851 16.087419659018042 58.113602731742432 16.119030694501273 28.804484350053556 25.329317199416181 32.083693223673883 36.517396133164304 33.897735522811558 29.297475073369885 27.76298337203162 29.957201961682021 112.20807249913051 60.347557972425584 170.65644947909817 80.540148895917483 212.3031786888516 64.481952974098817 152.39561498335024 73.45498787159471 283.52394724204532 194.10471761284902 348.0594101696156 280.21660587795009 320.43720982237227 295.42996275484029 287.73105660359113 346.71753270111697 169.6969054018717 84.420593714173464 150.80503706833684 133.29363585913839 222.05774149059968 146.35772712071045 237.77707835947075 112.50500878409423 46.978262157968665 44.741429678751459 38.409257508874518 44.325736451847007 57.067863579019615 66.663709668607254 66.570412844624542 47.317494488889956 22.041632868215906 37.953573833031655 21.972495993714563 33.251392443388767 23.496051499672653 43.249881298092376 25.379496350331742 38.245538254207261 162.28553321079482 279.95804007569291 78.006932457662259 53.558413786317772 16.096212858623616 68.322114648851837 16.10520718788494 57.204012577255881 16.103173361540716 68.595187781887972 16.093645923324541 25.257049725201124 24.808798182593669 32.993566178368255 33.185743185570743 34.678375407100972 36.575226410681907 34.510205273334876 27.898050784645658 127.10476720789899 46.85729011251405 170.79771483113237 77.106027351507961 193.65485481451617 86.951176138637436 187.94172735025597 80.770321634331324 262.81858682920836 184.59206589011328 217.60433216179376 305.48519404300538 277.23596082122384 407.92910794232466 370.40713443672109 343.7891548211212 192.52336813634406 94.582214278392087 160.09741253366059 139.86015845205685 226.13245832491191 136.65603964699056 303.4528119228346 124.61016589443787 62.607897517232104 48.93055177850762 43.625048183002129 55.795133308059171 63.338671260727388 67.618170464339201 63.215852638299729 55.539216681349927 26.079746233449782 41.711553367942081 23.235342065907187 38.931911528885223 25.575204687319932 43.138710529031243 30.715627439840215 41.974441750306532 175.79379206042611 295.06414535203572 85.417715721321329 51.155728881373925 16.082739952191417 82.963384405442042 16.102689592316743 55.906996802621322 16.071621008052947 93.094831569675165 16.079686594235358 24.222805861460309 27.806540704035896 38.545273809632569 40.915398820290555 32.268833493302324 28.299183005194376 37.270241217356975 36.156422184955879 158.47127010267866 70.034453868271541 201.1441450311151 64.290693836569432 211.90454609597873 103.74304092257563 214.43936724689155 49.642898495770531 169.45356590220032 336.64202637401911 374.2563843681653 254.65935322348571 239.10325533379302 467.04762304989055 477.26074290239467 190.89532883720489 154.80596871430691 122.34442747732444 276.51836576583747 158.15689402675403 229.61321135423611 150.37943222400597 390.07155159836225 150.8251090232439 76.122896509680018 65.819482536575521 51.686160561715155 58.144326004205674 70.341486909380393 78.172119953770633 61.198197568999269 56.550752073765892 26.359380131784345 50.492547920691536 24.947348740214576 30.167712096671522 27.144602362044516 49.546205292080288 27.129769829474277 31.30160365771102 233.89714595869805 328.54418313376897 84.078512460436031 53.700786445371655 16.077042382837696 68.056108664722956 16.071772372528642 58.172353425060784 16.073418612173342 72.504200543579984 16.082758630653657 25.177717853086932 26.607431144049244 30.181704155646468 32.188473953345358 32.503956548560048 34.686736970841764 36.362812379717269 33.200933071466714 138.76002189375771 48.804596365868917 134.56389116774488 74.53144021636129 184.04565387566171 61.814215153642166 228.68958322570052 101.29803400646622 279.5648320747714 153.88998654595596 159.534549441845 262.88851748800585 322.38585987416036 225.66523896303221 257.72597710688387 402.84737258858121 277.43917635107204 104.9376514753786 141.00295722739773 94.029721788095401 229.74496379317367 115.99359724897238 194.8725844723304 166.45801683345974 71.756632002902847 63.982436188779957 47.075627614828463 45.586124311243339 51.917254097393084 60.538799896744941 53.775713669320758 59.448976800621402 23.396754118583839 43.624650101552703 22.340218032471846 37.088201418995666 22.826523880716536 43.414282141550252 23.321917217688743 42.114948868602596 194.23407971529633 315.34720183184589 525.54754173465199 441.77293760980467 552.28200493959139 415.69904596836966 578.68259267138819 429.39359077105894 594.35141922902221 429.94899789502193 607.69122805686743 415.74918972039075 615.20356353563102 442.92392141824911 561.52543561323296 591.82700564418087 587.32365196926821 586.49004037602162 604.01824440125392 591.98850669472949 586.49233982077646 599.3921397529881;84.915205640995907 51.645267063451044 16.717558746160385 64.526313972480452 16.749232870939061 61.526102545104408 16.709870720217452 59.205502838130052 16.745577697905567 29.235025536415982 25.863678936815049 32.264412993652783 36.322774801759884 34.080119413794577 29.646392883303207 27.852263152778171 30.174844278079092 116.68684646587272 64.11934232808369 197.25841452255713 82.451958972617021 225.99203357234421 64.707229764118495 182.32210649306859 69.492939547016107 181.71079172609035 214.48732688016406 432.13496770632673 301.08787352521279 352.69211865963268 331.73039061819162 324.64404655138162 361.41021510170401 146.4020876562426 88.958294283920125 169.16447911828863 141.52539448602079 204.6773046706258 143.06225990172734 286.76492216741622 120.89000785270008 45.778134083325398 44.503275525013265 39.189564847807503 44.847445011359106 56.674241220214952 66.207540701470208 67.559579474520717 47.189369474678351 22.379649812415792 37.335305266164099 22.368056900497251 33.555555797986038 23.837674888526927 43.274199366573647 25.478909476695605 38.627320889287589 207.12949014165807 365.48624770320248 80.399560052240673 53.37573085377408 16.719839335136424 63.18045462065411 16.727954530052578 56.566433319611335 16.723530257738993 64.136267054614038 16.717187581589094 25.524647852824007 25.111097947001198 32.775687933686164 32.881788239499102 34.555346422039449 36.539202410502121 34.267158114926929 27.891687846832333 131.504627390102 46.343489876801364 128.77739467203071 72.361330467269354 180.86577362354905 81.329574950475205 139.34528359063026 73.720447190635582 252.33646652425907 179.25883668080962 196.55276636826756 212.05214871447669 284.72356885877741 440.69783949381809 351.71989117701827 224.42121000973708 123.20308849245114 94.044558933711087 143.77946890431718 109.52725737690557 166.86270116516863 139.67370291934441 243.95235571103308 101.82978096287138 58.339412087125822 47.308882286425629 42.552724843486516 53.948651898921881 59.194296157941324 62.880474731798614 60.63410388278831 54.038103871161198 26.057257419717381 40.063488338087708 23.449141278407744 38.774588981777669 25.577160111072907 41.509680737883372 30.397731466876664 42.261868134444541 128.24345845789048 268.12688462240931 88.137354443584499 51.609783068631657 16.705399161846138 77.793329326518901 16.728602101951971 55.932732465812464 16.690367239491316 80.574802298005324 16.702559767347733 24.575285616254916 28.207193014109187 38.727667351159717 40.842969619238573 32.383562834985469 28.391049345184939 37.105336279942314 36.106180639776817 165.00285736029855 71.412266461252685 197.40081140361298 65.445609488086333 216.55761007485347 96.880506166200121 183.83246279770034 49.456754861212353 148.17733318227062 312.79167163281335 356.12778101978415 265.98590745049239 257.58817640992561 475.55010222224718 467.30699424282648 168.50822274187942 120.58869002487879 120.83819602664667 233.49841044597812 156.15839105345498 224.99290766986528 162.96740220155272 318.68420232176857 130.86021909548276 71.582559012108874 63.870607076910886 51.297936693236935 56.879089445294163 67.61830082507781 74.718458415523855 59.610773635584025 55.001527898398123 26.328941828139893 48.355223018391186 24.984286737718413 30.27710758103969 27.137943888123026 48.534175093994307 27.103273662410103 31.305472712373824 186.20747346429755 280.42516251682144 79.789355832785233 58.096985361222821 16.699374407685017 66.095654678123026 16.692600300097197 62.059665873244782 16.69382934544652 69.553436342430331 16.705823369313745 25.756130021572265 27.123558834345911 30.383465342158111 32.13341166829062 32.844291273625096 34.939626860843148 36.142755791712418 33.331041831119776 154.79202868604665 50.436431240979417 133.04356512509162 75.730297593688249 159.98684137093102 61.916435386865203 261.33621147158635 107.17514623445277 302.30753790786753 157.72008833248225 140.6025976186055 240.14962234391618 347.5618594879785 177.62008413394162 280.35858403551856 439.21520301427404 333.58368136895194 120.16164583330492 135.21611910750329 93.154068553889402 242.47928672477559 103.57456389300566 182.77901057552711 186.49165127838808 70.084643251163897 65.112966567138429 50.091656807632958 46.73109354989262 51.097262739032089 59.649542820199684 54.801857315862215 59.862963289129979 23.811834921133414 42.32611732838815 22.812484350434342 38.25216372929566 23.351322002374896 42.245501278852885 23.769693180978265 43.374247577743354 200.59265787491861 349.96783643153378 533.73698797818099 451.8293935941594 555.64688960190949 426.26672312139954 576.59885059046883 439.74904715842598 589.69976597909658 440.29481976044553 600.88871971326853 426.31603016700569 608.47577092298286 452.93955734393131 561.1875840323388 597.30304639451379 583.7090631176419 591.34033139107873 597.5594649915447 597.43992146166647 582.83637842843905 605.8234452651476;43.740062010571975 44.669953004843627 12.385101119544489 48.70944099410692 12.396957678741341 48.791130687274325 12.380723555561927 42.196052367338389 12.389017745963388 22.147872965543257 19.902370656032716 24.331304171750737 27.800712690610791 26.795819195732626 24.869562335395873 22.051655100917515 21.97203064015391 134.68545456560256 50.112430630719551 287.39707033191371 57.775414823481825 275.69973431031622 52.209699828951941 214.72152778026143 53.751115530175845 375.09141692104072 362.09476086630974 968.52680203972488 505.78256145599033 487.05652970545702 525.43846803995791 400.00672817332998 570.77561405027609 376.75050860998618 117.76465818237665 635.15402494076341 257.86962201730159 448.70158270919984 276.58367622470303 454.37457966517491 213.23686187503006 68.050451177966991 57.490527291206995 53.697310881658971 77.22338275614608 83.512724347220512 77.915535156990359 79.125823236789685 75.485663661022727 33.754200418799762 28.233890050484689 38.02894158653519 27.87956345753928 48.882157154156396 31.111594215437687 42.573093576500241 31.796988714276637 289.10801696624748 227.39140197472818 43.540474955363862 41.451074040220803 12.382360601601103 59.63516297349021 12.385209310727536 48.747283131188269 12.396931672498992 63.306457600516318 12.38484138660527 19.593192992350087 18.908526365687919 24.232254342676427 24.188646724686851 26.094784674627007 27.508258901817101 25.037297173205104 21.277821649697398 133.36376512235643 37.143445009835844 198.25948309234994 54.307107917200597 329.95293200843258 81.717552236241659 255.11753587246579 58.38664071474615 271.9358988073177 212.79810043742231 322.29264452305529 461.62638868633337 405.33645621050596 805.5096779804685 687.45461729603448 483.57086930265041 382.14863742130802 97.668597422950484 359.29234997170721 161.36110466024564 468.81467469226385 228.88152145270755 1074.418762497429 222.2513178571846 92.357908166901538 60.114348404504497 57.174527891966484 71.86874020487889 77.063458596971287 97.927439391084832 141.69753274665936 86.967854926936667 57.039657548291636 31.042684184256114 40.663888998083905 28.869021945950585 47.217402384053173 31.414133934616515 96.266333034464523 31.321637559611684 479.71476470633417 278.98333031162929 45.345038675223542 46.031730177944112 12.394416113683448 59.334282114691945 12.391851529236227 49.459769850013686 12.395720444633657 71.413025035890939 12.389010013854275 18.829501953478985 21.72310619820313 28.828181893755939 30.619642167465706 24.239222374901637 23.353427217213603 28.51902687372089 27.368941628715419 172.97563572997166 59.409237621930636 299.69516998826253 51.438795720139616 221.34388845286844 88.513116531818056 233.06165602606856 38.811635873575192 206.49573066187068 572.13775337052573 752.88450868448001 503.86622092367753 330.93021470354677 702.85767458595637 894.35588524110312 305.10523108971483 293.96233549721501 139.28030589278944 656.15875086238157 308.81336344619655 460.8644179551398 174.44949104518102 981.03071287136174 224.63180297550943 80.86225105386967 66.492479977603239 60.091649041841755 95.032239355668352 111.38530036015528 87.45032074001891 82.302895383192947 70.774054667479106 50.865882909670205 35.505043419198628 44.342955878925828 24.024064037539986 66.07345663567871 34.537029426732985 56.79002254732228 24.599218290831804 414.88838878675267 257.56131145781103 51.445569265863924 43.426375001094513 12.395736391607088 61.339215942611439 12.389448673743111 52.199078487996452 12.399177943151651 58.739839385958113 12.393472542471986 18.844835577140092 21.515494636046991 24.73958470030864 25.373586156100224 25.080210137333239 29.760429230548997 28.127872454009562 25.163378074690726 191.67011020909976 47.589523249523481 217.03206224680994 76.913080578980129 338.27880780388449 70.1850255047665 321.1702423133608 74.862654758505826 291.3751345438809 468.4183058443312 435.9122690319154 289.58598095756645 623.22067629131584 677.51736068312698 623.42890430162947 516.59095029982439 346.07911790542107 128.2086379767234 495.77967965452444 152.58982391039663 482.04626961589418 318.14557369232637 676.37978134352898 242.21276858925728 93.870882848513546 68.99140504291006 56.056717883226668 68.039721499089595 98.599640391698642 118.06215444390705 97.360787255395991 92.133707614154687 58.498348961633347 33.936954794753078 48.240275120318131 27.590226553102752 63.055636069509973 35.799153025276958 63.192375308066325 34.518579653579245 496.83346948945979 294.06312591651141 391.77926883469007 409.78765323073935 410.23142301796605 386.64158214164519 441.67849799202133 397.6119477213735 478.29046541899703 398.10943296802219 514.82473841059436 386.67727244581221 535.36418979545022 411.04975627087435 413.60667844153807 570.91985958917166 460.05289101186435 559.54146836978146 502.88214321681164 572.47238156313563 458.04051190245059 600.17634817995747;81.884782803153399 52.037070457231181 16.395641919727488 74.054440553232354 16.421005096479981 60.813800817186262 16.388068329758219 67.147981823306168 16.41501717986209 30.461909910220278 26.744247347130738 35.128606775609043 40.614397011167632 36.807925731309851 31.749219237666697 30.498654372595098 32.315140374875078 138.37167557665811 65.572458902312334 223.93389982766303 84.557226474077709 252.23498647763722 71.994771649177963 188.1076214518865 78.058870365289891 336.6514568354238 272.39725004423195 470.4092148288405 299.02119306182186 328.83759816137416 406.88936147707744 367.32215823682208 362.28029299899737 228.43342010157343 105.05496490979169 298.8111826279835 179.53696565916218 268.47749350203475 194.14222014038364 340.40175676896757 156.12322184658515 60.498250470516439 55.634672370161496 46.791058982399164 58.475103252483379 74.265936953620937 80.038267664714652 76.721528370033241 60.39196137144296 27.861515684221295 43.793356282755397 29.169702807732396 35.075382915255659 33.603275235164382 49.561082925538095 33.357119549479513 40.340726831939314 227.61405250949858 287.90275544429409 87.221435984538076 53.207874874841728 16.39468297186724 85.061767806593394 16.40439082933354 57.3674413311862 16.408743925761517 85.609982446388827 16.391940549579765 26.609384424324677 26.17247859929989 36.163339030532406 36.354694272840298 37.182790586345412 39.320252102111048 37.945070240520188 30.283559905620528 148.72745050625826 51.976638395314566 220.67954029629294 82.734260126173865 254.24173571789015 99.292725432851867 249.04568891245532 87.950601031419964 259.24827614406149 218.56962778980881 293.39699092403583 358.90040796342112 293.57548170908046 461.64972300449693 509.943558769503 406.71604403064362 279.55509626641333 107.05487663234415 246.66310900765183 173.93935565341167 298.16242677908559 164.3059396772334 528.65149207262925 177.04405101184582 82.127196759497025 61.108769307072919 52.596230426797035 67.009541439200547 80.169619004896461 88.944448640297196 88.458329653714557 69.418349207411637 38.139323828601356 49.153406888722337 31.0495846450922 39.937550544957737 34.951284072998064 50.847998907299775 52.304625885970495 42.838097228348985 344.02509323911306 365.20441364727481 95.698028075170214 54.010092943013262 16.387200640390819 96.667477988526912 16.401832917115971 58.95413727109495 16.382711067365033 112.1793353457291 16.383559584032987 25.545266452053905 29.600378542406936 42.377360804766795 45.267271000824998 34.57025020248998 30.543819441435616 41.528507983903594 40.164217635806565 184.5638767997867 78.262918526391474 239.03324581454856 68.007917694756415 234.14042866388309 120.85492824050155 253.29765293183354 54.62653040683162 192.59306047949261 421.84323486181103 481.77510116771992 281.31726229197773 248.94560347512373 535.36227651690172 587.46874858873127 223.53784861575363 211.25647265332626 143.51800454058287 423.58594776090655 198.12566984584572 265.24940705247622 164.99923500819585 579.80013462475517 184.37187968649184 90.856347840035156 77.370240805133363 59.673299494193628 73.895427736768426 91.106161575100089 93.053723431501254 73.426930949781308 66.878649600981547 36.589050636816204 59.698796667010512 33.584035105037508 31.941366013266592 41.408220088080313 57.034495740751268 38.845128238623118 33.148819786745548 351.5513074722262 383.07665642070265 108.59650329234007 55.990038992559604 16.383449954102325 91.248099814681382 16.378759920405759 61.342767225933471 16.385155737693292 95.195822810203154 16.386771301428656 26.547823158881148 28.679121463025705 33.815143198369931 35.959524059950034 35.023902739442846 38.433331451602655 40.947077891958898 36.92770170454758 194.74430552375992 57.63608460393246 187.27377949293844 85.936943458712975 270.20419132782786 75.878736973507486 289.25837327491701 109.25584475913743 328.63940311347335 295.27003654730726 294.23330098072483 293.51940596239177 392.0264019135256 447.16822898085013 422.74399646962871 443.02881490491308 303.59311943908557 135.84346046065133 254.92342713138925 132.82777003531308 271.70432146342165 190.37487575762324 378.44717422750728 203.27108804322506 94.054271802071725 80.538963779454733 55.901195634661597 57.421353440315279 75.295408949706683 87.741449163554776 70.906404618760135 75.993108574171245 36.314906886557189 53.729338624832671 32.52848183045721 39.048899648293201 36.973220182577684 54.381820852368016 37.428607388994564 44.876088211640635 304.0812289330355 380.57736152138301 497.09406731624375 449.71673707145828 520.66614076059534 428.73682399418169 547.80767351535678 439.41801304589973 568.66986105574313 439.8653957072317 588.27739470304209 428.77478664727943 599.46733003972702 450.7162816444133 528.83608394190242 590.38796943333864 558.81004995902117 584.36576745427885 582.29801508503556 590.98986790421225 557.71308851427636 602.25908743011178;96.842563324558284 52.613964056106624 18.400933710510742 83.100561407487589 18.432141403731901 63.385100409543767 18.391337099711681 76.791124709119387 18.427279935028579 34.0147693037311 29.820949193407451 39.902890323934876 46.342541290020705 41.448428649933618 34.915172568719086 34.282130467381762 36.929251950772837 142.09164362488812 70.891598927507005 203.53102959223438 93.019161561599518 238.92594464857416 80.788418170253067 178.6560312596784 85.654102463909553 327.0551411484285 255.06085162499767 326.65861143365407 254.56943941631368 292.91196052826695 353.79575297573172 362.03774574428411 306.79238929671044 166.88642578579896 102.67287843103426 190.83928340192887 149.55175756744524 201.37484951642597 163.48384365100469 296.5875150357848 132.52347423828897 55.254238761881219 52.675779377200151 42.163868357885796 49.17260232257378 68.137829424232365 78.066646662743352 73.918356175445709 52.60612549491735 24.713734750252584 50.27933423387023 24.359009561169895 37.373740104183391 25.937001424188043 57.2819254027809 28.474327255321597 43.040637304634487 177.8332417851534 309.78746795410109 104.34193072015675 54.930898286836168 18.400712783573873 95.263852175994529 18.41218227334015 58.219859216127631 18.415446022810087 93.832878357512968 18.396024714984183 29.749627574493125 29.435159668234981 41.421009182569435 41.705335969737021 41.987557572154699 44.40101231657664 43.854105108334082 34.379259014621198 161.26559902871219 58.223631780300224 231.39660803341243 92.662480038563046 237.83572023973312 106.21210777380051 246.03083468137962 98.02398521337372 279.97016209760562 239.75054587445419 294.13780797246068 354.85613225905502 286.72457879752534 383.9535702165532 449.63677201420336 392.39210033761458 233.39574221652109 112.38374500340218 212.68947451428332 176.41870020518246 250.17816874987076 152.65218576665399 369.62034939517309 161.48545265883968 76.333296444500775 59.809408839522774 48.900101482468074 62.980336431024597 79.142137421707702 84.392104667060664 68.118451481829766 60.594894991748149 28.860011843759857 57.211516847311529 25.980862926005582 43.319447480238935 28.633683973249642 59.430294708454056 33.29050902081746 46.273584737681674 275.5047290137951 392.97256083743213 116.25840998902689 55.505748448674794 18.389267600534964 109.65077004354055 18.410769947471081 60.914762997414769 18.383072609744232 126.43756544766565 18.386692075343227 28.646382226221576 33.157442344463249 48.516399504341656 51.90500146703053 39.201990107355655 33.843081593002445 47.508487384291705 46.055713800617568 189.28997840497692 85.255278822521674 215.49575553984016 73.042321674978183 238.60324899788196 135.02765507517282 260.64640540847324 60.967109564314086 189.89372659090776 377.64857752509653 403.69854001098781 229.92332786730216 228.17160199202567 493.00387816438945 486.34656963757493 195.10005885555907 169.86207065038164 145.33949541314067 330.81908490067815 165.59105014374126 186.82592021634753 164.1421817142222 434.72191613299196 173.85263856644264 92.725460247764531 79.569834076666126 57.366444957364564 63.66509316629859 80.684154397938698 92.093705272774898 68.265066228758641 63.512728246305755 29.269278112034925 70.524725616327828 27.826900224531585 35.143996101794414 29.712399372486551 66.463223500651992 30.013356247746579 36.550223739617053 301.31152731302575 417.80910588748418 140.17843238350591 58.806027292399918 18.385469818646975 109.81990654122791 18.380235578905825 63.078029537240781 18.38725611772691 116.17801342404458 18.389748946062024 30.08944207002676 32.156454483495096 38.449583192223926 41.196163314492622 39.540871574738134 42.553396847293179 47.376916793967382 42.654375419089433 219.86324231209107 63.304010629444122 196.67474040736869 90.030737232728285 265.27741013519545 80.57246206533091 305.14351298435474 123.93865753885106 344.90027366894299 300.33330135213464 308.62445409747852 286.17870016599932 329.0208908653189 426.259286431948 409.53723125490444 438.31591051197597 283.44270154376102 147.28212814858023 238.75142372601519 137.86613753576302 207.11237515828378 164.43075334492011 330.04124499234445 205.36390466694263 95.591876475775209 85.704705199210139 54.34971756682441 52.473449384012568 67.30787712979658 79.716643249945946 60.774769552982448 69.381919230956086 25.344182300091813 64.937837165807053 24.280488553865467 43.427080702782938 24.515532689070433 65.3474935490961 25.134176377073359 48.312949518557389 251.47777226483623 432.52762272766824 513.40311658009944 455.92394214506419 536.72348388710805 436.89825657430083 561.96932558027538 447.07227448257868 577.6601690340226 447.47774667136548 591.94315544481901 436.93606843218663 600.74251295896897 456.7230086867317 546.6945214019463 583.56410712066804 570.35540224113913 578.05272300340471 587.66271996291175 583.94975071486454 569.50648380302607 592.19777057299837;85.110254901227023 48.246929602096905 16.090044166518865 73.089046512373102 16.115212359682367 57.361769099857206 16.081465988061204 65.976429229210567 16.110450154222683 29.232246502313814 25.74188021613179 33.964784132555266 39.254801229846741 35.113302168556309 29.995209779242607 29.423387003852831 31.381683104814908 117.62616093944656 61.006067054667547 184.93682976372273 82.624628954353625 218.89255704747097 68.888310956503858 164.73939566052229 74.130634808652744 248.52987827520872 208.35288599608137 343.50245406825678 242.14333394773158 279.60132812023926 321.51795594602146 321.21785537373773 286.57286184003044 145.6937625282371 88.186672651365626 161.6671920269082 141.07814989539096 202.69887430310143 148.40011568843553 269.33751142491235 121.39262491692199 50.800902271570834 48.438974219949884 39.307981524980875 46.288743039321062 63.301096580074073 71.92254191665856 67.465950310486207 48.471056432028185 22.838633416483511 42.911966751167938 22.985278317265472 32.898401954245479 24.743079900074676 48.855038802085559 26.474475506915621 37.815239824170064 175.19708761015707 309.56330029770606 89.097604235044685 49.973103796222802 16.088416362416623 81.503789687054649 16.099393541280506 52.709520880146343 16.10105618417202 80.975668468181269 16.083846069598536 25.602809862508966 25.339051365793814 35.037873345348899 35.316187279893988 35.614464512098664 37.647562482906672 36.811547771303687 29.298878894053413 140.32050546036552 49.156453716983783 189.53400662090894 79.815423300907327 216.18782965993316 90.480298828528319 199.62739820559591 84.08104608067967 243.40562121272603 203.14639154990917 246.81561760723 280.88056473275901 270.40470143009401 408.64008684389478 393.30834476353664 308.04053376708544 186.50206173174709 101.76736132835114 180.33707511808234 149.23333278909922 218.58352890375923 150.26545751970983 321.34464019925821 134.31004759671183 68.758857874045077 54.015536240017333 44.553248092987701 57.408135066425174 71.61269685691056 77.370785379930993 65.377672638381455 55.743177339673188 27.538803195668628 47.970624527545134 24.335773380663944 38.097974078228987 26.865690610710118 49.825914038276103 33.03626319504454 40.738673771329587 220.71356605921434 341.14170335927861 97.794041293514766 49.840731607111906 16.076791003615313 94.922488649047068 16.093943062670164 54.888345611706441 16.071727854239136 109.04626551827272 16.074237394289366 24.651504045755775 28.442779843573923 40.721438237188956 43.591585075718115 33.24675960001337 28.991125470831221 39.96497829942976 38.766868036429976 170.62738493619315 73.511485039127905 199.55169217211019 63.99841470650334 220.00853194154595 114.85122953296428 233.84169190900136 52.011517171071262 167.40714050239916 323.39991006031062 378.53150504994636 220.13773602613117 212.78405950381745 477.68236356520265 471.56255149711177 184.19610904363785 161.58300644953511 131.20817664500365 292.47588350069299 158.81016015076887 188.3314262509212 154.2064580686845 403.70513563462953 159.06956143216976 83.079685305977762 71.36295518321819 53.023178579612491 59.663467427266184 74.808448307974601 84.673737287633614 63.116419815028607 58.401332832585439 27.784506682627722 58.646057665494546 26.224150112313048 30.364865051965857 28.761902911361091 55.918073101729817 28.695267073917702 31.606696640466595 269.94255561936831 366.94904613364804 111.61307882449901 55.027952536829822 16.073694373318727 92.899893255771161 16.070442158130398 59.151738007217006 16.075413369647094 96.864927291558431 16.077064277986075 25.884215922767574 27.617015716896979 32.671673988218373 34.793082872159282 33.678345830356825 36.450832240989776 39.593215007152608 35.92882261015653 188.85662200618995 54.920443697407521 168.64937854691624 81.749255760995297 238.10417271666802 70.428792569265525 286.76717122960798 110.68186180334612 319.93985230399483 238.15128887613804 232.34024136653133 269.37951496531758 343.72186687719181 342.90028870482485 353.4433311644745 426.70520951590936 291.63092990159043 139.09872979394791 196.48835097151044 118.82558595365178 225.29570360482873 150.04751908470195 277.22247244875234 202.64890381177065 86.90647958122095 78.356573930109988 52.286773027568465 49.561752229745977 62.722003464943768 74.389115361975669 58.408856317513603 65.928873501228168 25.217318576747687 53.221287100488581 24.129136062167451 37.86948928886838 24.464823049668937 53.919678406560308 25.062277930027477 42.793625520007424 264.36657225196399 399.3714001391898 527.53531298006305 445.38488799289439 549.93618220718918 423.88917721026024 573.13046955225491 435.42388710423205 586.76536396082122 435.88464599405017 598.80406952131091 423.93171436277669 606.05506536575888 446.26444162147345 558.82294390307459 580.51309602918775 580.58225963622408 574.13686804550332 595.30301729731275 580.90678599000216 579.86923173063485 590.62356589248884;85.459277534335698 50.661011523387408 15.886280714285071 73.25081379416558 15.913184963206346 60.796336556619956 15.878209115057391 67.002267713642567 15.90891334865861 29.910434318311218 26.076384308286947 34.369392612372124 39.706626625496931 35.82625100017799 30.485993793871472 29.632607472126779 31.839261554983963 121.54263947702047 62.469329169921672 180.03968305920014 86.160048814396518 217.94879986535483 69.993829900778891 158.86284378735479 79.991269910807617 319.67935219500225 204.8677091259834 300.32198559278476 268.62968071361354 292.05214888886064 301.27143223399457 301.79853952643424 324.72814906937043 176.40531118630187 88.82314496567399 156.53444180118282 140.05486840735605 220.71930529324686 151.11164505889553 249.35659215369282 120.16976023177752 51.062872201032995 48.376012888481185 39.413485048975325 45.93499382018063 62.635985723958726 72.576918322616663 69.502879996276562 49.23602567796484 22.329645996899803 43.427319731133025 22.233368020202402 34.232851395984319 23.757257725099358 49.400108060130172 25.95861019861168 39.537830812765989 170.80850215118986 289.02911623154642 91.6011101602097 54.335259012748949 15.885934437583701 82.889816331775037 15.897191401654318 57.834629558332736 15.896798705790671 82.02430627821829 15.882096049754903 26.05815731315003 25.676371996019661 35.64742058801454 35.929757544749577 36.702682397005454 38.793592378931933 37.422299764592502 29.630184175275783 141.76895508058476 50.529972504664578 209.28383114591608 85.614580270636054 217.67340567429059 94.660088142965364 221.52877765342009 90.042737078751486 267.6059905491025 197.80039845522637 244.92386621351511 352.00570753526057 282.2748808389394 366.76493151850661 389.97639797565455 385.59344273268709 228.07435020652053 102.03021912546873 182.85999485542365 164.0115852612947 263.74447772980795 142.3261947898263 329.75052641123017 143.3141252812772 69.635310459166817 53.988794297329271 45.660857361355362 59.154685195120585 72.357131411677045 77.012460278300722 65.646875647877536 57.727298394394076 26.59367486594379 48.530318390027439 23.629852896969123 40.394747162108033 26.177133894819693 50.488585583176089 31.317536513602924 43.264054688423812 251.56792936154747 368.13499966691506 98.323848631235023 52.316657751268984 15.871443743800318 96.528657760135218 15.89064957889499 57.484657573709107 15.863263180458626 111.48700851630659 15.868507772599882 24.936007390477211 28.863091737198374 41.35218168778546 44.22825596582426 33.99274008376527 29.48863340986999 40.369577502277586 39.137701675059752 166.94565444577972 74.488868963802304 202.82341467235051 66.901649724430953 216.43874409457993 116.16189305802425 236.66707093975762 53.452874083643749 178.01431664453182 340.86466101268712 371.77661535402603 231.17038122997371 213.79623562044975 455.48683027085946 459.51268443104419 192.65175534075482 173.77157905346701 131.33214758216255 308.34887746920049 155.61962219227925 208.02661719459118 149.92143593201499 417.37715513295791 162.29769010412872 84.590794344499002 72.592049651777501 54.126040043268674 60.632554150927042 75.383443458417702 85.447044756695504 64.430587564509821 59.690130114829103 26.98594462360791 59.109694390458365 25.559388718137395 31.303482367295231 27.612423966198133 56.721512943218535 27.742111649933111 32.620173304512029 294.63256214909586 386.6532288757482 108.15891358717091 54.923088654774872 15.866634038247254 85.22811177343533 15.863001976749615 59.533134817175444 15.865723131221063 91.354853475782704 15.871574814325861 26.051554034104573 27.677653765699223 32.431438484823595 34.800857113773844 34.259724620328242 36.694228602146836 39.702250350201993 35.942024194668754 163.03534971666855 52.768845254305084 159.50724789487256 79.984438851352735 220.03559850070511 67.633492013873692 248.34607940822991 108.03890735114096 300.92964494242506 197.82863268641972 211.60511834813138 285.67265302732045 314.70291605069917 312.21864284126337 300.78416493259897 403.73879850879632 273.29715675593991 117.30563166649064 170.30784881562411 111.5156398869977 223.55336542113946 136.21365751004174 247.25293086213941 173.25316326633506 82.644927826528985 73.511852688073219 49.445688073398614 47.778708485326433 58.614894184130158 68.318433463332212 56.145341217392023 63.666828026304643 23.646109288628736 51.620041177082655 22.627948504321377 38.733184241974485 22.84028873404537 51.655780290096914 23.447980271044287 43.847894688381629 241.46303939702048 378.04204200372845 504.17485842241268 445.72263396689004 528.23544126363868 423.30675131590834 552.84349982804883 435.22513730922651 566.96173048175888 435.70196069869877 579.50218138406353 423.35096317874013 586.37421915150537 446.6838645895844 538.10897935086166 566.76389859535152 560.68562428169128 562.39904202522257 576.07003844654662 566.98225260817264 560.07005225341584 573.35873229373453;92.215155858106897 52.342231717772329 15.216540496788937 75.237147074198859 15.241871004721412 62.949645812454591 15.208176135722129 69.615695344470325 15.238038099369653 29.847746434202385 25.799989942011024 34.259388364104026 39.598131431473547 35.768959431330529 30.382837783480561 29.519689868847003 31.708012369849115 137.15397323028827 64.748702569255173 178.89988159876137 88.545644130159744 214.36432221936968 69.793600405148695 170.3947422302659 81.900497437825578 322.24672835897957 209.06192741694645 286.44364714039295 266.20784662670189 296.07661348620957 268.70668879710536 286.86565311279429 325.04033953743999 190.8687645827323 99.276987527519807 168.58278356972551 134.40512663761936 211.2982579264052 144.14466164408503 229.05897499081482 125.67710706951139 52.31031578572383 49.896933419449766 40.749961449710945 47.115859231274101 63.422607829244079 72.588475811149337 70.594223183206168 50.342057920587848 21.993323292529411 44.465243919891691 22.08636650379276 34.56932596112982 23.513474520880372 50.328001784884002 25.643547215773708 40.143114336057458 181.09664555504685 303.27286215908498 96.748397615419861 55.745746781995862 15.214937934518904 83.756784956929451 15.226519049009248 59.869040642784626 15.225953101315694 83.324494136712886 15.21103487371987 25.691903140324662 25.290582609847537 35.491530640365497 35.816756911049062 36.676830062086438 38.956558586567738 37.372486638070072 29.343025853755961 144.10253348827243 50.567195438397242 195.21123323136175 87.158168760935837 210.5904897961467 94.633957377302337 225.40368557825639 90.633830786486342 269.25236974096714 191.76239239299605 219.10335576585319 344.15272603084134 277.10849284929697 339.09086718875488 369.76453874824563 381.19941327220528 229.55227528396463 104.3259892222778 168.87993223608058 153.57754104298988 251.87438799968706 139.69006337625871 308.67741975045124 149.17540139191388 70.299266331444599 54.803115270558983 46.367653422166967 59.393521040023494 72.084323905922616 76.903027898228842 66.774073258537413 59.35922645102508 26.361345713901009 49.128169440869918 23.332143662019352 40.953359473057702 25.823030770955704 51.169602992212987 30.84185303892934 44.105852533903885 242.8139075843211 373.82193421612885 100.66637318205618 53.62910155741497 15.200810686965013 95.32293286216202 15.219417482489259 58.478331374781106 15.192453158035882 108.07154365150279 15.197648568719458 24.502622367609014 28.638524228316221 41.263836814975683 44.137572554991188 33.870285930694365 29.208520345492978 40.178756133126015 38.9911137630314 172.999578745403 75.343723753541497 203.97059206058535 68.67160466361392 219.71390467270615 112.41871061867437 227.41529189443224 53.874941286322084 190.91101329514817 323.99025235537681 352.71158863668273 245.45288803192813 227.75237477985843 426.51706503618027 431.43376875166109 197.93686007093552 169.56937836768276 132.71860214611752 285.13718803109452 152.95019724651354 215.22114247518738 151.26398826216933 381.76306767474682 155.17046977075682 83.352837068626783 72.712896614989745 55.013739852400803 61.367712876656192 75.192956494483042 84.418608731913977 64.950848570235181 60.080942001243287 26.878416383683003 58.97832626773917 25.436562531956117 31.317388771112242 27.438012474588525 57.089307282732918 27.666207745485309 32.598763177256146 276.73870603464599 386.39742807025948 106.9462571066877 56.053062371618253 15.197263897143312 86.352111822793958 15.193559097060279 60.502306382943758 15.195426909179183 91.187076769349986 15.201057055173052 25.642853276870163 27.38891681477083 32.329877494896238 34.658997397903192 34.083569741322968 36.53970957014284 39.556427538385229 35.762246873795405 166.24098750020954 53.353898374166889 165.32753868610104 78.833994069729528 215.65843458759787 66.988789450697425 236.47261582879224 107.21054373435096 283.9967178002637 193.89104209816645 208.2093174300457 258.29361190535695 285.00319699618859 283.87123329512167 276.45613336026503 375.57916589223487 254.53164826028552 115.94377728759326 173.05148720395474 114.11968147302608 211.18577642398012 133.66567099683888 228.94155970119118 163.58314021785151 82.213791543542158 74.74821569739737 50.901142698001557 48.825739206374827 60.365346468836051 69.270699544612555 56.839334574886621 64.3893573216032 24.006298255573331 51.957097760009368 23.119124401293512 38.959160192148552 23.115790873295801 52.310137711311839 23.733277790302001 44.174333467095678 254.96825650239015 368.38022108369739 497.17248639044095 446.80186618656649 522.39281234988403 424.48869699454713 548.44600742705836 436.29764348209233 563.49475954440413 436.77293090716165 576.48607376376413 424.53222016874588 583.39179027031093 447.76701630052742 532.38061223255295 562.1919203086818 556.83604145025163 557.84138944402048 572.98974754345465 562.42598242391296 556.15550783578828 569.06584776533373;69.309230636462758 48.732093470375503 15.999617491184772 61.419399810233493 16.025760216491946 58.324533691182324 15.993046944307334 56.643106798562613 16.022711533812519 28.620798771797695 25.135121703155914 31.891382036330736 36.415668908914085 33.786327276394587 29.151016897609946 27.649190680614911 29.813254022270499 109.10291262721316 58.350231406538086 155.32658385241797 79.073599379100429 205.14711319095633 64.051699499968322 136.06069944617406 75.30945311162796 339.25721859765588 183.66277426055956 308.15742578682091 271.84652441455273 306.48835370822411 276.29266971056956 267.61385502234981 345.69166879416366 182.0032457967817 81.715930850794592 140.69116573407157 128.22134843342442 230.16462276951847 148.90115258381962 210.20487476402553 107.88677573375071 47.035325942037325 44.217204194176489 37.613144640092003 43.5777924079743 56.361875653971538 66.031732591468625 65.785182187423857 47.098292884622921 21.840007502686884 37.715422241385298 21.666864145096049 33.052151670184209 23.192788547114315 42.607919384709604 25.221613515933537 37.970740873107957 134.18751748242931 228.7511119024453 75.110012862658408 53.589143134486065 16.00135075926352 69.646913854439177 16.010554535676263 57.611515804432244 16.009792624081779 69.706794571237992 15.999171211929141 25.22120994525773 24.738493324262095 32.987177331334216 33.212698552427717 34.721967921252329 36.540857262237907 34.506819197762482 27.889901845532307 123.01200049811003 46.967726381850682 189.94366609705949 79.049808909307757 197.36617644578681 89.888739257841266 212.23181835996905 83.963163332542806 268.91521810333188 187.17992431449485 227.33517196422594 354.42635799982105 272.32189303803597 392.73092603888949 380.86810106922752 408.8749697348581 226.11055546586286 93.764800752135528 167.10981895069565 154.38773711013386 253.36969276463574 133.13405359282837 335.09725828113091 136.02804330350958 64.102302143070062 49.046750557857358 43.865478559085403 56.340807965759723 64.27623468233709 68.775268798460118 64.175188953188169 56.149292967868234 25.928182187738575 41.924986490980544 23.03536493416027 38.939426589269388 25.441598716682616 43.273914262519284 30.598544197328856 41.783481711910014 191.04683967065858 299.65467919985088 82.421825801948657 50.76823708610064 15.988626816851106 84.369848003948562 16.007122946514521 55.658177968640508 15.979322512661749 97.977485211205988 15.985401799394261 24.15193551240953 27.650142150699406 38.344710337912332 40.775388794520957 32.208399359135264 28.311547886077346 37.194282963957761 36.017689703994577 153.18020296963661 69.015633908591653 202.91846246764302 63.583497594605419 207.52366486983752 106.39177972855879 227.43350849524205 49.50257314255947 179.93678885516269 352.81128154420287 384.23305233497285 251.35967562520301 231.65929460641235 461.19507797591882 484.94601235407674 202.19031762231171 168.72871799050807 121.79931682937637 295.36427109216913 159.42035173320551 233.2617194833941 142.60035712468394 425.05693251849209 160.10581327000716 77.500566560138751 65.921658850503135 51.314120628444172 58.352964966590342 71.062513949981309 78.843997385319071 61.426136496298781 56.778384481534935 26.167614313356246 50.811373923889278 24.755830415738817 30.132953133206996 26.927845787538619 49.417474204048176 26.904469181314379 31.290913407563863 247.2580676375498 345.28789360991499 83.258066037398279 50.634687057962466 15.98285336035112 66.556331185699065 15.97796002734693 55.403191423770444 15.979728123823977 71.557251196146709 15.988357903022585 24.938321813924524 26.367425616697279 29.9384573474922 32.062461893948758 32.278775011035016 34.442257199047738 36.263722474967423 32.950003673824959 124.8487283980201 47.213418872792673 130.24291851906307 72.526320908693918 189.35021396051127 60.831609842763733 204.41934197181564 96.582921109505136 257.60909622063451 143.43023376863508 160.50117931893953 265.99718837935586 301.34825099478206 235.97683644789362 235.192123823271 375.83693541977777 240.95528068156938 92.593644355591593 138.67308071541507 90.946967207358824 216.05955968727 118.40029728931668 191.21455458132979 151.56520266310804 70.68707474529711 61.44905955731204 44.37593354135425 44.178504944216336 50.867625712975922 59.272319841343318 52.339527918577971 58.077158420933337 22.913484221688954 43.423191546527008 21.827497002224206 36.301984769594611 22.32965396859062 43.05007896323194 22.842127593516008 41.202621521637482 179.79672891863467 281.28470058714913 521.53067293430399 436.05667785423122 550.69780381275314 409.52721808709134 579.65648653139056 423.37533327577796 596.67573866105522 423.93930395721912 611.06185670099865 409.57785776432792 618.47728050397404 437.2523386883575 561.51206169004365 589.13682416021652 589.08617088230676 584.30885669987003 607.23356361809488 589.28256591360594 588.25355700234093 595.80402751823567;76.96223103691915 51.129856080378119 15.602782039738056 62.059017774389595 15.63567364677502 61.381581821016063 15.595976946992497 56.782328721323893 15.631150334700315 28.257197111821924 24.823798240700405 31.031494452670287 34.945995258829527 33.208618597624721 28.887572357409788 26.796559232894587 28.969350682322663 133.8426143788821 62.79277958100306 185.06959659223793 80.667842105525239 232.66591840752352 63.759155148065446 195.79978884248163 69.518368653470006 256.1356727365478 210.11001776684239 337.66951099657996 263.72679829128498 342.92818828833083 320.12735354908443 323.50635108838514 341.41057112361824 192.53115793551513 97.772317676352841 188.98162614266383 129.51388272619104 197.2946508790626 140.62796552634563 286.53608724434577 129.26692461101746 46.448706462880722 45.186030727718233 40.692984087346225 46.327729668526771 57.175071212832009 66.459137418987197 68.618797036786887 48.589738546397541 22.381963619148635 35.804220037758967 22.755387705748575 33.051702372354086 24.324625793984112 41.318693951739121 25.734430277872239 38.310809958549527 228.29770897760648 319.73910577660911 72.044187417407116 52.244330966765247 15.606256372797677 60.617284903305816 15.613090441326859 56.433895427573916 15.608312754446509 62.058321674939307 15.604517171227339 24.503399103067679 24.020712046122306 31.573146835803911 31.595310378655988 33.568752103639078 35.527097719542567 33.033791985814204 26.779238843394904 127.40628424123523 45.210275723738818 134.82367208580405 72.637979044235919 173.13812976895733 81.950175730510225 169.39600213573027 73.711231435260657 240.44188344332895 168.07868268402765 187.32661684889325 239.49811249444861 248.71723390374115 333.78902159111612 373.95916863468858 282.11301421994165 176.08368924170833 93.865063077910833 142.04026164963017 113.6946702061187 177.91676447663019 124.03288840717498 267.28246888118724 121.43895022268501 59.748944799922818 47.777472256267586 43.683415147034083 54.423417358514918 60.102870518035914 62.804387499612083 60.812623442471171 55.355424215929773 26.692884128476358 38.404802702208386 23.714619156687185 37.85761013496947 25.896601368453041 39.708303931611873 30.940450637046464 41.373144906316412 166.3176090155039 278.48211378913896 79.445507113453289 51.182007244673954 15.593078647717057 73.275959634910279 15.616419352493262 55.300942674189216 15.576068276140298 74.782372198506053 15.590486891724868 23.523918945411708 27.152897266767798 37.310275323519249 39.36386396685667 31.354087853210455 27.46041086612491 35.640312864958581 34.719754098328039 166.17928452545257 70.26983235661109 202.87753460657268 65.027855409577825 222.48879760327213 96.736416761305193 187.90898239730768 48.322941687110102 168.57593525644984 310.73700985872449 340.94376396794405 265.95336960786557 266.2054692791736 444.4767919290129 428.50397106015373 182.3067191927563 135.89098453662345 121.78005569880779 247.25320813583966 151.86802902696112 239.46165891107722 161.27579707558516 339.2449346346466 129.33419540169442 70.75821263736816 63.691616640430972 52.438485448641785 57.856820973809803 68.661901788484727 75.102149379216399 61.032579093276595 55.970590060906247 26.96352344371266 45.594896817893229 25.478701832777308 29.468314405374681 27.937851960673179 46.057541505896879 27.880483887024653 30.393960763449531 215.4061090730934 303.38406691926667 73.671208058752242 56.494878030486987 15.586404424102795 64.617945923255363 15.579363947379779 60.959226265049551 15.580503411398285 68.258395245374032 15.593667460246495 24.609965787101586 26.011785974334643 29.218048285389152 30.97223867542035 31.933251830588823 33.954539880351348 34.985239859493277 32.137542626938604 157.18747510818972 50.096183671934284 145.88114348459135 74.60476437496186 176.73195387563771 62.019752943029673 254.01697913705692 103.78380690456662 296.86851404947157 178.09042464785782 183.79681634642608 246.88599609796083 306.44728834507487 234.21691792481982 298.78202944183715 418.90587531960296 304.53695285191895 114.0171874922961 141.62481630414797 103.59503166897323 217.36197203838015 110.24573973746593 209.99291939168086 173.25901463268113 72.275533285873934 67.25017444575434 51.850321323658008 47.638066894243792 54.067462217299322 61.712416631141359 55.722968744092611 61.82435105305175 25.287643456944117 40.780150321215721 24.292454756334784 37.008409460084835 24.651396201238722 40.75467732393524 25.058954106239106 42.494547790551678 236.40122435225845 325.67264095268791 548.66769117039314 462.24220532322528 571.32946128035871 438.87814882302291 592.79268228163176 451.0145198820727 606.31061344694683 451.51377858293409 616.9907803493544 438.92187582996246 623.40318514030139 463.29562411276163 576.99118580759 600.98664987639563 600.16842415534484 595.35145921508729 613.92290523587099 601.20323388710403 599.26815295203892 609.42583373149182;76.757714511705458 50.736336348055964 15.296476438759631 61.349322604680573 15.328873683076578 62.724966014788265 15.290473023679386 56.316768904346944 15.32396153011617 27.541235267547101 24.156405285137058 30.066737925549567 33.825263967622575 32.575140586015614 28.294630933975291 25.919241101080587 28.109296816417952 139.21768108703591 63.191607957327669 206.24491350768412 82.306342114416751 254.02927827910625 64.272947552759177 229.87642229392063 70.472809933151254 267.20587385140902 221.92730177199115 373.50562001822652 316.09116927721055 372.69433695180339 340.55488066446679 356.59056427733378 400.5699228259993 204.4079917185052 103.11980018539576 205.65553605845534 139.69859782691995 207.98324825763521 149.64117296557538 314.86507427976994 148.52489744332306 46.168169291249349 44.022251240056356 39.794884628284052 45.927357066290973 56.769912835897252 66.511529391538204 71.262836265880054 49.152818404403952 21.509734003961825 34.511007108551418 21.757004593335765 32.297394959041199 23.277424918839991 40.13230286512497 24.720596827645071 37.788884698930147 238.40828760339519 343.51810203180003 68.775070056210282 51.951116179348482 15.29973190297433 60.182520687094282 15.306313482328559 57.452543492196206 15.30153494555165 61.854195643802463 15.299326666110142 23.864822815163453 23.322634146578178 30.543841990212396 30.558947746838427 32.808658516286719 34.765826603122598 32.020786708287467 25.941999883255832 135.3034560570174 44.428647233645179 137.15090816453844 73.587536610991549 182.33264903131575 83.501838405853292 173.92531306038526 73.511003152898354 256.63695330299328 178.98771823460555 189.79232071136082 269.28826964056282 286.70298601331837 339.65542703899615 384.23285303387905 301.78041282153464 165.145371001223 96.811402340570794 148.38538754634001 114.76105359398522 195.92845891161315 126.9601392729644 280.97334371410238 127.64187889222767 59.53339607462857 46.506984971800392 42.977850994710536 54.083581861574714 59.026927787255609 62.056038288954447 62.292151472894034 56.451795551129322 25.607567201495321 36.86615208331429 22.693263298641437 37.085886735488764 24.790382199481769 38.152779677089519 29.748940639532751 40.933975186508924 163.26381678846133 295.79279031770159 74.111657836292991 50.73538665686943 15.287846136665827 69.917566051137754 15.311022844655806 54.458793790059531 15.270793848398567 70.695410226824478 15.285378196417421 22.878302051420079 26.388714867569146 36.213708016389639 38.157149271309159 30.513608781027397 26.766809696506524 34.455467224898882 33.541390983796902 162.69039209567569 69.50453098542252 200.67151498846292 65.330988608588086 213.79607774817859 94.203584156793497 178.05465800923429 47.417482012869144 165.56678925812506 318.70167924840837 329.91619258255741 282.17431236832067 261.62681159176498 435.18534860854362 426.68797443929776 179.70933348901505 123.23461236414211 121.03891680085113 233.07186782815208 150.96343310419874 236.66287593431372 158.5381998779296 328.35286783478733 126.39346007997277 68.83527791006783 62.122306876820872 51.090647842579834 57.612582015256798 67.73833619092062 72.488332918157766 60.135466365835406 54.71910708210045 25.750162507715281 43.448940080317776 24.335640957931627 28.696103606681159 26.793721461162892 44.137934261616351 26.649750786313493 29.528469586335802 187.69933678871058 285.72965677909059 67.007664359399527 54.212020325864202 15.281922865070522 60.485260387393794 15.274041842591878 59.756017315923408 15.27442652120952 64.910448458685892 15.288813982250925 23.820393710106764 25.200165844360264 28.151957219351548 29.877638491558667 31.068505274646572 32.978985344458572 33.845068827189294 30.921639227254715 147.28196693772102 47.748770409586783 138.82487201506072 70.209068389940441 162.41444516946484 59.748365045834042 250.96977634284639 99.037276006054171 255.16585984226148 157.05759861092361 163.57274094597309 213.3298225796139 275.53495996211865 200.65708566320436 283.93071161438655 403.05393411472096 292.2911536663226 102.40690630080918 137.81267734622972 97.97774865619202 192.8831470912348 102.92725698456536 201.89877298842882 164.56839025716442 70.142063231086581 64.686345388511342 49.300647460803788 45.802480691633214 52.185407744219376 59.346092334463528 54.696276263887249 60.839629069761408 24.290333410971087 38.728249128805444 23.218293445417952 35.883105646198977 23.72356716876229 38.639352153736908 24.100866994118277 41.52796462825156 227.96465513535088 318.29638053665906 543.7931585860606 459.33763102038165 565.4864471644587 431.89546693302327 585.99532951567062 445.99222763989025 599.03010024008199 446.57630914231811 609.36370141783834 431.946121023187 615.48544870567412 460.62241510172913 570.16282989738636 592.75099034950119 593.19877215046699 587.879049835925 606.50493709125305 592.87692694274278 592.35250653333537 600.07873731043924;38.890460127256461 51.463587598231285 12.185573970119796 51.363166937923161 12.194008037343048 54.609221093076371 12.183791830438054 43.271820584249227 12.182776921177238 22.697601884461271 20.291639547496068 24.424186508212159 27.668251049411545 27.479824535273366 26.390334355093085 22.568710640262729 21.652558303171965 173.85112079238735 56.449806138619273 362.64381053775918 59.498449451058498 350.25431741628944 53.845665381935063 297.0787744379881 55.631661710063135 448.8009032485013 462.78700677547209 1099.4891878221993 522.86691218692317 515.03669675852041 692.46078205138906 515.018209102725 644.81697904238342 501.9149874808154 149.12546665261408 839.1198024479163 312.90128135355127 501.90401191413349 339.64906744762243 616.1988661611 291.23463003978617 86.79212913387336 72.090756921279777 67.627535960453059 98.01206133928838 104.78667975486961 93.440992321872102 95.703938118734627 96.249495281823584 41.419846909321599 28.396257172086955 47.519452997694195 30.611811915000843 61.682180946535183 30.70854311106919 53.265458905695148 35.006511928664388 460.51016902937681 260.31252435400995 33.821044657721174 45.40954306272797 12.181774407411304 63.233614331527534 12.183277420051414 55.022742908809143 12.197803234549669 70.187761432090568 12.187031621236256 19.811981513232457 18.874307602831006 23.820624706746372 23.601747173085798 26.281390958113885 27.814701767543653 24.238991042200933 21.204807133829142 141.27810437260968 38.474081399867181 217.81032881423661 53.732969123019309 365.82910682791857 89.544784609041074 321.13471187370072 57.485611976699275 236.47348672299063 207.88498570173368 359.38319579871109 477.42725348693824 385.00783690204696 768.47570426001778 865.75275500039334 554.07712022332544 501.74632225462676 102.63954775597773 435.53776912028434 180.35255170525602 524.11497998692573 219.9578071567683 1273.6461498933481 285.04015414566084 114.67554496089356 73.041711881856457 70.854187873957557 87.106232299580711 91.644573621736612 115.99370981818139 171.06851628847758 109.4603025255318 72.502425505326542 30.185317903819932 50.858100391503655 30.283827508258938 59.51119727398931 30.177831380640434 119.73643451326834 33.25888538137319 704.62696747429823 348.50238259545915 31.491828924793168 51.838311459504354 12.19878340401846 55.568610661006581 12.189572636600584 54.367901237913365 12.20201999924817 66.049271583562302 12.191789113440473 18.900309673400873 22.055169686113782 28.560738408066555 30.113671865179441 24.181420775775123 24.272735914798137 28.2759482611552 27.014645147091795 192.70800163610559 64.06607282499715 348.82581823408333 55.976203167703147 236.25170388777343 87.069068301359067 234.86402148901732 40.09836630738517 229.08330357741599 682.78477500882764 829.86157600877334 529.56712212984326 366.42422281767784 734.42221795835303 1001.0394752641694 336.24415772856355 347.64186604777217 152.6789081106148 822.12779099835825 334.6664211560938 551.0105239865976 183.56036131141508 1157.7474747451533 232.12573171419217 90.628276504700295 75.546193879591996 71.253071782873192 117.13535149832452 137.12592403378642 99.81589704853198 97.571091699660457 83.539570413222251 64.373468031528944 32.200657836559614 55.880110557318559 25.128610955928643 83.75562741521756 32.423660538158032 71.870543079679436 25.508800454976853 549.82908062749527 286.21085466442094 31.750915807210951 46.278795013859323 12.19924428718458 56.267838667053056 12.192586329923499 56.784620098867023 12.202753538097678 51.904919273997137 12.196412386272176 18.504573853586635 21.784047623263511 24.837333810645838 25.10960084558258 25.297849678704157 31.122465129752875 27.483689946364379 24.443183093683942 194.41491045807697 50.405028531553711 224.22294593440878 79.136733372691566 350.65787524433398 75.666494533594033 316.9083146414888 67.352217644151793 283.35197928232208 470.45643317180964 430.74876024573757 273.63825138119807 588.23346014367041 717.92451391302359 653.00469159741056 484.8517939028763 385.95001330919172 121.94679523607822 479.58722269004551 160.8849447405151 468.62308707668063 327.95417556712192 741.50799073618271 222.11896918325954 105.28225211821517 75.587152698810542 64.816874774274353 80.888911659704476 117.49147451106475 134.0249660078286 114.21003611314924 107.52855279545638 73.502830539124631 30.921338190828475 60.551298163572724 28.077754814620899 78.771314938381096 33.444595299470656 78.955373257888553 37.055928613197885 559.50596971417997 282.25560802510415 349.89894605636499 386.10290963638153 370.42869825586394 365.24849740932507 404.74145261531044 373.72657850205144 450.07740387688187 374.16899466211089 497.2414538510867 365.27193492409793 523.43151967794461 387.58720795560549 370.01424932172546 567.09278408791579 427.89973878148749 557.32296733843657 482.20966719043395 568.8320512367012 425.72004117679012 596.28473325539323;44.691360597347504 51.471702074891525 12.960525678553436 54.29384028412619 12.971421946990805 55.487683304713492 12.957975709295255 46.390513759931473 12.960775402283454 23.58820602049525 21.059136518358141 25.704835262632862 29.230201178397831 28.471285433529268 26.85036076735976 23.535770757294785 23.01482639091806 165.2582804486365 57.015081814025564 334.07850032397505 63.079828710608631 328.05516274105844 56.026687552025024 276.93043552712595 58.645910426869698 432.43555907006606 409.45037734889871 983.23887620684536 467.24487517299241 463.95974257781717 637.90887550412072 478.79224778577014 570.2366782145283 465.09284173460821 140.44438235781848 757.95823423085801 287.50850847051748 462.01151329501027 306.61149033457434 566.68283404513238 269.18657654393354 83.273470439819278 70.209590626542735 66.265883433873171 94.319868622136411 100.59604317046686 91.370191979646876 92.709874967468181 91.832458651262328 41.399733461036696 30.435687269077604 48.180311381685961 31.042833838837964 62.079982581988205 33.249474710771423 52.71078877682158 35.577917872543907 425.95421865429824 248.53328749125646 41.991774104514775 46.279018339409873 12.957145052907361 65.467574348481747 12.959832210328836 54.8909037537736 12.971860306628859 71.233694886828857 12.961105283380041 20.618049142743672 19.799952541438035 25.416033418662995 25.265299238517755 27.54669392430673 29.18088908583016 26.042977094080122 22.337088971989967 139.78377461085617 39.898571580570533 216.51795204132111 58.42633294445077 339.48945777907386 89.125659061439208 306.84180766294162 61.868004279867463 223.9366861789739 201.04119856136134 336.0839481660646 447.58562131749386 351.96209473351792 663.86273070316827 794.38667690002421 518.14644529841769 471.87258973401947 103.33202580225786 400.6506038720446 177.21691501828008 489.97635483356356 206.33562898703207 1178.3448109016183 268.30531697514522 109.02623173107906 71.559654886778986 68.830670684609274 83.972615534758958 90.359589862522014 111.72541052661457 159.40469975977317 103.26974072465836 71.992773831389371 32.740991634605159 50.925226630539818 31.472931511063216 58.925152016124287 33.056132125623968 117.39249065960411 34.440862998096392 669.63446887339819 346.83484413234351 42.249167329131751 51.922413466370294 12.969715222534989 60.692762917810533 12.96462778348813 54.705524393634043 12.971443860217676 71.288944186635476 12.963843658152722 19.716018977912949 22.896663997688393 30.135378155100646 31.918536428381056 25.400514867820508 24.829299380537542 29.783244759062622 28.59200334984401 184.31918072098696 65.272591872059564 317.23110338715952 57.30533053432778 224.9803250424726 90.902788359661571 232.08193873653565 41.707636823615076 216.15334634284594 606.24203634149626 746.09267849703588 463.83802408281338 320.56488141899365 666.22114370611393 909.79444769219992 310.91268577412819 330.12988202176945 148.05196368543076 753.55540322766547 301.15869874308794 491.91738200716259 173.45331760403636 1086.9895776097114 218.26157697204934 89.359795741562451 75.433826501643694 70.002680877317758 110.62187246049284 128.78039258622132 97.654194731865559 93.863137288714626 81.096550155535766 63.929222586705045 36.071433023206566 55.750410592520538 25.825598238296891 83.150177250732327 35.75497871539558 71.297700956309299 26.304467273551037 526.91049549896763 294.25378333962055 45.806334313886886 48.232284466790531 12.969857469041477 62.647002367329939 12.963953283288664 57.993758602869782 12.973077067199393 59.640315905204801 12.968167053055712 19.587688013939403 22.573599515116975 25.91187677353993 26.443417707237014 26.482067841190485 31.755969989286587 29.190017335394103 26.099237918063057 190.9617778000289 51.641511298545659 219.51233775111524 79.744746584246599 342.29674480160912 75.416573748303321 306.55087980999775 73.858648602637246 282.27988331514604 443.87790716254329 423.0138090331651 280.00754023178649 549.33718897716665 704.71661244847405 623.8160094166559 462.58435340496044 353.05998338817619 124.9097250206312 436.29533757496966 160.3130140764865 428.59026997039615 312.44637627766366 701.35463881079193 215.69496893429542 105.04544348885256 78.539984606067563 66.098330100083786 79.318513765612309 115.2762506444728 130.03384514258056 110.15239897124086 105.148819897219 76.375897899019549 34.392009393323036 63.430097135563479 29.575521181302829 81.931282785677183 36.581843810209328 81.81027894886229 38.114773189149496 537.77306013875614 290.96670327215566 381.16174753172697 401.89022449169551 403.26187241272993 378.68067380473502 438.38855719093544 388.697015658189 480.33803597983683 389.19121722980242 522.18897442084585 378.71045205784219 544.46856396268913 403.40161007952827 405.28948922298525 567.22436887766173 459.87450870711234 559.01453322663929 508.94016242761353 568.86250110882202 457.70602141806489 592.51293658524332;58.88831312592685 51.145509354853033 14.391994201853645 61.141968882089813 14.407895473653014 57.089260040642053 14.387360501335303 53.329895057724315 14.398913379777458 25.830623150332354 22.988890474808883 28.804141222221208 32.943907150820522 31.201351617929443 28.418885734469171 25.883690202127283 26.122807124346906 156.73784372935154 59.302043630369539 293.21857864498241 70.154512228460106 300.98161877882148 61.544851444176501 257.82470052585751 63.532893541190425 378.00269476054194 350.18406999043532 791.46140768822374 394.62072012231829 410.25122229650248 547.07987450495295 445.93479977559667 478.90739127581071 374.84938065561255 129.13242369911634 593.10217931044212 240.99939818466291 375.68618107970434 255.53856834976909 490.48979180569461 231.7950748494608 74.307821394723149 64.61210741876782 59.606756682771042 81.433275199055203 90.397885289482375 86.453878903929819 86.577738883562262 79.996993818239602 36.862234246696879 34.922755330008883 42.068873243176668 32.125921626441723 52.559169249820783 38.860815010291333 45.951542860514458 36.904804861543447 362.53417088003022 277.34943706397075 56.77176552377928 47.359245226612252 14.389307161837539 70.42583029148048 14.393948406055072 54.383401068017591 14.402492155543339 74.218753852165875 14.390611257294047 22.583795333169068 21.947838279553608 28.919582764553514 28.881570973049929 30.572410212591066 32.394619454827989 29.995110856981668 24.970410127454983 143.69886436022892 43.376157976547894 204.0324476861752 65.744358322965212 301.23168095844039 89.973674062020251 275.51425976752824 68.695522007196814 229.34514282902205 205.36570966815606 303.6450310210563 392.54056625607035 329.10664607233491 563.89247382372912 678.9314754535111 448.28064168790144 386.45849157207397 105.52459433037549 331.07564711312398 164.54819548711859 404.8872941607367 189.09747200582021 928.87466281176512 231.51000044983141 97.235770870910656 67.136832585986383 62.344207297562313 76.352266768242103 85.412598000921918 101.9112787435178 131.49332513981739 89.455978420703474 60.259656232931796 38.06913641881507 44.224912145515809 33.823807168743542 50.532866506986949 38.898505208057585 94.058256926723118 36.770085475403569 543.53219592551307 349.13595987934343 60.330772173771521 51.894237278342544 14.395263405898318 70.240330721372601 14.397580879240639 55.29072752703523 14.394127725425221 80.102337452624198 14.390907596709319 21.687898439830573 25.111523850694475 34.031446616109669 36.218943026860934 28.38343790871102 26.572208453447757 33.524045377295479 32.379870289200653 181.62767230560902 68.874238962708176 277.25321243020096 60.198504520822482 224.32988497332849 99.418675383265622 